{"learner":{"attributes":{"scikit_learn":"{\"_estimator_type\": \"regressor\"}"},"feature_names":["title_len","has_media","hour"],"feature_types":["int","int","int"],"gradient_booster":{"model":{"cats":{"enc":[],"feature_segments":[],"sorted_idx":[]},"gbtree_model_param":{"num_parallel_tree":"1","num_trees":"50"},"iteration_indptr":[0,1,2,3,4,5,6,7,8,9,10,11,12,13,14,15,16,17,18,19,20,21,22,23,24,25,26,27,28,29,30,31,32,33,34,35,36,37,38,39,40,41,42,43,44,45,46,47,48,49,50],"tree_info":[0,0,0,0,0,0,0,0,0,0,0,0,0,0,0,0,0,0,0,0,0,0,0,0,0,0,0,0,0,0,0,0,0,0,0,0,0,0,0,0,0,0,0,0,0,0,0,0,0,0],"trees":[{"base_weights":[4.594044E-6,3.9787808E2,-2.89643E1,1.126248E2,8.707945E2,6.181033E1,-4.9189617E1,6.563903E1,8.554407E1,1.2354749E3,-2.727098E1,3.448416E1,2.169373E2,-6.0978745E1,6.821385E1,1.932794E1,3.902405E1,6.0395687E1,5.996188E2,-1.2210971E1,-6.097069E-2,-4.4065823E1,5.724221E1,-8.129425E-2,3.0387482E2,-8.0414604E1,-4.8947884E1,-3.9338726E1,1.06687294E2,-1.5360971E1,4.3674824E1,8.390294E-1,2.6339031E1,-2.6414557E0,-5.7919834E1,7.240065E1,-4.2125175E1,1.515187E2,1.3956858E0,-2.4711325E1,-4.4838726E1,3.8034172E1,-5.6148518E1,-1.9537554E1,1.343903E1,2.6432794E2,1.4341767E0,8.390294E-1,1.5958544E1,-2.1637554E1,-4.4812946E0,7.360254E0,2.7814157E1,9.839029E0,-2.0716457E1,-1.2810971E1,1.343903E1,-1.6177555E1,8.902931E-2,6.8008545E1,-2.2561665E1,-1.4634334E1,-2.3110445E1,1.3553903E2,4.0942448E1,1.1895479E1,-1.9741457E1],"categories":[],"categories_nodes":[],"categories_segments":[],"categories_sizes":[],"default_left":[0,0,0,0,0,0,0,0,0,0,0,0,0,0,0,0,0,0,0,0,0,0,0,0,0,0,0,0,0,0,0,0,0,0,0,0,0,0,0,0,0,0,0,0,0,0,0,0,0,0,0,0,0,0,0,0,0,0,0,0,0,0,0,0,0,0,0],"id":0,"left_children":[1,3,5,7,9,11,13,-1,15,17,19,21,23,25,27,29,-1,31,-1,-1,-1,33,35,-1,37,39,41,43,45,-1,47,-1,-1,-1,49,51,53,-1,55,-1,57,59,61,-1,-1,63,65,-1,-1,-1,-1,-1,-1,-1,-1,-1,-1,-1,-1,-1,-1,-1,-1,-1,-1,-1,-1],"loss_changes":[3.2267938E6,2.4650448E6,4.822223E5,1.8661031E4,2.3262405E6,1.9599234E5,3.0035372E5,0E0,3.2873906E4,4.3637055E6,1.0824702E3,7.76035E4,1.3226722E5,4.166075E4,8.695531E4,1.2539578E4,0E0,4.4892705E3,0E0,0E0,0E0,4.375084E3,5.2756305E4,0E0,3.0357025E5,1.387625E3,7.917372E4,1.5934731E4,2.485034E5,0E0,1.7970869E3,0E0,0E0,0E0,3.1966582E3,2.5922656E4,1.2352895E4,0E0,7.654789E3,0E0,2.4767314E3,2.3068789E5,1.3784219E4,0E0,0E0,8.215197E4,2.8306291E4,0E0,0E0,0E0,0E0,0E0,0E0,0E0,0E0,0E0,0E0,0E0,0E0,0E0,0E0,0E0,0E0,0E0,0E0,0E0,0E0],"parents":[2147483647,0,0,1,1,2,2,3,3,4,4,5,5,6,6,8,8,9,9,10,10,11,11,12,12,13,13,14,14,15,15,17,17,21,21,22,22,24,24,25,25,26,26,27,27,28,28,30,30,34,34,35,35,36,36,38,38,40,40,41,41,42,42,45,45,46,46],"right_children":[2,4,6,8,10,12,14,-1,16,18,20,22,24,26,28,30,-1,32,-1,-1,-1,34,36,-1,38,40,42,44,46,-1,48,-1,-1,-1,50,52,54,-1,56,-1,58,60,62,-1,-1,64,66,-1,-1,-1,-1,-1,-1,-1,-1,-1,-1,-1,-1,-1,-1,-1,-1,-1,-1,-1,-1],"split_conditions":[2.5E1,2.2E1,4.5E1,1.3E1,1.5E1,4.3E1,1E0,6.563903E1,1.7E1,1.1E1,2.3E1,9E0,1.3E1,1.2E1,1.5E1,1.2E1,3.902405E1,2.3E1,5.996188E2,-1.2210971E1,-6.097069E-2,1E0,2.2E1,-8.129425E-2,1.4E1,1.53E2,1.3E1,8.6E1,1.7E1,-1.5360971E1,1.4E1,8.390294E-1,2.6339031E1,-2.6414557E0,1E0,1.2E1,3.2E1,1.515187E2,1E0,-2.4711325E1,8E0,5.6E1,2.1E1,-1.9537554E1,1.343903E1,6.6E1,1.01E2,8.390294E-1,1.5958544E1,-2.1637554E1,-4.4812946E0,7.360254E0,2.7814157E1,9.839029E0,-2.0716457E1,-1.2810971E1,1.343903E1,-1.6177555E1,8.902931E-2,6.8008545E1,-2.2561665E1,-1.4634334E1,-2.3110445E1,1.3553903E2,4.0942448E1,1.1895479E1,-1.9741457E1],"split_indices":[0,0,0,0,2,0,1,0,0,2,0,2,2,2,2,2,0,0,0,0,0,2,2,0,2,0,2,0,2,0,0,0,0,0,1,2,0,0,1,0,2,0,2,0,0,0,0,0,0,0,0,0,0,0,0,0,0,0,0,0,0,0,0,0,0,0,0],"split_type":[0,0,0,0,0,0,0,0,0,0,0,0,0,0,0,0,0,0,0,0,0,0,0,0,0,0,0,0,0,0,0,0,0,0,0,0,0,0,0,0,0,0,0,0,0,0,0,0,0,0,0,0,0,0,0,0,0,0,0,0,0,0,0,0,0,0,0],"sum_hessian":[2.78E2,1.8E1,2.6E2,1.2E1,6E0,4.7E1,2.13E2,1E0,1.1E1,4E0,2E0,4.1E1,6E0,1.94E2,1.9E1,5E0,6E0,2E0,2E0,1E0,1E0,9E0,3.2E1,2E0,4E0,7.2E1,1.22E2,5E0,1.4E1,1E0,4E0,1E0,1E0,3E0,6E0,2.8E1,4E0,2E0,2E0,6.7E1,5E0,9E0,1.13E2,4E0,1E0,5E0,9E0,1E0,3E0,4E0,2E0,9E0,1.9E1,1E0,3E0,1E0,1E0,4E0,1E0,3E0,6E0,8.6E1,2.7E1,1E0,4E0,6E0,3E0],"tree_param":{"num_deleted":"0","num_feature":"3","num_nodes":"67","size_leaf_vector":"1"}},{"base_weights":[3.5758638E0,3.1644223E2,-1.921355E1,8.699887E1,6.9734534E2,4.6342274E1,-3.3827877E1,5.579318E1,6.3252563E1,9.9019165E2,-2.3180334E1,2.403264E1,1.7357976E2,-4.2854855E1,5.587654E1,1.376899E1,9.6630974E1,2.6199594E2,5.854462E2,-1.0379326E1,-5.1824573E-2,-3.3722107E1,4.0805817E1,-6.503601E-2,2.4314172E2,-5.88474E1,-3.5135506E1,-2.855353E1,8.592347E1,-1.3056826E1,3.393189E1,4.1113895E1,5.305558E1,5.1336334E1,1.3409622E2,-2.0471284E0,-4.427515E1,7.919975E1,8.347139E0,4.040499E2,1.1863327E0,-3.1881552E1,-1.8350187E1,-2.4586704E0,-4.335808E1,-1.4848541E1,1.1423175E1,2.1444313E2,2.1932296E-1,7.1317524E-1,1.2367871E1,-7.086106E0,3.3613895E1,7.1317524E-1,2.2388176E1,-1.6444542E1,-3.5850358E0,5.372985E0,5.0444843E1,-1.1840321E1,2.8786123E1,3.6911224E1,1.4491122E2,-1.0889325E1,1.1423175E1,-3.346835E0,-1.673903E1,3.750359E1,-8.673782E0,-1.7303307E1,-1.0769571E1,1.1520818E2,3.1116259E1,8.836641E0,-1.529963E1],"categories":[],"categories_nodes":[],"categories_segments":[],"categories_sizes":[],"default_left":[0,0,0,0,0,0,0,0,0,0,0,0,0,0,0,0,0,0,0,0,0,0,0,0,0,0,0,0,0,0,0,0,0,0,0,0,0,0,0,0,0,0,0,0,0,0,0,0,0,0,0,0,0,0,0,0,0,0,0,0,0,0,0,0,0,0,0,0,0,0,0,0,0,0,0],"id":1,"left_children":[1,3,5,7,9,11,13,-1,15,17,19,21,23,25,27,29,31,33,-1,-1,-1,35,37,-1,39,41,43,45,47,-1,49,-1,51,53,-1,-1,55,57,59,61,63,65,-1,67,69,-1,-1,71,73,-1,-1,-1,-1,-1,-1,-1,-1,-1,-1,-1,-1,-1,-1,-1,-1,-1,-1,-1,-1,-1,-1,-1,-1,-1,-1],"loss_changes":[1.9953615E6,1.5998501E6,2.5161983E5,1.8791273E4,1.4999758E6,1.3208225E5,1.7568314E5,0E0,1.8489684E4,2.9887755E6,7.8208484E2,4.2062746E4,8.468014E4,2.2005531E4,5.31907E4,8.407814E3,5.0567266E3,1.3293419E5,0E0,0E0,0E0,2.5364697E3,4.046405E4,0E0,1.9418362E5,1.9284688E3,3.589758E4,1.0256771E4,1.65173E5,0E0,1.0528472E3,0E0,2.5262418E4,3.243498E3,0E0,0E0,1.7298896E3,7.876411E4,8.337616E4,7.1577812E3,5.5305845E3,2.8470981E3,0E0,9.803323E4,9.358891E3,0E0,0E0,7.282881E4,1.6476387E4,0E0,0E0,0E0,0E0,0E0,0E0,0E0,0E0,0E0,0E0,0E0,0E0,0E0,0E0,0E0,0E0,0E0,0E0,0E0,0E0,0E0,0E0,0E0,0E0,0E0,0E0],"parents":[2147483647,0,0,1,1,2,2,3,3,4,4,5,5,6,6,8,8,9,9,10,10,11,11,12,12,13,13,14,14,15,15,16,16,17,17,21,21,22,22,24,24,25,25,26,26,27,27,28,28,30,30,32,32,33,33,36,36,37,37,38,38,39,39,40,40,41,41,43,43,44,44,47,47,48,48],"right_children":[2,4,6,8,10,12,14,-1,16,18,20,22,24,26,28,30,32,34,-1,-1,-1,36,38,-1,40,42,44,46,48,-1,50,-1,52,54,-1,-1,56,58,60,62,64,66,-1,68,70,-1,-1,72,74,-1,-1,-1,-1,-1,-1,-1,-1,-1,-1,-1,-1,-1,-1,-1,-1,-1,-1,-1,-1,-1,-1,-1,-1,-1,-1],"split_conditions":[2.5E1,2.2E1,4.5E1,1.3E1,1.5E1,4.3E1,1E0,5.579318E1,1.7E1,1E0,2.3E1,9E0,1.3E1,1E1,1.5E1,1.2E1,1.9E1,2.4E1,5.854462E2,-1.0379326E1,-5.1824573E-2,1E0,1.6E1,-6.503601E-2,1.4E1,1E0,6.4E1,8.6E1,1.7E1,-1.3056826E1,1.4E1,4.1113895E1,1E0,2.3E1,1.3409622E2,-2.0471284E0,1E0,1.2E1,3.8E1,4.4E1,1E0,1.03E2,-1.8350187E1,1.3E1,1.6E1,-1.4848541E1,1.1423175E1,6.6E1,1.01E2,7.1317524E-1,1.2367871E1,-7.086106E0,3.3613895E1,7.1317524E-1,2.2388176E1,-1.6444542E1,-3.5850358E0,5.372985E0,5.0444843E1,-1.1840321E1,2.8786123E1,3.6911224E1,1.4491122E2,-1.0889325E1,1.1423175E1,-3.346835E0,-1.673903E1,3.750359E1,-8.673782E0,-1.7303307E1,-1.0769571E1,1.1520818E2,3.1116259E1,8.836641E0,-1.529963E1],"split_indices":[0,0,0,0,2,0,1,0,0,1,0,2,2,2,2,2,0,0,0,0,0,2,2,0,2,2,0,0,2,0,0,0,1,0,0,0,1,2,0,0,1,0,0,2,2,0,0,0,0,0,0,0,0,0,0,0,0,0,0,0,0,0,0,0,0,0,0,0,0,0,0,0,0,0,0],"split_type":[0,0,0,0,0,0,0,0,0,0,0,0,0,0,0,0,0,0,0,0,0,0,0,0,0,0,0,0,0,0,0,0,0,0,0,0,0,0,0,0,0,0,0,0,0,0,0,0,0,0,0,0,0,0,0,0,0,0,0,0,0,0,0,0,0,0,0,0,0,0,0,0,0,0,0],"sum_hessian":[2.78E2,1.8E1,2.6E2,1.2E1,6E0,4.7E1,2.13E2,1E0,1.1E1,4E0,2E0,4.1E1,6E0,1.94E2,1.9E1,5E0,6E0,3E0,1E0,1E0,1E0,9E0,3.2E1,2E0,4E0,6.1E1,1.33E2,5E0,1.4E1,1E0,4E0,2E0,4E0,2E0,1E0,3E0,6E0,1.4E1,1.8E1,2E0,2E0,6E0,5.5E1,2.7E1,1.06E2,4E0,1E0,5E0,9E0,1E0,3E0,2E0,2E0,1E0,1E0,4E0,2E0,9E0,5E0,1.2E1,6E0,1E0,1E0,1E0,1E0,4E0,2E0,4E0,2.3E1,3.4E1,7.2E1,1E0,4E0,6E0,3E0],"tree_param":{"num_deleted":"0","num_feature":"3","num_nodes":"75","size_leaf_vector":"1"}},{"base_weights":[6.759044E0,2.6654492E2,-1.2178469E1,7.039606E1,5.927435E2,3.7293304E1,-2.3218033E1,4.74242E1,4.991562E1,8.4166296E2,-1.9703283E1,1.802968E1,1.4754744E2,-3.0191624E1,4.5935383E1,9.642327E0,7.730479E1,2.2269655E2,4.976293E2,-8.822427E0,-4.40506E-2,2.5715841E1,-1.8425346E1,-5.202942E-2,2.0667047E2,-6.0338303E1,-2.6594322E1,8.396686E1,-4.9277496E-1,-1.1098302E1,2.6368528E1,3.2891117E1,4.2444466E1,4.3635887E1,1.1398179E2,1.2923764E1,1.3441559E2,3.4344238E2,1.0083847E0,-7.0657974E1,-3.602655E1,2.0659021E2,-3.1832148E1,-2.0558365E1,1.744976E2,2.242023E1,-1.2140203E1,6.0619926E-1,9.585099E0,-1.3101664E1,2.2467506E1,6.0619926E-1,1.9029951E1,7.9842114E0,-1.4278523E1,1.2566908E1,6.1798992E1,3.1374542E1,1.2317454E2,-9.255926E0,9.709699E0,-1.4059683E1,-2.7181442E1,-1.34007845E1,-2.0196717E0,1.4026222E2,-1.0872061E1,-1.256672E1,-6.0481744E0,-1.1284891E1,9.709699E0,9.792695E1,2.3648357E1,-1.0066872E1,3.247228E1],"categories":[],"categories_nodes":[],"categories_segments":[],"categories_sizes":[],"default_left":[0,0,0,0,0,0,0,0,0,0,0,0,0,0,0,0,0,0,0,0,0,0,0,0,0,0,0,0,0,0,0,0,0,0,0,0,0,0,0,0,0,0,0,0,0,0,0,0,0,0,0,0,0,0,0,0,0,0,0,0,0,0,0,0,0,0,0,0,0,0,0,0,0,0,0],"id":2,"left_children":[1,3,5,7,9,11,13,-1,15,17,19,21,23,25,27,29,31,33,-1,-1,-1,35,-1,-1,37,39,41,43,45,-1,47,-1,49,51,-1,53,55,57,59,61,63,65,67,69,71,73,-1,-1,-1,-1,-1,-1,-1,-1,-1,-1,-1,-1,-1,-1,-1,-1,-1,-1,-1,-1,-1,-1,-1,-1,-1,-1,-1,-1,-1],"loss_changes":[1.375842E6,1.1739595E6,1.4341019E5,1.5454953E4,1.083733E6,9.928668E4,1.0458786E5,0E0,1.2491225E4,2.1593902E6,5.650564E2,2.7226555E4,6.117178E4,1.9542469E4,3.5356E4,5.6558125E3,3.2363086E3,9.604495E4,0E0,0E0,0E0,5.249217E4,0E0,0E0,1.4029769E5,2.4722188E3,2.2153903E5,1.076776E5,1.0066662E4,0E0,6.149636E2,0E0,1.724192E4,2.3434272E3,0E0,3.1093393E4,1.7863258E4,5.1715E3,3.9958472E3,1.9233203E3,1.7247383E3,2.7041062E5,1.9462219E4,6.634125E3,6.147683E4,3.7259734E4,0E0,0E0,0E0,0E0,0E0,0E0,0E0,0E0,0E0,0E0,0E0,0E0,0E0,0E0,0E0,0E0,0E0,0E0,0E0,0E0,0E0,0E0,0E0,0E0,0E0,0E0,0E0,0E0,0E0],"parents":[2147483647,0,0,1,1,2,2,3,3,4,4,5,5,6,6,8,8,9,9,10,10,11,11,12,12,13,13,14,14,15,15,16,16,17,17,21,21,24,24,25,25,26,26,27,27,28,28,30,30,32,32,33,33,35,35,36,36,37,37,38,38,39,39,40,40,41,41,42,42,43,43,44,44,45,45],"right_children":[2,4,6,8,10,12,14,-1,16,18,20,22,24,26,28,30,32,34,-1,-1,-1,36,-1,-1,38,40,42,44,46,-1,48,-1,50,52,-1,54,56,58,60,62,64,66,68,70,72,74,-1,-1,-1,-1,-1,-1,-1,-1,-1,-1,-1,-1,-1,-1,-1,-1,-1,-1,-1,-1,-1,-1,-1,-1,-1,-1,-1,-1,-1],"split_conditions":[2.5E1,2.2E1,4.5E1,1.3E1,1.5E1,4.3E1,1E0,4.74242E1,1.7E1,1E0,2.3E1,4.2E1,1.3E1,5.5E1,1.7E1,1.2E1,1.9E1,2.4E1,4.976293E2,-8.822427E0,-4.40506E-2,4.1E1,-1.8425346E1,-5.202942E-2,1.4E1,1.7E1,5.6E1,1.5E1,2.3E1,-1.1098302E1,1.4E1,3.2891117E1,2E1,2.3E1,1.1398179E2,4E1,1.6E1,4.4E1,1E0,4.9E1,4.8E1,1.3E1,1.6E1,8.6E1,6.6E1,2.1E1,-1.2140203E1,6.0619926E-1,9.585099E0,-1.3101664E1,2.2467506E1,6.0619926E-1,1.9029951E1,7.9842114E0,-1.4278523E1,1.2566908E1,6.1798992E1,3.1374542E1,1.2317454E2,-9.255926E0,9.709699E0,-1.4059683E1,-2.7181442E1,-1.34007845E1,-2.0196717E0,1.4026222E2,-1.0872061E1,-1.256672E1,-6.0481744E0,-1.1284891E1,9.709699E0,9.792695E1,2.3648357E1,-1.0066872E1,3.247228E1],"split_indices":[0,0,0,0,2,0,1,0,0,1,0,0,2,0,2,2,0,0,0,0,0,0,0,0,2,2,0,2,2,0,0,0,0,0,0,0,2,0,1,0,0,2,2,0,0,2,0,0,0,0,0,0,0,0,0,0,0,0,0,0,0,0,0,0,0,0,0,0,0,0,0,0,0,0,0],"split_type":[0,0,0,0,0,0,0,0,0,0,0,0,0,0,0,0,0,0,0,0,0,0,0,0,0,0,0,0,0,0,0,0,0,0,0,0,0,0,0,0,0,0,0,0,0,0,0,0,0,0,0,0,0,0,0,0,0,0,0,0,0,0,0,0,0,0,0,0,0,0,0,0,0,0,0],"sum_hessian":[2.78E2,1.8E1,2.6E2,1.2E1,6E0,4.7E1,2.13E2,1E0,1.1E1,4E0,2E0,4.1E1,6E0,1.94E2,1.9E1,5E0,6E0,3E0,1E0,1E0,1E0,3.8E1,3E0,2E0,4E0,1.9E1,1.75E2,1E1,9E0,1E0,4E0,2E0,4E0,2E0,1E0,3.5E1,3E0,2E0,2E0,1.2E1,7E0,3E0,1.72E2,5E0,5E0,6E0,3E0,1E0,3E0,1E0,3E0,1E0,1E0,2.9E1,6E0,2E0,1E0,1E0,1E0,1E0,1E0,7E0,5E0,5E0,2E0,1E0,2E0,9.1E1,8.1E1,4E0,1E0,1E0,4E0,4E0,2E0],"tree_param":{"num_deleted":"0","num_feature":"3","num_nodes":"75","size_leaf_vector":"1"}},{"base_weights":[8.674453E0,2.2401067E2,-7.0345984E0,5.610602E1,5.0383203E2,3.0367754E1,-1.5391039E1,4.031057E1,3.8386765E1,7.154135E2,-1.674779E1,1.3802831E1,1.25419044E2,-2.085663E1,3.8668037E1,6.5984626E0,6.015006E1,1.8929205E2,4.2298492E2,-7.499063E0,-3.744278E-2,-2.5490753E1,2.529171E1,-4.162293E-2,1.756699E2,-1.2962321E1,-2.9736258E1,-2.9016048E1,5.740256E1,-9.433557E0,2.049623E1,2.6312895E1,3.1584293E1,3.7090504E1,9.6884514E1,-3.236639E1,1.3411967E0,7.560866E1,3.2724934E0,2.9192606E2,8.571269E-1,-1.9081694E1,3.6052956E1,-3.49984E1,-2.3579432E1,-1.4416306E0,-1.0160202E1,1.9894922E2,2.2970951E1,5.152691E-1,7.428452E0,-6.605468E0,2.2397615E1,5.152691E-1,1.6175457E1,-3.3829732E0,-1.2829489E1,7.190758E0,-6.5872197E0,3.8580215E1,-1.0808884E1,-1.7204931E1,1.30407505E1,2.666836E1,1.04698364E2,-7.8675365E0,8.253243E0,-1.35209675E1,-3.5691257E0,-7.5251036E0,1.7765675E1,-1.2876689E1,-5.088967E0,-7.746425E-1,-8.851465E0,6.2892427E0,8.323791E1,9.801092E0,-7.0450363E0],"categories":[],"categories_nodes":[],"categories_segments":[],"categories_sizes":[],"default_left":[0,0,0,0,0,0,0,0,0,0,0,0,0,0,0,0,0,0,0,0,0,0,0,0,0,0,0,0,0,0,0,0,0,0,0,0,0,0,0,0,0,0,0,0,0,0,0,0,0,0,0,0,0,0,0,0,0,0,0,0,0,0,0,0,0,0,0,0,0,0,0,0,0,0,0,0,0,0,0],"id":3,"left_children":[1,3,5,7,9,11,13,-1,15,17,19,21,23,25,27,29,31,33,-1,-1,-1,35,37,-1,39,41,43,45,47,-1,49,-1,51,53,-1,55,57,59,61,63,65,67,69,71,73,-1,-1,75,77,-1,-1,-1,-1,-1,-1,-1,-1,-1,-1,-1,-1,-1,-1,-1,-1,-1,-1,-1,-1,-1,-1,-1,-1,-1,-1,-1,-1,-1,-1],"loss_changes":[9.453568E5,8.644149E5,8.204308E4,1.2869828E4,7.829969E5,7.384569E4,6.4035965E4,0E0,7.904918E3,1.5601598E6,4.0825336E2,1.9605152E4,4.4190086E4,1.3283766E4,2.702618E4,3.8168384E3,2.7405781E3,6.939247E4,0E0,0E0,0E0,1.8882773E3,3.631458E4,0E0,1.0136508E5,3.2181941E4,2.1229922E3,4.245166E2,7.340881E4,0E0,3.5795166E2,0E0,1.3188338E4,1.693126E3,0E0,1.2721885E3,2.1079026E3,6.379285E4,6.0976465E4,3.7363906E3,2.8869993E3,1.7015008E4,1.8480887E4,5.9886133E3,5.5226406E3,0E0,0E0,3.610436E4,7.0753013E3,0E0,0E0,0E0,0E0,0E0,0E0,0E0,0E0,0E0,0E0,0E0,0E0,0E0,0E0,0E0,0E0,0E0,0E0,0E0,0E0,0E0,0E0,0E0,0E0,0E0,0E0,0E0,0E0,0E0,0E0],"parents":[2147483647,0,0,1,1,2,2,3,3,4,4,5,5,6,6,8,8,9,9,10,10,11,11,12,12,13,13,14,14,15,15,16,16,17,17,21,21,22,22,24,24,25,25,26,26,27,27,28,28,30,30,32,32,33,33,35,35,36,36,37,37,38,38,39,39,40,40,41,41,42,42,43,43,44,44,47,47,48,48],"right_children":[2,4,6,8,10,12,14,-1,16,18,20,22,24,26,28,30,32,34,-1,-1,-1,36,38,-1,40,42,44,46,48,-1,50,-1,52,54,-1,56,58,60,62,64,66,68,70,72,74,-1,-1,76,78,-1,-1,-1,-1,-1,-1,-1,-1,-1,-1,-1,-1,-1,-1,-1,-1,-1,-1,-1,-1,-1,-1,-1,-1,-1,-1,-1,-1,-1,-1],"split_conditions":[2.5E1,2.2E1,4.5E1,1.3E1,1.5E1,4.3E1,1E0,4.031057E1,1.7E1,1E0,2.3E1,9E0,1.3E1,8.6E1,5.9E1,1.2E1,1.9E1,2.4E1,4.2298492E2,-7.499063E0,-3.744278E-2,1E0,3.2E1,-4.162293E-2,1.4E1,8.2E1,1.02E2,5E1,6.6E1,-9.433557E0,1.4E1,2.6312895E1,1E0,2.3E1,9.6884514E1,1E0,4.1E1,1.6E1,3.7E1,4.4E1,1E0,5.5E1,9E0,1.8E1,1.07E2,-1.4416306E0,-1.0160202E1,6.3E1,2.3E1,5.152691E-1,7.428452E0,-6.605468E0,2.2397615E1,5.152691E-1,1.6175457E1,-3.3829732E0,-1.2829489E1,7.190758E0,-6.5872197E0,3.8580215E1,-1.0808884E1,-1.7204931E1,1.30407505E1,2.666836E1,1.04698364E2,-7.8675365E0,8.253243E0,-1.35209675E1,-3.5691257E0,-7.5251036E0,1.7765675E1,-1.2876689E1,-5.088967E0,-7.746425E-1,-8.851465E0,6.2892427E0,8.323791E1,9.801092E0,-7.0450363E0],"split_indices":[0,0,0,0,2,0,1,0,0,1,0,2,2,0,0,2,0,0,0,0,0,1,0,0,2,0,0,0,0,0,0,0,1,0,0,2,0,2,0,0,1,0,2,2,0,0,0,0,2,0,0,0,0,0,0,0,0,0,0,0,0,0,0,0,0,0,0,0,0,0,0,0,0,0,0,0,0,0,0],"split_type":[0,0,0,0,0,0,0,0,0,0,0,0,0,0,0,0,0,0,0,0,0,0,0,0,0,0,0,0,0,0,0,0,0,0,0,0,0,0,0,0,0,0,0,0,0,0,0,0,0,0,0,0,0,0,0,0,0,0,0,0,0,0,0,0,0,0,0,0,0,0,0,0,0,0,0,0,0,0,0],"sum_hessian":[2.78E2,1.8E1,2.6E2,1.2E1,6E0,4.7E1,2.13E2,1E0,1.1E1,4E0,2E0,4.1E1,6E0,1.94E2,1.9E1,5E0,6E0,3E0,1E0,1E0,1E0,9E0,3.2E1,2E0,4E0,1.04E2,9E1,4E0,1.5E1,1E0,4E0,2E0,4E0,2E0,1E0,7E0,2E0,9E0,2.3E1,2E0,2E0,9.3E1,1.1E1,4.6E1,4.4E1,1E0,3E0,2E0,1.3E1,1E0,3E0,2E0,2E0,1E0,1E0,3E0,4E0,1E0,1E0,6E0,3E0,9E0,1.4E1,1E0,1E0,1E0,1E0,1.9E1,7.4E1,3E0,8E0,3.1E1,1.5E1,1E1,3.4E1,1E0,1E0,1.1E1,2E0],"tree_param":{"num_deleted":"0","num_feature":"3","num_nodes":"79","size_leaf_vector":"1"}},{"base_weights":[8.924798E0,1.8891005E2,-4.2117715E0,4.5499275E1,4.282572E2,1.3868195E1,-1.6085852E1,3.4263985E1,3.0255339E1,6.0810144E2,-1.4235621E1,-2.0934093E1,3.4223057E1,-1.921899E1,2.0339077E1,4.3706183E0,4.812005E1,1.6089825E2,3.5953717E2,-6.3742037E0,-3.182602E-2,4.977816E1,-2.8209507E1,9.903833E1,-7.7140183E0,-1.6797224E1,-3.210544E1,-2.4322934E0,4.0204865E1,-8.018523E0,1.5936106E1,2.1050318E1,2.5267435E1,3.1526926E1,8.235184E1,-7.8718657E0,2.5159176E1,-2.112826E1,-4.7105667E1,5.957489E1,1.4743622E2,-4.19365E1,1.8531438E0,-2.1583746E1,-8.932745E0,-3.6842613E1,-1.6691109E1,1.2319211E1,-1.3596166E1,3.893821E1,3.6410015E0,8.588034E0,1.6820229E0,-1.0145593E1,1.4548085E1,4.3797913E-1,1.3749139E1,-2.7782605E0,-7.392919E0,-2.0495277E1,-4.9417844E0,3.5810783E1,-1.7993189E1,1.1975825E2,2.4702303E1,-1.6809385E1,1.4790505E0,1.5989102E1,-5.8977036E0,1.9622828E0,-6.9643283E0,3.004302E0,-7.8236384E0,-2.863747E-1,-1.1751454E1,1.3532033E0,-1.0116035E1,-8.959493E0,1.4130591E1],"categories":[],"categories_nodes":[],"categories_segments":[],"categories_sizes":[],"default_left":[0,0,0,0,0,0,0,0,0,0,0,0,0,0,0,0,0,0,0,0,0,0,0,0,0,0,0,0,0,0,0,0,0,0,0,0,0,0,0,0,0,0,0,0,0,0,0,0,0,0,0,0,0,0,0,0,0,0,0,0,0,0,0,0,0,0,0,0,0,0,0,0,0,0,0,0,0,0,0],"id":4,"left_children":[1,3,5,7,9,11,13,-1,15,17,19,21,23,25,27,29,31,33,-1,-1,-1,35,37,39,41,43,45,47,49,-1,51,-1,53,55,-1,-1,-1,57,59,61,63,65,67,69,71,73,75,-1,-1,-1,77,-1,-1,-1,-1,-1,-1,-1,-1,-1,-1,-1,-1,-1,-1,-1,-1,-1,-1,-1,-1,-1,-1,-1,-1,-1,-1,-1,-1],"loss_changes":[6.604601E5,6.326888E5,5.6255332E4,1.0161574E4,5.657154E5,7.438961E4,1.8422547E4,0E0,5.3387627E3,1.127215E6,2.9496313E2,2.1468191E4,1.8016273E5,4.017082E3,5.978615E3,2.583999E3,1.7539697E3,5.0136062E4,0E0,0E0,0E0,1.2565034E4,3.8218418E3,4.087511E4,1.3501607E4,4.512633E3,9.9150586E2,1.4919415E4,2.2457502E4,0E0,4.949298E2,0E0,8.501707E3,1.223283E3,0E0,0E0,0E0,9.3970703E2,4.722705E3,1.2153623E5,1.4740055E5,6.221426E3,3.7567824E4,3.68325E3,1.6179678E4,1.2998809E3,2.6794185E3,0E0,0E0,0E0,1.0143912E4,0E0,0E0,0E0,0E0,0E0,0E0,0E0,0E0,0E0,0E0,0E0,0E0,0E0,0E0,0E0,0E0,0E0,0E0,0E0,0E0,0E0,0E0,0E0,0E0,0E0,0E0,0E0,0E0],"parents":[2147483647,0,0,1,1,2,2,3,3,4,4,5,5,6,6,8,8,9,9,10,10,11,11,12,12,13,13,14,14,15,15,16,16,17,17,21,21,22,22,23,23,24,24,25,25,26,26,27,27,28,28,30,30,32,32,33,33,37,37,38,38,39,39,40,40,41,41,42,42,43,43,44,44,45,45,46,46,50,50],"right_children":[2,4,6,8,10,12,14,-1,16,18,20,22,24,26,28,30,32,34,-1,-1,-1,36,38,40,42,44,46,48,50,-1,52,-1,54,56,-1,-1,-1,58,60,62,64,66,68,70,72,74,76,-1,-1,-1,78,-1,-1,-1,-1,-1,-1,-1,-1,-1,-1,-1,-1,-1,-1,-1,-1,-1,-1,-1,-1,-1,-1,-1,-1,-1,-1,-1,-1],"split_conditions":[2.5E1,2.2E1,6.7E1,1.3E1,1.5E1,1.2E1,1E0,3.4263985E1,1.7E1,1E0,2.3E1,2.7E1,1.7E1,2.1E1,8.6E1,1.2E1,1.9E1,2.4E1,3.5953717E2,-6.3742037E0,-3.182602E-2,2.6E1,1E1,5.5E1,3.6E1,1.6E1,1.05E2,7.2E1,1.01E2,-8.018523E0,1E0,2.1050318E1,2E1,2.3E1,8.235184E1,-7.8718657E0,2.5159176E1,4.1E1,1.1E1,4.5E1,5.6E1,2.3E1,4.2E1,1E0,9.1E1,7.1E1,1.14E2,1.2319211E1,-1.3596166E1,3.893821E1,1.12E2,8.588034E0,1.6820229E0,-1.0145593E1,1.4548085E1,4.3797913E-1,1.3749139E1,-2.7782605E0,-7.392919E0,-2.0495277E1,-4.9417844E0,3.5810783E1,-1.7993189E1,1.1975825E2,2.4702303E1,-1.6809385E1,1.4790505E0,1.5989102E1,-5.8977036E0,1.9622828E0,-6.9643283E0,3.004302E0,-7.8236384E0,-2.863747E-1,-1.1751454E1,1.3532033E0,-1.0116035E1,-8.959493E0,1.4130591E1],"split_indices":[0,0,0,0,2,2,1,0,0,1,0,0,2,2,0,2,0,0,0,0,0,0,2,0,0,2,0,0,0,0,1,0,0,0,0,0,0,0,2,0,0,2,0,2,0,0,0,0,0,0,0,0,0,0,0,0,0,0,0,0,0,0,0,0,0,0,0,0,0,0,0,0,0,0,0,0,0,0,0],"split_type":[0,0,0,0,0,0,0,0,0,0,0,0,0,0,0,0,0,0,0,0,0,0,0,0,0,0,0,0,0,0,0,0,0,0,0,0,0,0,0,0,0,0,0,0,0,0,0,0,0,0,0,0,0,0,0,0,0,0,0,0,0,0,0,0,0,0,0,0,0,0,0,0,0,0,0,0,0,0,0],"sum_hessian":[2.78E2,1.8E1,2.6E2,1.2E1,6E0,1.03E2,1.57E2,1E0,1.1E1,4E0,2E0,3.8E1,6.5E1,1.45E2,1.2E1,5E0,6E0,3E0,1E0,1E0,1E0,3E0,3.5E1,2.5E1,4E1,1.24E2,2.1E1,6E0,6E0,1E0,4E0,2E0,4E0,2E0,1E0,1E0,2E0,2.7E1,8E0,1.5E1,1E1,8E0,3.2E1,7.6E1,4.8E1,1.5E1,6E0,3E0,3E0,1E0,5E0,1E0,3E0,1E0,3E0,1E0,1E0,7E0,2E1,4E0,4E0,1E1,5E0,1E0,9E0,6E0,2E0,9E0,2.3E1,4E0,7.2E1,2.3E1,2.5E1,1E0,1.4E1,3E0,3E0,3E0,2E0],"tree_param":{"num_deleted":"0","num_feature":"3","num_nodes":"79","size_leaf_vector":"1"}},{"base_weights":[8.622151E0,1.5916537E2,-2.3699694E0,3.6616287E1,3.6401865E2,1.1041565E1,-1.1182815E1,2.9124386E1,2.3487432E1,5.168862E2,-1.2100276E1,-1.5123633E1,2.6335522E1,-1.3663032E1,1.753215E1,3.4346898E0,3.732015E1,1.3676352E2,3.056066E2,-5.4180727E0,-2.7051546E-2,3.9166534E1,-2.0735773E1,7.55683E1,-5.527591E0,-2.1613712E1,-1.0021427E1,4.570942E0,4.555213E1,-6.8157444E0,1.3209287E1,1.6840254E1,1.8567705E1,2.6797884E1,6.999906E1,-6.6910863E0,2.0127338E1,-3.573964E1,-1.4410794E1,6.0711864E1,6.7046875E1,-1.0596909E1,9.927261E0,1.0623788E1,-2.3714598E1,5.63316E1,-1.475528E1,2.977183E1,-4.0673347E1,3.3097477E1,-3.844131E0,7.2998295E0,1.3035679E0,-5.7246227E0,1.5008475E1,3.7228203E-1,1.1686767E1,-2.5994072E0,-1.5703649E1,1.3163639E1,-6.248734E0,2.4914145E1,-1.3571609E1,1.18106E-1,-1.098314E1,-4.3227105E0,-9.709562E0,3.8044685E1,-8.470595E0,-5.151972E0,-9.970153E-1,-8.504639E-2,1.2555197E1,-2.1414952E0,-1.4841675E1],"categories":[],"categories_nodes":[],"categories_segments":[],"categories_sizes":[],"default_left":[0,0,0,0,0,0,0,0,0,0,0,0,0,0,0,0,0,0,0,0,0,0,0,0,0,0,0,0,0,0,0,0,0,0,0,0,0,0,0,0,0,0,0,0,0,0,0,0,0,0,0,0,0,0,0,0,0,0,0,0,0,0,0,0,0,0,0,0,0,0,0,0,0,0,0],"id":5,"left_children":[1,3,5,7,9,11,13,-1,15,17,19,21,23,25,27,29,31,33,-1,-1,-1,35,37,39,41,43,45,47,49,-1,51,-1,53,55,-1,-1,-1,57,59,61,-1,63,-1,-1,65,67,69,71,73,-1,-1,-1,-1,-1,-1,-1,-1,-1,-1,-1,-1,-1,-1,-1,-1,-1,-1,-1,-1,-1,-1,-1,-1,-1,-1],"loss_changes":[4.6206344E5,4.63658E5,3.0972055E4,8.0396816E3,4.087293E5,4.2015906E4,1.1492199E4,0E0,3.2004229E3,8.14413E5,2.131109E2,1.2694826E4,1.0395253E5,4.0105723E3,4.5130312E3,1.8339629E3,1.4273799E3,3.6223312E4,0E0,0E0,0E0,8.36249E3,2.901332E3,4.3568688E4,8.377199E3,6.2310547E3,3.286994E4,1.2612881E4,1.6535766E4,0E0,3.872644E2,0E0,6.877055E3,8.8382227E2,0E0,0E0,0E0,4.0424688E3,1.1015229E4,6.2917836E4,0E0,1.0592879E4,0E0,0E0,3.0755977E3,4.530499E4,2.5965469E3,2.5530947E3,8.271372E2,0E0,0E0,0E0,0E0,0E0,0E0,0E0,0E0,0E0,0E0,0E0,0E0,0E0,0E0,0E0,0E0,0E0,0E0,0E0,0E0,0E0,0E0,0E0,0E0,0E0,0E0],"parents":[2147483647,0,0,1,1,2,2,3,3,4,4,5,5,6,6,8,8,9,9,10,10,11,11,12,12,13,13,14,14,15,15,16,16,17,17,21,21,22,22,23,23,24,24,25,25,26,26,27,27,28,28,30,30,32,32,33,33,37,37,38,38,39,39,41,41,44,44,45,45,46,46,47,47,48,48],"right_children":[2,4,6,8,10,12,14,-1,16,18,20,22,24,26,28,30,32,34,-1,-1,-1,36,38,40,42,44,46,48,50,-1,52,-1,54,56,-1,-1,-1,58,60,62,-1,64,-1,-1,66,68,70,72,74,-1,-1,-1,-1,-1,-1,-1,-1,-1,-1,-1,-1,-1,-1,-1,-1,-1,-1,-1,-1,-1,-1,-1,-1,-1,-1],"split_conditions":[2.5E1,2.2E1,6.7E1,1.3E1,1.5E1,1.2E1,1E0,2.9124386E1,1.7E1,1E0,2.3E1,2.7E1,1.7E1,8.2E1,2.1E1,1.2E1,1.9E1,2.4E1,3.056066E2,-5.4180727E0,-2.7051546E-2,2.6E1,3.5E1,1E0,6.1E1,1E0,8.4E1,1.7E1,1.01E2,-6.8157444E0,1E0,1.6840254E1,1E0,2.3E1,6.999906E1,-6.6910863E0,2.0127338E1,3E0,4E1,6.4E1,6.7046875E1,5.3E1,9.927261E0,1.0623788E1,7.4E1,1.8E1,1.37E2,1.5E1,1.8E1,3.3097477E1,-3.844131E0,7.2998295E0,1.3035679E0,-5.7246227E0,1.5008475E1,3.7228203E-1,1.1686767E1,-2.5994072E0,-1.5703649E1,1.3163639E1,-6.248734E0,2.4914145E1,-1.3571609E1,1.18106E-1,-1.098314E1,-4.3227105E0,-9.709562E0,3.8044685E1,-8.470595E0,-5.151972E0,-9.970153E-1,-8.504639E-2,1.2555197E1,-2.1414952E0,-1.4841675E1],"split_indices":[0,0,0,0,2,2,1,0,0,1,0,0,2,0,2,2,0,0,0,0,0,0,0,1,0,2,0,2,0,0,1,0,1,0,0,0,0,2,0,0,0,0,0,0,0,2,0,2,2,0,0,0,0,0,0,0,0,0,0,0,0,0,0,0,0,0,0,0,0,0,0,0,0,0,0],"split_type":[0,0,0,0,0,0,0,0,0,0,0,0,0,0,0,0,0,0,0,0,0,0,0,0,0,0,0,0,0,0,0,0,0,0,0,0,0,0,0,0,0,0,0,0,0,0,0,0,0,0,0,0,0,0,0,0,0,0,0,0,0,0,0,0,0,0,0,0,0,0,0,0,0,0,0],"sum_hessian":[2.78E2,1.8E1,2.6E2,1.2E1,6E0,1.03E2,1.57E2,1E0,1.1E1,4E0,2E0,3.8E1,6.5E1,1.45E2,1.2E1,5E0,6E0,3E0,1E0,1E0,1E0,3E0,3.5E1,2.5E1,4E1,4.4E1,1.01E2,9E0,3E0,1E0,4E0,2E0,4E0,2E0,1E0,1E0,2E0,9E0,2.6E1,2.4E1,1E0,3.6E1,4E0,1E0,4.3E1,6E0,9.5E1,6E0,3E0,1E0,2E0,1E0,3E0,2E0,2E0,1E0,1E0,4E0,5E0,2E0,2.4E1,2E1,4E0,2.6E1,1E1,2.2E1,2.1E1,3E0,3E0,7.8E1,1.7E1,2E0,4E0,1E0,2E0],"tree_param":{"num_deleted":"0","num_feature":"3","num_nodes":"75","size_leaf_vector":"1"}},{"base_weights":[8.0552635E0,1.3453448E2,-1.1828994E0,3.0018799E1,3.0941583E2,8.493516E0,-7.5446987E0,2.4755728E1,1.8767185E1,4.393533E2,-1.0285233E1,1.6577955E0,5.231902E1,-9.427023E0,1.417561E1,2.702222E0,2.9856127E1,1.1624899E2,2.597656E2,-4.6053615E0,-2.299347E-2,9.120366E0,-2.7101439E1,-8.217811E0,9.874886E1,-1.5205341E1,-6.785342E0,-4.8275094E0,3.115364E1,-5.7933826E0,1.0967176E1,1.3472205E1,1.4854167E1,2.27782E1,5.949921E1,8.306762E-1,1.5190985E2,-3.286699E1,2.7361298E0,1.0564881E1,-6.397861E0,1.3917102E2,2.3533957E1,3.1595852E0,-2.1239864E1,4.3656986E1,-1.0392748E1,6.722468E0,-9.25691E0,2.8132856E1,5.0871863E0,6.204854E0,1.0102644E0,-4.5796976E0,1.2006782E1,3.1643945E-1,9.933751E0,3.9905136E0,-7.569585E0,9.8057396E1,-4.6076546E0,3.3648813E0,-1.0966088E1,-5.185119E0,4.551198E0,6.4635376E1,1.9871447E1,3.2550662E0,9.237776E0,-3.7988307E0,1.6454271E1,-8.041536E0,-2.6409423E0,2.9484629E1,-6.5647106E0,-3.625945E0,-7.1452713E-1,-5.2538614E0,1.0057461E1],"categories":[],"categories_nodes":[],"categories_segments":[],"categories_sizes":[],"default_left":[0,0,0,0,0,0,0,0,0,0,0,0,0,0,0,0,0,0,0,0,0,0,0,0,0,0,0,0,0,0,0,0,0,0,0,0,0,0,0,0,0,0,0,0,0,0,0,0,0,0,0,0,0,0,0,0,0,0,0,0,0,0,0,0,0,0,0,0,0,0,0,0,0,0,0,0,0,0,0],"id":6,"left_children":[1,3,5,7,9,11,13,-1,15,17,19,21,23,25,27,29,31,33,-1,-1,-1,35,37,39,41,43,45,47,49,-1,51,-1,53,55,-1,57,59,61,63,-1,-1,65,67,69,71,73,75,-1,-1,-1,77,-1,-1,-1,-1,-1,-1,-1,-1,-1,-1,-1,-1,-1,-1,-1,-1,-1,-1,-1,-1,-1,-1,-1,-1,-1,-1,-1,-1],"loss_changes":[3.261527E5,3.3799072E5,1.6131089E4,6.130619E3,2.9530694E5,3.1069469E4,6.593408E3,0E0,2.057043E3,5.8841325E5,1.5397263E2,1.9777396E4,4.0161516E4,2.1254404E3,4.3446562E3,1.3034336E3,9.1352344E2,2.6171348E4,0E0,0E0,0E0,8.628249E4,3.3585E3,4.736486E3,2.1047547E4,5.05417E3,1.9014242E4,5.6538423E3,1.0949377E4,0E0,2.9952692E2,0E0,4.401316E3,6.3856165E2,0E0,2.3087582E4,1.2207355E5,3.0102969E3,1.2579557E3,0E0,0E0,1.3545594E4,3.4159668E1,1.0508429E4,2.11729E3,2.7211303E4,1.2737891E3,0E0,0E0,0E0,4.443276E3,0E0,0E0,0E0,0E0,0E0,0E0,0E0,0E0,0E0,0E0,0E0,0E0,0E0,0E0,0E0,0E0,0E0,0E0,0E0,0E0,0E0,0E0,0E0,0E0,0E0,0E0,0E0,0E0],"parents":[2147483647,0,0,1,1,2,2,3,3,4,4,5,5,6,6,8,8,9,9,10,10,11,11,12,12,13,13,14,14,15,15,16,16,17,17,21,21,22,22,23,23,24,24,25,25,26,26,27,27,28,28,30,30,32,32,33,33,35,35,36,36,37,37,38,38,41,41,42,42,43,43,44,44,45,45,46,46,50,50],"right_children":[2,4,6,8,10,12,14,-1,16,18,20,22,24,26,28,30,32,34,-1,-1,-1,36,38,40,42,44,46,48,50,-1,52,-1,54,56,-1,58,60,62,64,-1,-1,66,68,70,72,74,76,-1,-1,-1,78,-1,-1,-1,-1,-1,-1,-1,-1,-1,-1,-1,-1,-1,-1,-1,-1,-1,-1,-1,-1,-1,-1,-1,-1,-1,-1,-1,-1],"split_conditions":[2.5E1,2.2E1,6.7E1,1.3E1,1.5E1,6.3E1,1E0,2.4755728E1,1.7E1,1E0,2.3E1,5.6E1,1.4E1,8.2E1,8.6E1,1.2E1,1.9E1,2.4E1,2.597656E2,-4.6053615E0,-2.299347E-2,5.5E1,6.1E1,6.4E1,1.7E1,8E0,8.4E1,7.2E1,1.01E2,-5.7933826E0,1E0,1.3472205E1,1E0,2.3E1,5.949921E1,4.5E1,1.3E1,2E0,6E0,1.0564881E1,-6.397861E0,6.4E1,6.5E1,6E0,2E1,1.8E1,1.37E2,6.722468E0,-9.25691E0,2.8132856E1,1.12E2,6.204854E0,1.0102644E0,-4.5796976E0,1.2006782E1,3.1643945E-1,9.933751E0,3.9905136E0,-7.569585E0,9.8057396E1,-4.6076546E0,3.3648813E0,-1.0966088E1,-5.185119E0,4.551198E0,6.4635376E1,1.9871447E1,3.2550662E0,9.237776E0,-3.7988307E0,1.6454271E1,-8.041536E0,-2.6409423E0,2.9484629E1,-6.5647106E0,-3.625945E0,-7.1452713E-1,-5.2538614E0,1.0057461E1],"split_indices":[0,0,0,0,2,0,1,0,0,1,0,0,2,0,0,2,0,0,0,0,0,0,0,0,2,2,0,0,0,0,1,0,1,0,0,0,2,2,2,0,0,0,0,2,2,2,0,0,0,0,0,0,0,0,0,0,0,0,0,0,0,0,0,0,0,0,0,0,0,0,0,0,0,0,0,0,0,0,0],"split_type":[0,0,0,0,0,0,0,0,0,0,0,0,0,0,0,0,0,0,0,0,0,0,0,0,0,0,0,0,0,0,0,0,0,0,0,0,0,0,0,0,0,0,0,0,0,0,0,0,0,0,0,0,0,0,0,0,0,0,0,0,0,0,0,0,0,0,0,0,0,0,0,0,0,0,0,0,0,0,0],"sum_hessian":[2.78E2,1.8E1,2.6E2,1.2E1,6E0,1.03E2,1.57E2,1E0,1.1E1,4E0,2E0,9E1,1.3E1,1.45E2,1.2E1,5E0,6E0,3E0,1E0,1E0,1E0,7.2E1,1.8E1,6E0,7E0,4.4E1,1.01E2,6E0,6E0,1E0,4E0,2E0,4E0,2E0,1E0,6.9E1,3E0,1.5E1,3E0,1E0,5E0,4E0,3E0,1.1E1,3.3E1,6E0,9.5E1,3E0,3E0,1E0,5E0,1E0,3E0,2E0,2E0,1E0,1E0,4.7E1,2.2E1,1E0,2E0,1E0,1.4E1,1E0,2E0,1E0,3E0,2E0,1E0,9E0,2E0,2.2E1,1.1E1,3E0,3E0,7.8E1,1.7E1,3E0,2E0],"tree_param":{"num_deleted":"0","num_feature":"3","num_nodes":"79","size_leaf_vector":"1"}},{"base_weights":[7.809724E0,1.1375115E2,6.759004E-2,2.4634449E1,2.6300345E2,7.7031746E0,-4.958792E0,2.1042366E1,1.4997116E1,3.734503E2,-8.742447E0,2.0575507E0,4.3849503E1,-6.458145E0,1.2261542E1,2.1285107E0,2.3884905E1,9.881163E1,2.2080074E2,-3.914557E0,-1.9544221E-2,7.615361E0,-1.9404434E1,-5.1571794E0,8.124916E1,-4.918931E0,-1.4910128E1,-3.741321E0,2.6512756E1,-4.9243755E0,9.120047E0,1.0777765E1,1.1883336E1,1.9361473E1,5.0574318E1,5.303441E-1,1.2969931E2,-2.2901403E1,6.879869E0,8.980149E0,-1.5994653E1,4.1418926E1,5.400912E1,-8.225765E0,-2.7142477E-1,8.0112994E-1,-1.587446E1,5.2099113E0,-2.3913683E1,2.391293E1,4.361628E0,5.2741265E0,7.8295445E-1,-7.078106E0,7.995304E0,2.6897395E-1,8.443689E0,-5.4216495E0,5.0013595E0,8.334878E1,-3.6861238E0,2.8601494E0,-7.6573415E0,-9.6280235E-1,4.0587435E0,-1.0754397E0,-5.327899E0,3.8497757E1,-5.7027035E0,-1.8828726E0,-8.684822E0,2.561306E0,-3.6398323E0,-5.813867E0,-2.7143145E0,-1.0526708E1,-2.5476687E0,-4.071743E0,8.045968E0],"categories":[],"categories_nodes":[],"categories_segments":[],"categories_sizes":[],"default_left":[0,0,0,0,0,0,0,0,0,0,0,0,0,0,0,0,0,0,0,0,0,0,0,0,0,0,0,0,0,0,0,0,0,0,0,0,0,0,0,0,0,0,0,0,0,0,0,0,0,0,0,0,0,0,0,0,0,0,0,0,0,0,0,0,0,0,0,0,0,0,0,0,0,0,0,0,0,0,0],"id":7,"left_children":[1,3,5,7,9,11,13,-1,15,17,19,21,23,25,27,29,31,33,-1,-1,-1,35,37,39,41,43,45,47,49,-1,51,-1,53,55,-1,57,59,61,63,-1,65,67,-1,69,71,-1,73,-1,75,-1,77,-1,-1,-1,-1,-1,-1,-1,-1,-1,-1,-1,-1,-1,-1,-1,-1,-1,-1,-1,-1,-1,-1,-1,-1,-1,-1,-1,-1],"loss_changes":[2.2883164E5,2.4623766E5,1.0055213E4,4.6494146E3,2.1335919E5,2.113291E4,4.1586455E3,0E0,1.3216418E3,4.251287E5,1.1124524E2,1.1002401E4,2.6078682E4,1.8260322E3,3.063976E3,9.275701E2,5.846548E2,1.8908793E4,0E0,0E0,0E0,6.3073793E4,1.9039521E3,3.1408665E3,2.4019168E4,1.9188345E3,4.1536865E2,3.395838E3,7.9009517E3,0E0,2.2951141E2,0E0,3.2483616E3,4.613606E2,0E0,2.1319508E4,8.754346E4,1.6897021E3,2.4467744E2,0E0,6.7756226E1,3.9200594E4,0E0,2.7675957E3,5.6414463E3,0E0,3.2715576E2,0E0,3.9137598E2,0E0,2.7806252E3,0E0,0E0,0E0,0E0,0E0,0E0,0E0,0E0,0E0,0E0,0E0,0E0,0E0,0E0,0E0,0E0,0E0,0E0,0E0,0E0,0E0,0E0,0E0,0E0,0E0,0E0,0E0,0E0],"parents":[2147483647,0,0,1,1,2,2,3,3,4,4,5,5,6,6,8,8,9,9,10,10,11,11,12,12,13,13,14,14,15,15,16,16,17,17,21,21,22,22,23,23,24,24,25,25,26,26,27,27,28,28,30,30,32,32,33,33,35,35,36,36,37,37,38,38,40,40,41,41,43,43,44,44,46,46,48,48,50,50],"right_children":[2,4,6,8,10,12,14,-1,16,18,20,22,24,26,28,30,32,34,-1,-1,-1,36,38,40,42,44,46,48,50,-1,52,-1,54,56,-1,58,60,62,64,-1,66,68,-1,70,72,-1,74,-1,76,-1,78,-1,-1,-1,-1,-1,-1,-1,-1,-1,-1,-1,-1,-1,-1,-1,-1,-1,-1,-1,-1,-1,-1,-1,-1,-1,-1,-1,-1],"split_conditions":[2.5E1,2.2E1,6.7E1,1.3E1,1.5E1,6.3E1,1E0,2.1042366E1,1.7E1,1E0,2.3E1,5.6E1,1.4E1,2.1E1,8.6E1,1.2E1,1.9E1,2.4E1,2.2080074E2,-3.914557E0,-1.9544221E-2,5.5E1,1E0,6.4E1,1E0,1.5E1,7.1E1,7.2E1,1.01E2,-4.9243755E0,1E0,1.0777765E1,2E1,2.3E1,5.0574318E1,1.3E1,1.3E1,2E0,5.9E1,8.980149E0,2E0,6.4E1,5.400912E1,1.4E1,9.7E1,8.0112994E-1,9.7E1,5.2099113E0,8.2E1,2.391293E1,1.12E2,5.2741265E0,7.8295445E-1,-7.078106E0,7.995304E0,2.6897395E-1,8.443689E0,-5.4216495E0,5.0013595E0,8.334878E1,-3.6861238E0,2.8601494E0,-7.6573415E0,-9.6280235E-1,4.0587435E0,-1.0754397E0,-5.327899E0,3.8497757E1,-5.7027035E0,-1.8828726E0,-8.684822E0,2.561306E0,-3.6398323E0,-5.813867E0,-2.7143145E0,-1.0526708E1,-2.5476687E0,-4.071743E0,8.045968E0],"split_indices":[0,0,0,0,2,0,1,0,0,1,0,0,2,2,0,2,0,0,0,0,0,0,1,0,1,2,0,0,0,0,1,0,0,0,0,2,2,2,0,0,2,0,0,2,0,0,0,0,0,0,0,0,0,0,0,0,0,0,0,0,0,0,0,0,0,0,0,0,0,0,0,0,0,0,0,0,0,0,0],"split_type":[0,0,0,0,0,0,0,0,0,0,0,0,0,0,0,0,0,0,0,0,0,0,0,0,0,0,0,0,0,0,0,0,0,0,0,0,0,0,0,0,0,0,0,0,0,0,0,0,0,0,0,0,0,0,0,0,0,0,0,0,0,0,0,0,0,0,0,0,0,0,0,0,0,0,0,0,0,0,0],"sum_hessian":[2.78E2,1.8E1,2.6E2,1.2E1,6E0,1.03E2,1.57E2,1E0,1.1E1,4E0,2E0,9E1,1.3E1,1.45E2,1.2E1,5E0,6E0,3E0,1E0,1E0,1E0,7.2E1,1.8E1,6E0,7E0,1.24E2,2.1E1,6E0,6E0,1E0,4E0,2E0,4E0,2E0,1E0,6.9E1,3E0,1.6E1,2E0,1E0,5E0,6E0,1E0,7.2E1,5.2E1,1E0,2E1,3E0,3E0,1E0,5E0,1E0,3E0,1E0,3E0,1E0,1E0,3.2E1,3.7E1,1E0,2E0,1E0,1.5E1,1E0,1E0,1E0,4E0,2E0,4E0,6.7E1,5E0,3E1,2.2E1,1.2E1,8E0,1E0,2E0,3E0,2E0],"tree_param":{"num_deleted":"0","num_feature":"3","num_nodes":"79","size_leaf_vector":"1"}},{"base_weights":[7.178617E0,9.594284E1,6.893498E-1,1.98495E1,2.2355292E2,6.9972415E0,-3.4670432E0,1.7886013E1,1.1566953E1,3.1743274E2,-7.4310784E0,2.2923846E0,3.707901E1,-4.653394E0,1.0123289E1,1.6787415E0,1.839014E1,8.398988E1,1.8768062E2,-3.3273733E0,-1.6612245E-2,6.110656E0,-2.6032373E1,-3.2419102E0,6.772494E1,-9.626098E0,-2.75095E0,8.198002E-1,3.0851189E1,-4.185719E0,7.5954485E0,2.2366526E1,-8.2022554E-1,1.645725E1,4.2988167E1,2.948415E0,3.9118855E1,8.974569E0,-3.4618656E1,7.633127E0,-1.226348E1,3.3678257E1,4.5907757E1,9.882475E0,-1.1562233E1,1.80912E1,-5.3275633E0,1.2227772E1,-8.962418E0,2.0325989E1,-1.2101837E0,4.483008E0,6.0678923E-1,2.9200397E0,1.2829775E1,2.2862779E-1,7.177135E0,3.0588322E0,-3.8633306E0,-9.571883E0,2.217305E1,-1.5028441E1,-4.7856283E0,-9.141238E-1,-4.049204E0,3.0798204E1,-4.334054E0,-1.1803893E0,-6.36054E0,-4.9569077E0,1.3552824E1,-4.604848E0,-1.1139381E0,5.1467794E-1,6.693316E0],"categories":[],"categories_nodes":[],"categories_segments":[],"categories_sizes":[],"default_left":[0,0,0,0,0,0,0,0,0,0,0,0,0,0,0,0,0,0,0,0,0,0,0,0,0,0,0,0,0,0,0,0,0,0,0,0,0,0,0,0,0,0,0,0,0,0,0,0,0,0,0,0,0,0,0,0,0,0,0,0,0,0,0,0,0,0,0,0,0,0,0,0,0,0,0],"id":8,"left_children":[1,3,5,7,9,11,13,-1,15,17,19,21,23,25,27,29,31,33,-1,-1,-1,35,37,39,41,43,45,47,49,-1,51,53,-1,55,-1,57,59,-1,61,-1,63,65,-1,-1,67,69,71,73,-1,-1,-1,-1,-1,-1,-1,-1,-1,-1,-1,-1,-1,-1,-1,-1,-1,-1,-1,-1,-1,-1,-1,-1,-1,-1,-1],"loss_changes":[1.6064198E5,1.8005781E5,6.867178E3,3.5925962E3,1.54152E5,1.4634162E4,2.5945264E3,0E0,7.787572E2,3.071554E5,8.037471E1,1.0000871E4,1.7518967E4,1.3547217E3,2.4816514E3,6.6088385E2,6.491384E2,1.3661598E4,0E0,0E0,0E0,8.339431E3,6.319826E3,2.1235574E3,1.8080059E4,3.6775488E3,5.842512E3,3.8669238E3,5.4226533E3,0E0,1.7451794E2,1.1299797E3,0E0,3.3333313E2,0E0,8.734051E3,1.9655598E4,0E0,2.089747E3,0E0,2.7103271E1,2.4721623E4,0E0,0E0,2.784123E3,1.199671E4,1.4962634E3,8.097013E2,0E0,0E0,0E0,0E0,0E0,0E0,0E0,0E0,0E0,0E0,0E0,0E0,0E0,0E0,0E0,0E0,0E0,0E0,0E0,0E0,0E0,0E0,0E0,0E0,0E0,0E0,0E0],"parents":[2147483647,0,0,1,1,2,2,3,3,4,4,5,5,6,6,8,8,9,9,10,10,11,11,12,12,13,13,14,14,15,15,16,16,17,17,21,21,22,22,23,23,24,24,25,25,26,26,27,27,28,28,30,30,31,31,33,33,35,35,36,36,38,38,40,40,41,41,44,44,45,45,46,46,47,47],"right_children":[2,4,6,8,10,12,14,-1,16,18,20,22,24,26,28,30,32,34,-1,-1,-1,36,38,40,42,44,46,48,50,-1,52,54,-1,56,-1,58,60,-1,62,-1,64,66,-1,-1,68,70,72,74,-1,-1,-1,-1,-1,-1,-1,-1,-1,-1,-1,-1,-1,-1,-1,-1,-1,-1,-1,-1,-1,-1,-1,-1,-1,-1,-1],"split_conditions":[2.5E1,2.2E1,6.7E1,1.3E1,1.5E1,6.3E1,1E0,1.7886013E1,1.7E1,1E0,2.3E1,2.2E1,1.4E1,8E1,2.1E1,1.2E1,1.5E1,2.4E1,1.8768062E2,-3.3273733E0,-1.6612245E-2,2.1E1,3.2E1,6.4E1,1E0,1E0,8.4E1,1.8E1,1.01E2,-4.185719E0,1E0,1E0,-8.2022554E-1,2.3E1,4.2988167E1,1.6E1,3.7E1,8.974569E0,4.7E1,7.633127E0,2E0,6.4E1,4.5907757E1,9.882475E0,7.4E1,1.4E1,8.9E1,1.6E1,-8.962418E0,2.0325989E1,-1.2101837E0,4.483008E0,6.0678923E-1,2.9200397E0,1.2829775E1,2.2862779E-1,7.177135E0,3.0588322E0,-3.8633306E0,-9.571883E0,2.217305E1,-1.5028441E1,-4.7856283E0,-9.141238E-1,-4.049204E0,3.0798204E1,-4.334054E0,-1.1803893E0,-6.36054E0,-4.9569077E0,1.3552824E1,-4.604848E0,-1.1139381E0,5.1467794E-1,6.693316E0],"split_indices":[0,0,0,0,2,0,1,0,0,1,0,2,2,0,2,2,2,0,0,0,0,2,0,0,1,2,0,2,0,0,1,1,0,0,0,2,0,0,0,0,2,0,0,0,0,2,0,2,0,0,0,0,0,0,0,0,0,0,0,0,0,0,0,0,0,0,0,0,0,0,0,0,0,0,0],"split_type":[0,0,0,0,0,0,0,0,0,0,0,0,0,0,0,0,0,0,0,0,0,0,0,0,0,0,0,0,0,0,0,0,0,0,0,0,0,0,0,0,0,0,0,0,0,0,0,0,0,0,0,0,0,0,0,0,0,0,0,0,0,0,0,0,0,0,0,0,0,0,0,0,0,0,0],"sum_hessian":[2.78E2,1.8E1,2.6E2,1.2E1,6E0,1.03E2,1.57E2,1E0,1.1E1,4E0,2E0,9E1,1.3E1,1.45E2,1.2E1,5E0,6E0,3E0,1E0,1E0,1E0,8E1,1E1,6E0,7E0,3.9E1,1.06E2,9E0,3E0,1E0,4E0,5E0,1E0,2E0,1E0,7.4E1,6E0,1E0,9E0,1E0,5E0,6E0,1E0,1E0,3.8E1,1.1E1,9.5E1,7E0,2E0,1E0,2E0,1E0,3E0,4E0,1E0,1E0,1E0,5.1E1,2.3E1,2E0,4E0,4E0,5E0,1E0,4E0,2E0,4E0,2.2E1,1.6E1,5E0,6E0,1.2E1,8.3E1,4E0,3E0],"tree_param":{"num_deleted":"0","num_feature":"3","num_nodes":"75","size_leaf_vector":"1"}},{"base_weights":[6.340548E0,8.128894E1,8.6024123E-1,1.648847E1,1.9001997E2,3.4685805E0,-5.534645E0,1.5203111E1,9.416338E0,2.698178E2,-6.3164177E0,-3.5987875E0,1.0728704E1,-3.185899E1,-1.5230317E0,1.3257974E0,1.5005896E1,7.1391396E1,1.5952852E2,-2.828267E0,-1.4120866E-2,2.9554863E1,-5.0011334E0,2.8973667E1,-4.6616492E-1,7.6283846E0,-4.104953E1,5.3654427E1,-6.965747E0,-3.5578613E0,6.3347716E0,8.038202E0,4.9318495E0,1.398866E1,3.6539944E1,-5.931578E0,1.5776331E1,-2.7096539E1,-1.9761262E0,6.9673514E0,6.1485474E1,6.878148E0,-9.769863E0,-1.9773706E1,-1.4517549E1,-7.334861E1,-3.7452102E0,3.8105576E0,4.7026065E-1,-4.339486E0,6.805411E0,1.9433327E-1,6.100564E0,-2.3661988E0,-1.10839405E1,1.7547867E1,-1.0334376E0,-1.5720453E1,9.751731E0,7.038764E1,9.035671E0,-3.502796E-1,2.6317446E1,-6.2089915E0,3.222825E-1,-8.549798E0,9.604729E-1,-2.730071E1,-5.7061663E0,4.7387665E1,-2.6457677E0],"categories":[],"categories_nodes":[],"categories_segments":[],"categories_sizes":[],"default_left":[0,0,0,0,0,0,0,0,0,0,0,0,0,0,0,0,0,0,0,0,0,0,0,0,0,0,0,0,0,0,0,0,0,0,0,0,0,0,0,0,0,0,0,0,0,0,0,0,0,0,0,0,0,0,0,0,0,0,0,0,0,0,0,0,0,0,0,0,0,0,0],"id":9,"left_children":[1,3,5,7,9,11,13,-1,15,17,19,21,23,25,27,29,31,33,-1,-1,-1,35,37,39,41,-1,43,-1,45,-1,47,-1,49,51,-1,-1,-1,53,55,57,59,61,63,65,-1,67,69,-1,-1,-1,-1,-1,-1,-1,-1,-1,-1,-1,-1,-1,-1,-1,-1,-1,-1,-1,-1,-1,-1,-1,-1],"loss_changes":[1.1452658E5,1.3073749E5,4.372686E3,2.6660264E3,1.1137481E5,9.582265E3,7.977312E3,0E0,5.2277576E2,2.2191975E5,5.8070686E1,4.564632E3,1.8804504E4,6.308787E3,6.702029E4,4.7139746E2,6.991338E2,9.870508E3,0E0,0E0,0E0,5.5843184E3,6.09562E3,2.461289E4,4.0302964E3,0E0,4.4903516E2,0E0,1.3835332E4,0E0,1.3185641E2,0E0,2.049876E3,2.4083313E2,0E0,0E0,0E0,1.789894E3,7.483814E3,3.5059453E4,6.896465E4,2.1567996E4,3.1030122E3,8.931371E2,0E0,1.1463662E3,5.3904375E4,0E0,0E0,0E0,0E0,0E0,0E0,0E0,0E0,0E0,0E0,0E0,0E0,0E0,0E0,0E0,0E0,0E0,0E0,0E0,0E0,0E0,0E0,0E0,0E0],"parents":[2147483647,0,0,1,1,2,2,3,3,4,4,5,5,6,6,8,8,9,9,10,10,11,11,12,12,13,13,14,14,15,15,16,16,17,17,21,21,22,22,23,23,24,24,26,26,28,28,30,30,32,32,33,33,37,37,38,38,39,39,40,40,41,41,42,42,43,43,45,45,46,46],"right_children":[2,4,6,8,10,12,14,-1,16,18,20,22,24,26,28,30,32,34,-1,-1,-1,36,38,40,42,-1,44,-1,46,-1,48,-1,50,52,-1,-1,-1,54,56,58,60,62,64,66,-1,68,70,-1,-1,-1,-1,-1,-1,-1,-1,-1,-1,-1,-1,-1,-1,-1,-1,-1,-1,-1,-1,-1,-1,-1,-1],"split_conditions":[2.5E1,2.2E1,1.9E1,1.3E1,1.5E1,1.2E1,3.8E1,1.5203111E1,1.7E1,1E0,2.3E1,2.7E1,6.7E1,3.2E1,4E1,1.2E1,1.9E1,2.4E1,1.5952852E2,-2.828267E0,-1.4120866E-2,2.6E1,3.6E1,5.5E1,9.1E1,7.6283846E0,3.4E1,5.3654427E1,4.1E1,-3.5578613E0,1E0,8.038202E0,1E0,2.3E1,3.6539944E1,-5.931578E0,1.5776331E1,3E0,4E1,1.3E1,5.6E1,8.9E1,1.01E2,1E0,-1.4517549E1,2.1E1,4.2E1,3.8105576E0,4.7026065E-1,-4.339486E0,6.805411E0,1.9433327E-1,6.100564E0,-2.3661988E0,-1.10839405E1,1.7547867E1,-1.0334376E0,-1.5720453E1,9.751731E0,7.038764E1,9.035671E0,-3.502796E-1,2.6317446E1,-6.2089915E0,3.222825E-1,-8.549798E0,9.604729E-1,-2.730071E1,-5.7061663E0,4.7387665E1,-2.6457677E0],"split_indices":[0,0,2,0,2,2,0,0,0,1,0,0,0,0,0,2,0,0,0,0,0,0,0,0,0,0,0,0,0,0,1,0,1,0,0,0,0,2,0,2,0,0,0,1,0,2,0,0,0,0,0,0,0,0,0,0,0,0,0,0,0,0,0,0,0,0,0,0,0,0,0],"split_type":[0,0,0,0,0,0,0,0,0,0,0,0,0,0,0,0,0,0,0,0,0,0,0,0,0,0,0,0,0,0,0,0,0,0,0,0,0,0,0,0,0,0,0,0,0,0,0,0,0,0,0,0,0,0,0,0,0,0,0,0,0,0,0,0,0,0,0,0,0,0,0],"sum_hessian":[2.78E2,1.8E1,2.6E2,1.2E1,6E0,1.85E2,7.5E1,1E0,1.1E1,4E0,2E0,9.4E1,9.1E1,9E0,6.6E1,5E0,6E0,3E0,1E0,1E0,1E0,3E0,9.1E1,3.4E1,5.7E1,1E0,8E0,1E0,6.5E1,1E0,4E0,2E0,4E0,2E0,1E0,1E0,2E0,1E1,8.1E1,2.1E1,1.3E1,3.2E1,2.5E1,3E0,5E0,2E0,6.3E1,1E0,3E0,2E0,2E0,1E0,1E0,4E0,6E0,1E0,8E1,6E0,1.5E1,1E0,1.2E1,3E1,2E0,1.2E1,1.3E1,2E0,1E0,1E0,1E0,1E0,6.2E1],"tree_param":{"num_deleted":"0","num_feature":"3","num_nodes":"71","size_leaf_vector":"1"}},{"base_weights":[5.8122406E0,6.879442E1,1.2050618E0,1.3575018E1,1.6151697E2,1.3333057E1,-3.6840782E-1,1.2922642E1,7.5270243E0,2.2934512E2,-5.368955E0,-1.2456894E-1,4.034797E1,-5.691816E1,1.3847634E0,1.1590353E1,-4.797058E-1,6.0682693E1,1.3559924E2,-2.4040272E0,-1.2002564E-2,1.9492844E1,-2.4259495E1,7.377054E0,-7.460125E1,3.1229193E1,-4.3468684E-1,1.5714182E0,2.776477E1,3.2389734E0,-5.997921E0,1.1890358E1,3.1058954E1,-9.249654E0,4.4138065E1,-3.4847206E1,-3.4971467E-1,-2.4916353E1,-4.850242E0,-8.273978E0,6.0431015E1,-2.3397424E0,1.816134E1,3.3108294E0,-3.4715884E0,2.6096513E0,9.884496E0,-4.4039842E-1,-2.1055696E0,1.6518289E-1,5.185478E0,6.944877E0,-6.057096E0,-1.7439589E1,-1.3779039E0,1.5091088E1,-7.6766872E0,4.1741714E1,-6.3385016E-1,-5.6682167E0,-1.33583E-1,-1.3580236E0,7.8077455E0],"categories":[],"categories_nodes":[],"categories_segments":[],"categories_sizes":[],"default_left":[0,0,0,0,0,0,0,0,0,0,0,0,0,0,0,0,0,0,0,0,0,0,0,0,0,0,0,0,0,0,0,0,0,0,0,0,0,0,0,0,0,0,0,0,0,0,0,0,0,0,0,0,0,0,0,0,0,0,0,0,0,0,0],"id":10,"left_children":[1,3,5,7,9,11,13,-1,15,17,19,21,-1,23,25,27,29,31,-1,-1,-1,33,35,-1,37,39,41,43,45,-1,47,49,-1,51,-1,53,55,-1,-1,-1,57,59,61,-1,-1,-1,-1,-1,-1,-1,-1,-1,-1,-1,-1,-1,-1,-1,-1,-1,-1,-1,-1],"loss_changes":[8.087457E4,9.508901E4,4.9855835E3,1.9952107E3,8.046828E4,4.89326E4,2.3079621E4,0E0,3.959677E2,1.60337E5,4.195611E1,1.3729899E4,0E0,1.1923691E4,1.2285476E4,1.2527734E3,3.7588184E2,7.1314434E3,0E0,0E0,0E0,6.0057207E4,3.2787612E3,0E0,1.620957E3,2.399202E4,7.6237573E3,8.740965E2,9.875488E0,0E0,8.190552E0,1.7400189E2,0E0,5.429968E3,0E0,6.0731504E3,7.6794775E3,0E0,0E0,0E0,4.4598293E4,6.1070947E3,3.6864116E3,0E0,0E0,0E0,0E0,0E0,0E0,0E0,0E0,0E0,0E0,0E0,0E0,0E0,0E0,0E0,0E0,0E0,0E0,0E0,0E0],"parents":[2147483647,0,0,1,1,2,2,3,3,4,4,5,5,6,6,8,8,9,9,10,10,11,11,13,13,14,14,15,15,16,16,17,17,21,21,22,22,24,24,25,25,26,26,27,27,28,28,30,30,31,31,33,33,35,35,36,36,40,40,41,41,42,42],"right_children":[2,4,6,8,10,12,14,-1,16,18,20,22,-1,24,26,28,30,32,-1,-1,-1,34,36,-1,38,40,42,44,46,-1,48,50,-1,52,-1,54,56,-1,-1,-1,58,60,62,-1,-1,-1,-1,-1,-1,-1,-1,-1,-1,-1,-1,-1,-1,-1,-1,-1,-1,-1,-1],"split_conditions":[2.5E1,2.2E1,4E1,1.3E1,1.5E1,3.8E1,4.1E1,1.2922642E1,1.5E1,1E0,2.3E1,1.6E1,4.034797E1,9E0,4.5E1,1E0,1E0,2.4E1,1.3559924E2,-2.4040272E0,-1.2002564E-2,1.2E1,1E0,7.377054E0,2.1E1,1.3E1,1E0,1.9E1,1.7E1,3.2389734E0,1.4E1,2.3E1,3.1058954E1,2.7E1,4.4138065E1,2.1E1,1.9E1,-2.4916353E1,-4.850242E0,-8.273978E0,1.4E1,5.5E1,1.5E1,3.3108294E0,-3.4715884E0,2.6096513E0,9.884496E0,-4.4039842E-1,-2.1055696E0,1.6518289E-1,5.185478E0,6.944877E0,-6.057096E0,-1.7439589E1,-1.3779039E0,1.5091088E1,-7.6766872E0,4.1741714E1,-6.3385016E-1,-5.6682167E0,-1.33583E-1,-1.3580236E0,7.8077455E0],"split_indices":[0,0,0,0,2,0,0,0,2,1,0,2,0,2,0,1,1,0,0,0,0,2,1,0,2,2,1,0,0,0,0,0,0,0,0,2,2,0,0,0,2,0,2,0,0,0,0,0,0,0,0,0,0,0,0,0,0,0,0,0,0,0,0],"split_type":[0,0,0,0,0,0,0,0,0,0,0,0,0,0,0,0,0,0,0,0,0,0,0,0,0,0,0,0,0,0,0,0,0,0,0,0,0,0,0,0,0,0,0,0,0,0,0,0,0,0,0,0,0,0,0,0,0,0,0,0,0,0,0],"sum_hessian":[2.78E2,1.8E1,2.6E2,1.2E1,6E0,2.9E1,2.31E2,1E0,1.1E1,4E0,2E0,2.7E1,2E0,6E0,2.25E2,7E0,4E0,3E0,1E0,1E0,1E0,1.5E1,1.2E1,1E0,5E0,1.2E1,2.13E2,5E0,2E0,1E0,3E0,2E0,1E0,1.3E1,2E0,8E0,4E0,4E0,1E0,4E0,8E0,1.94E2,1.9E1,3E0,2E0,1E0,1E0,1E0,2E0,1E0,1E0,3E0,1E1,4E0,4E0,1E0,3E0,3E0,5E0,1.9E1,1.75E2,5E0,1.4E1],"tree_param":{"num_deleted":"0","num_feature":"3","num_nodes":"63","size_leaf_vector":"1"}},{"base_weights":[5.0743203E0,5.8447765E1,1.1694553E0,1.1498594E1,1.372894E2,1.1798833E1,-2.1007389E-1,1.0984245E1,6.3544517E0,1.9494333E2,-4.5636125E0,1.1136162E0,1.07594574E2,-4.3041218E1,1.1174841E0,-5.369504E-2,1.093937E1,5.1580284E1,1.1525933E2,-2.0434234E0,-1.0202408E-2,1.6459108E1,-1.7858807E1,8.863491E0,3.955407E1,6.2704964E0,-5.7181973E1,2.4386116E1,-3.0125293E-1,-3.5208066E0,4.6299744E0,1.4320567E1,-1.4021714E0,1.0106801E1,2.640011E1,-6.411342E0,3.5310455E1,-2.6483875E1,1.2380798E0,-1.8936428E1,-4.122707E0,-2.0960745E1,4.6869247E1,-1.3119912E1,1.2358847E0,2.753128E0,3.5967636E-1,1.7946755E0,8.401822E0,1.4040528E-1,4.4076557E0,-4.5719E0,5.840815E0,-1.3254086E1,-1.0472072E0,9.863553E0,-9.2445135E0,-2.7754376E0,-7.7049346E0,3.2349827E1,-4.753876E-1,-1.2580364E0,-1.3324942E1,2.6756765E1,-1.896302E-1],"categories":[],"categories_nodes":[],"categories_segments":[],"categories_sizes":[],"default_left":[0,0,0,0,0,0,0,0,0,0,0,0,0,0,0,0,0,0,0,0,0,0,0,0,0,0,0,0,0,0,0,0,0,0,0,0,0,0,0,0,0,0,0,0,0,0,0,0,0,0,0,0,0,0,0,0,0,0,0,0,0,0,0,0,0],"id":11,"left_children":[1,3,5,7,9,11,13,-1,15,17,19,21,23,25,27,29,31,33,-1,-1,-1,35,37,-1,-1,-1,39,41,43,-1,45,47,-1,49,-1,51,-1,53,55,-1,-1,57,59,61,63,-1,-1,-1,-1,-1,-1,-1,-1,-1,-1,-1,-1,-1,-1,-1,-1,-1,-1,-1,-1],"loss_changes":[5.807974E4,6.87508E4,3.8296616E3,1.4469111E3,5.8138344E4,3.0588127E4,1.3239811E4,0E0,3.5315735E2,1.1584342E5,3.0313267E1,8.445893E3,1.7832383E3,7.5246016E3,7.468074E3,3.826344E2,4.3647382E2,5.1524688E3,0E0,0E0,0E0,3.780197E4,2.1740444E3,0E0,0E0,0E0,6.806074E2,1.4236428E4,4.23288E3,0E0,6.700443E1,5.1714514E2,0E0,1.2571637E2,0E0,3.4954749E3,0E0,3.5078516E3,6.0840254E3,0E0,0E0,3.8871582E1,2.6756133E4,6.2391924E3,3.160112E4,0E0,0E0,0E0,0E0,0E0,0E0,0E0,0E0,0E0,0E0,0E0,0E0,0E0,0E0,0E0,0E0,0E0,0E0,0E0,0E0],"parents":[2147483647,0,0,1,1,2,2,3,3,4,4,5,5,6,6,8,8,9,9,10,10,11,11,12,12,13,13,14,14,15,15,16,16,17,17,21,21,22,22,26,26,27,27,28,28,30,30,31,31,33,33,35,35,37,37,38,38,41,41,42,42,43,43,44,44],"right_children":[2,4,6,8,10,12,14,-1,16,18,20,22,24,26,28,30,32,34,-1,-1,-1,36,38,-1,-1,-1,40,42,44,-1,46,48,-1,50,-1,52,-1,54,56,-1,-1,58,60,62,64,-1,-1,-1,-1,-1,-1,-1,-1,-1,-1,-1,-1,-1,-1,-1,-1,-1,-1,-1,-1],"split_conditions":[2.5E1,2.2E1,4E1,1.3E1,1.5E1,3.8E1,4.1E1,1.0984245E1,1.7E1,1E0,2.3E1,1.6E1,1.2E1,9E0,4.5E1,1.2E1,1.5E1,2.4E1,1.1525933E2,-2.0434234E0,-1.0202408E-2,1.2E1,1E0,8.863491E0,3.955407E1,6.2704964E0,2.1E1,1.3E1,5.5E1,-3.5208066E0,1E0,1E0,-1.4021714E0,2.3E1,2.640011E1,1E0,3.5310455E1,2.1E1,2.1E1,-1.8936428E1,-4.122707E0,4.3E1,1.4E1,5.4E1,5.6E1,2.753128E0,3.5967636E-1,1.7946755E0,8.401822E0,1.4040528E-1,4.4076557E0,-4.5719E0,5.840815E0,-1.3254086E1,-1.0472072E0,9.863553E0,-9.2445135E0,-2.7754376E0,-7.7049346E0,3.2349827E1,-4.753876E-1,-1.2580364E0,-1.3324942E1,2.6756765E1,-1.896302E-1],"split_indices":[0,0,0,0,2,0,0,0,0,1,0,2,2,2,0,2,2,0,0,0,0,2,1,0,0,0,2,2,0,0,1,1,0,0,0,1,0,2,2,0,0,0,2,0,0,0,0,0,0,0,0,0,0,0,0,0,0,0,0,0,0,0,0,0,0],"split_type":[0,0,0,0,0,0,0,0,0,0,0,0,0,0,0,0,0,0,0,0,0,0,0,0,0,0,0,0,0,0,0,0,0,0,0,0,0,0,0,0,0,0,0,0,0,0,0,0,0,0,0,0,0,0,0,0,0,0,0,0,0,0,0,0,0],"sum_hessian":[2.78E2,1.8E1,2.6E2,1.2E1,6E0,2.9E1,2.31E2,1E0,1.1E1,4E0,2E0,2.7E1,2E0,6E0,2.25E2,5E0,6E0,3E0,1E0,1E0,1E0,1.5E1,1.2E1,1E0,1E0,1E0,5E0,1.2E1,2.13E2,1E0,4E0,5E0,1E0,2E0,1E0,1.3E1,2E0,8E0,4E0,4E0,1E0,4E0,8E0,2.2E1,1.91E2,1E0,3E0,4E0,1E0,1E0,1E0,1E1,3E0,4E0,4E0,2E0,2E0,2E0,2E0,3E0,5E0,1.8E1,4E0,3E0,1.88E2],"tree_param":{"num_deleted":"0","num_feature":"3","num_nodes":"65","size_leaf_vector":"1"}},{"base_weights":[4.453202E0,4.6179382E1,8.7789476E-1,9.539057E0,8.919386E1,-2.1911754E-1,9.222492E0,9.336608E0,5.1469736E0,1.680651E1,1.5821992E2,1.2120745E1,-1.4579597E0,2.033419E1,-1.7711298E0,-1.0558891E-1,8.913888E0,-2.5532265E0,1.1105197E1,2.6757895E2,-3.8790715E0,-1.0437106E0,9.145538E1,-4.2263947E1,-4.5557967E-1,5.5060007E-2,5.074371E1,-7.744785E0,1.29198675E1,-2.9926856E0,3.8635406E0,5.4094605E0,1.6605225E0,8.590782E0,-5.397788E0,9.7970436E1,2.2440088E1,-1.73691E0,-8.672333E-3,1.46653805E1,-2.0127743E1,7.5339665E0,3.3620956E1,-1.409683E1,-3.5043E0,2.1036402E1,-1.6656115E0,6.7693834E0,-8.01314E0,3.652353E1,1.2194415E1,-2.2984436E0,-2.331766E1,1.6531242E1,-3.420671E0,-4.2829058E-1,1.662973E0,-5.5519366E0,3.3986642E0,1.1934472E-1,3.7465074E0,-2.26425E0,3.551913E1,-1.0073105E1,-7.958771E-1,-5.295915E0,1.1325474E1,3.937167E-2,-3.7161686E0,5.3299212E0,3.0500966E-1,-5.4477656E-1,-2.7325394E0,-7.8125007E-4,6.097989E0,2.2328303E0,-3.009914E0,-8.349191E0,-2.1437566E0],"categories":[],"categories_nodes":[],"categories_segments":[],"categories_sizes":[],"default_left":[0,0,0,0,0,0,0,0,0,0,0,0,0,0,0,0,0,0,0,0,0,0,0,0,0,0,0,0,0,0,0,0,0,0,0,0,0,0,0,0,0,0,0,0,0,0,0,0,0,0,0,0,0,0,0,0,0,0,0,0,0,0,0,0,0,0,0,0,0,0,0,0,0,0,0,0,0,0,0],"id":12,"left_children":[1,3,5,7,9,11,13,-1,15,17,19,21,23,25,27,29,31,33,-1,35,37,39,41,43,45,47,49,51,53,-1,55,-1,57,59,-1,-1,-1,-1,-1,61,63,-1,-1,-1,-1,65,67,69,71,-1,73,75,77,-1,-1,-1,-1,-1,-1,-1,-1,-1,-1,-1,-1,-1,-1,-1,-1,-1,-1,-1,-1,-1,-1,-1,-1,-1,-1],"loss_changes":[4.1581766E4,3.382259E4,2.3637856E3,1.0721401E3,4.7307008E4,3.5184268E3,3.7007483E3,0E0,2.3837262E2,2.4421694E3,8.967288E4,2.2027795E4,8.529494E3,9.247385E3,1.5042048E3,2.7359375E2,4.3299365E2,8.427979E2,0E0,9.6881875E3,2.1901329E1,5.9912446E3,1.2883926E3,1.7371289E2,5.3662646E3,5.9596906E2,1.4937709E4,9.64188E2,5.758362E3,0E0,5.2351746E1,0E0,1.1845652E3,9.083006E1,0E0,0E0,0E0,0E0,0E0,2.6239586E4,2.0261345E3,0E0,0E0,0E0,0E0,7.7801416E3,3.7583281E3,3.6151126E2,1.7399567E1,0E0,4.9599683E2,8.281175E2,2.0075195E1,0E0,0E0,0E0,0E0,0E0,0E0,0E0,0E0,0E0,0E0,0E0,0E0,0E0,0E0,0E0,0E0,0E0,0E0,0E0,0E0,0E0,0E0,0E0,0E0,0E0,0E0],"parents":[2147483647,0,0,1,1,2,2,3,3,4,4,5,5,6,6,8,8,9,9,10,10,11,11,12,12,13,13,14,14,15,15,16,16,17,17,19,19,20,20,21,21,22,22,23,23,24,24,25,25,26,26,27,27,28,28,30,30,32,32,33,33,39,39,40,40,45,45,46,46,47,47,48,48,50,50,51,51,52,52],"right_children":[2,4,6,8,10,12,14,-1,16,18,20,22,24,26,28,30,32,34,-1,36,38,40,42,44,46,48,50,52,54,-1,56,-1,58,60,-1,-1,-1,-1,-1,62,64,-1,-1,-1,-1,66,68,70,72,-1,74,76,78,-1,-1,-1,-1,-1,-1,-1,-1,-1,-1,-1,-1,-1,-1,-1,-1,-1,-1,-1,-1,-1,-1,-1,-1,-1,-1],"split_conditions":[2.7E1,2.2E1,1E0,1.3E1,1.1E1,4E1,1.7E1,9.336608E0,1.7E1,2.6E1,1.5E1,3.8E1,4.1E1,1.5E1,8.3E1,1.2E1,1.9E1,2.4E1,1.1105197E1,2.3E1,2.3E1,1.6E1,1.2E1,2.1E1,4.5E1,9E0,6.6E1,6.3E1,1.01E2,-2.9926856E0,1.4E1,5.4094605E0,2E1,2.3E1,-5.397788E0,9.7970436E1,2.2440088E1,-1.73691E0,-8.672333E-3,1.3E1,2.1E1,7.5339665E0,3.3620956E1,-1.409683E1,-3.5043E0,1.3E1,2.1E1,4.1E1,1E1,3.652353E1,1.6E1,2.1E1,8.2E1,1.6531242E1,-3.420671E0,-4.2829058E-1,1.662973E0,-5.5519366E0,3.3986642E0,1.1934472E-1,3.7465074E0,-2.26425E0,3.551913E1,-1.0073105E1,-7.958771E-1,-5.295915E0,1.1325474E1,3.937167E-2,-3.7161686E0,5.3299212E0,3.0500966E-1,-5.4477656E-1,-2.7325394E0,-7.8125007E-4,6.097989E0,2.2328303E0,-3.009914E0,-8.349191E0,-2.1437566E0],"split_indices":[0,0,1,0,2,0,2,0,0,0,2,0,0,2,0,2,0,0,0,0,0,2,2,2,0,2,0,0,0,0,0,0,0,0,0,0,0,0,0,2,2,0,0,0,0,2,2,0,2,0,2,2,0,0,0,0,0,0,0,0,0,0,0,0,0,0,0,0,0,0,0,0,0,0,0,0,0,0,0],"split_type":[0,0,0,0,0,0,0,0,0,0,0,0,0,0,0,0,0,0,0,0,0,0,0,0,0,0,0,0,0,0,0,0,0,0,0,0,0,0,0,0,0,0,0,0,0,0,0,0,0,0,0,0,0,0,0,0,0,0,0,0,0,0,0,0,0,0,0,0,0,0,0,0,0,0,0,0,0,0,0],"sum_hessian":[2.78E2,2.1E1,2.57E2,1.2E1,9E0,2.28E2,2.9E1,1E0,1.1E1,5E0,4E0,2E1,2.08E2,1.4E1,1.5E1,5E0,6E0,3E0,2E0,2E0,2E0,1.8E1,2E0,4E0,2.04E2,9E0,5E0,1.1E1,4E0,1E0,4E0,2E0,4E0,2E0,1E0,1E0,1E0,1E0,1E0,1E1,8E0,1E0,1E0,3E0,1E0,1E1,1.94E2,5E0,4E0,1E0,4E0,9E0,2E0,1E0,3E0,1E0,3E0,1E0,3E0,1E0,1E0,9E0,1E0,4E0,4E0,3E0,7E0,1.67E2,2.7E1,1E0,4E0,1E0,3E0,2E0,2E0,4E0,5E0,1E0,1E0],"tree_param":{"num_deleted":"0","num_feature":"3","num_nodes":"79","size_leaf_vector":"1"}},{"base_weights":[3.9566112E0,4.168323E1,1.1950696E0,7.510786E0,9.919159E1,2.9036641E-2,9.845345E0,7.936116E0,3.7277317E0,1.4084656E2,-3.2972095E0,1.0228498E1,-1.0935311E0,2.0200113E1,-1.124759E0,6.7606735E0,-1.8705215E0,3.726675E1,8.327487E1,-1.4763732E0,-7.3711397E-3,9.734508E-2,7.773707E1,-3.310499E1,-3.0742952E-1,6.132497E0,4.2624058E1,-6.36052E0,1.1666019E1,-4.8194122E-1,5.697704E0,2.090712E0,-5.822672E0,7.30216E0,1.907408E1,1.0321817E1,-1.780765E1,6.4038715E0,2.8577812E1,-3.641681E1,-2.9786546E0,1.527362E1,-1.1847839E0,9.707163E0,2.7430496E-1,3.1045002E1,9.755536E0,-1.6866204E0,-1.9820013E1,1.4051556E1,-2.6510203E0,1.973786E0,-2.9208794E0,-3.6404687E-1,-2.086371E0,1.01442724E-1,3.1845293E0,-1.8072034E0,9.936078E0,-2.8335893E0,-6.2808003E0,-4.8912835E0,-1.4513162E1,-2.955539E0,1.4218344E1,-3.2871153E0,-2.0270206E-2,1.7033175E0,-1.879398E0,-6.2255864E-4,4.8783903E0,-2.381502E0,1.84583E0,-7.0968122E0,-1.8221936E0],"categories":[],"categories_nodes":[],"categories_segments":[],"categories_sizes":[],"default_left":[0,0,0,0,0,0,0,0,0,0,0,0,0,0,0,0,0,0,0,0,0,0,0,0,0,0,0,0,0,0,0,0,0,0,0,0,0,0,0,0,0,0,0,0,0,0,0,0,0,0,0,0,0,0,0,0,0,0,0,0,0,0,0,0,0,0,0,0,0,0,0,0,0,0,0],"id":13,"left_children":[1,3,5,7,9,11,13,-1,15,17,19,21,23,25,27,29,31,33,-1,-1,-1,35,37,39,41,43,45,47,49,51,-1,-1,53,55,-1,57,59,-1,-1,61,-1,63,65,-1,67,-1,69,71,73,-1,-1,-1,-1,-1,-1,-1,-1,-1,-1,-1,-1,-1,-1,-1,-1,-1,-1,-1,-1,-1,-1,-1,-1,-1,-1],"loss_changes":[2.901742E4,3.6593812E4,2.632292E3,8.3299567E2,3.0348578E4,2.6560396E3,3.5440996E3,0E0,2.1639612E2,6.0471E4,1.5823719E1,1.5723045E4,5.249152E3,4.7858315E3,1.1457133E3,7.1786743E2,2.152548E2,2.6896216E3,0E0,0E0,0E0,4.028259E3,9.308633E2,2.2199219E1,2.8204668E3,1.6810475E3,1.0992591E4,7.2147095E2,4.019565E3,4.5613898E2,0E0,0E0,1.2429199E1,6.562463E1,0E0,5.416748E3,1.1536133E1,0E0,0E0,1.7345996E2,0E0,9.344469E3,2.1282185E3,0E0,3.8889673E2,0E0,3.174374E2,5.389392E2,1.450415E1,0E0,0E0,0E0,0E0,0E0,0E0,0E0,0E0,0E0,0E0,0E0,0E0,0E0,0E0,0E0,0E0,0E0,0E0,0E0,0E0,0E0,0E0,0E0,0E0,0E0,0E0],"parents":[2147483647,0,0,1,1,2,2,3,3,4,4,5,5,6,6,8,8,9,9,10,10,11,11,12,12,13,13,14,14,15,15,16,16,17,17,21,21,22,22,23,23,24,24,25,25,26,26,27,27,28,28,29,29,32,32,33,33,35,35,36,36,39,39,41,41,42,42,44,44,46,46,47,47,48,48],"right_children":[2,4,6,8,10,12,14,-1,16,18,20,22,24,26,28,30,32,34,-1,-1,-1,36,38,40,42,44,46,48,50,52,-1,-1,54,56,-1,58,60,-1,-1,62,-1,64,66,-1,68,-1,70,72,74,-1,-1,-1,-1,-1,-1,-1,-1,-1,-1,-1,-1,-1,-1,-1,-1,-1,-1,-1,-1,-1,-1,-1,-1,-1,-1],"split_conditions":[2.5E1,2.2E1,1E0,1.3E1,1.5E1,4E1,1.7E1,7.936116E0,1.5E1,1E0,2.3E1,3.8E1,4.1E1,1.5E1,8.3E1,1E0,1E0,2.4E1,8.327487E1,-1.4763732E0,-7.3711397E-3,3.2E1,1.2E1,2.1E1,4.5E1,2.7E1,6.6E1,6.3E1,1.01E2,1.9E1,5.697704E0,2.090712E0,1.4E1,2.3E1,1.907408E1,1.2E1,3.4E1,6.4038715E0,2.8577812E1,1.3E1,-2.9786546E0,4.4E1,5.5E1,9.707163E0,9E0,3.1045002E1,1.6E1,4.1E1,8.2E1,1.4051556E1,-2.6510203E0,1.973786E0,-2.9208794E0,-3.6404687E-1,-2.086371E0,1.01442724E-1,3.1845293E0,-1.8072034E0,9.936078E0,-2.8335893E0,-6.2808003E0,-4.8912835E0,-1.4513162E1,-2.955539E0,1.4218344E1,-3.2871153E0,-2.0270206E-2,1.7033175E0,-1.879398E0,-6.2255864E-4,4.8783903E0,-2.381502E0,1.84583E0,-7.0968122E0,-1.8221936E0],"split_indices":[0,0,1,0,2,0,2,0,2,1,0,0,0,2,0,1,1,0,0,0,0,0,2,2,0,0,0,0,0,0,0,0,0,0,0,2,0,0,0,2,0,0,0,0,2,0,2,0,0,0,0,0,0,0,0,0,0,0,0,0,0,0,0,0,0,0,0,0,0,0,0,0,0,0,0],"split_type":[0,0,0,0,0,0,0,0,0,0,0,0,0,0,0,0,0,0,0,0,0,0,0,0,0,0,0,0,0,0,0,0,0,0,0,0,0,0,0,0,0,0,0,0,0,0,0,0,0,0,0,0,0,0,0,0,0,0,0,0,0,0,0,0,0,0,0,0,0,0,0,0,0,0,0],"sum_hessian":[2.78E2,1.8E1,2.6E2,1.2E1,6E0,2.3E2,3E1,1E0,1.1E1,4E0,2E0,2.2E1,2.08E2,1.5E1,1.5E1,7E0,4E0,3E0,1E0,1E0,1E0,2E1,2E0,4E0,2.04E2,1E1,5E0,1.1E1,4E0,5E0,2E0,1E0,3E0,2E0,1E0,1.3E1,7E0,1E0,1E0,3E0,1E0,1E1,1.94E2,1E0,9E0,1E0,4E0,9E0,2E0,1E0,3E0,3E0,2E0,1E0,2E0,1E0,1E0,8E0,5E0,3E0,4E0,2E0,1E0,6E0,4E0,1.9E1,1.75E2,5E0,4E0,2E0,2E0,5E0,4E0,1E0,1E0],"tree_param":{"num_deleted":"0","num_feature":"3","num_nodes":"75","size_leaf_vector":"1"}},{"base_weights":[3.4271429E0,3.53087E1,1.0931324E0,6.205781E0,8.431288E1,8.709543E0,1.0353988E-1,6.7456975E0,2.97532E0,1.19719604E2,-2.8026288E0,2.2520278E0,6.607651E1,-1.6283886E1,1.150665E0,-1.5855484E0,6.4595904E0,3.1676731E1,7.078367E1,-1.2549174E0,-6.2656407E-3,1.1874796E1,-9.764612E0,5.4432907E0,2.429114E1,-2.725375E1,8.912621E0,3.44002E1,2.130582E-1,-2.8398504E0,1.8838089E0,9.079178E0,-1.3886902E0,6.206833E0,1.6212965E1,-8.9483894E-2,2.870085E1,-1.7098083E1,5.3885603E0,-4.431844E0,-4.918929E1,4.0537277E1,-1.7637903E1,8.291092E1,-4.1747494E1,-8.463093E-1,1.0531239E1,1.777105E0,-1.8212414E-1,9.5766544E-1,5.7770967E0,8.622666E-2,2.7068481E0,2.225647E0,-2.9190714E0,-1.1682785E1,-1.5880677E0,1.1370191E1,-3.664385E0,9.404403E-1,-3.913027E0,-1.7405867E1,-2.0802338E0,-9.912029E0,3.9190414E1,-7.948432E0,6.16692E1,-2.2731695E1,3.9453232E0,1.3868102E-1,-2.6002684E0,7.602224E0,7.1227616E-1],"categories":[],"categories_nodes":[],"categories_segments":[],"categories_sizes":[],"default_left":[0,0,0,0,0,0,0,0,0,0,0,0,0,0,0,0,0,0,0,0,0,0,0,0,0,0,0,0,0,0,0,0,0,0,0,0,0,0,0,0,0,0,0,0,0,0,0,0,0,0,0,0,0,0,0,0,0,0,0,0,0,0,0,0,0,0,0,0,0,0,0,0,0],"id":14,"left_children":[1,3,5,7,9,11,13,-1,15,17,19,21,23,25,27,29,31,33,-1,-1,-1,35,37,-1,-1,39,41,43,45,-1,47,49,-1,51,-1,53,-1,55,57,59,61,63,-1,65,67,69,71,-1,-1,-1,-1,-1,-1,-1,-1,-1,-1,-1,-1,-1,-1,-1,-1,-1,-1,-1,-1,-1,-1,-1,-1,-1,-1],"loss_changes":[2.0722318E4,2.65739E4,1.9662925E3,6.167876E2,2.1926855E4,1.0964637E4,3.9997847E3,0E0,2.0093756E2,4.369035E4,1.1432632E1,3.3536863E3,6.725469E2,4.112534E3,6.8199946E3,1.8187656E2,2.4535931E2,1.943251E3,0E0,0E0,0E0,1.6049252E4,1.536764E3,0E0,0E0,4.788109E3,1.30891455E4,2.56252E4,2.348092E3,0E0,5.3910557E1,2.9802567E2,0E0,4.741372E1,0E0,1.157973E3,0E0,2.1146343E3,3.3245208E3,4.3185306E2,1.4633076E3,3.0832713E4,0E0,5.912215E4,6.60023E3,1.9997786E3,2.355853E3,0E0,0E0,0E0,0E0,0E0,0E0,0E0,0E0,0E0,0E0,0E0,0E0,0E0,0E0,0E0,0E0,0E0,0E0,0E0,0E0,0E0,0E0,0E0,0E0,0E0,0E0],"parents":[2147483647,0,0,1,1,2,2,3,3,4,4,5,5,6,6,8,8,9,9,10,10,11,11,12,12,13,13,14,14,15,15,16,16,17,17,21,21,22,22,25,25,26,26,27,27,28,28,30,30,31,31,33,33,35,35,37,37,38,38,39,39,40,40,41,41,43,43,44,44,45,45,46,46],"right_children":[2,4,6,8,10,12,14,-1,16,18,20,22,24,26,28,30,32,34,-1,-1,-1,36,38,-1,-1,40,42,44,46,-1,48,50,-1,52,-1,54,-1,56,58,60,62,64,-1,66,68,70,72,-1,-1,-1,-1,-1,-1,-1,-1,-1,-1,-1,-1,-1,-1,-1,-1,-1,-1,-1,-1,-1,-1,-1,-1,-1,-1],"split_conditions":[2.5E1,2.2E1,4E1,1.3E1,1.5E1,3.8E1,4.4E1,6.7456975E0,1.7E1,1E0,2.3E1,1.6E1,1.2E1,1.9E1,4.5E1,1.2E1,1.5E1,2.4E1,7.078367E1,-1.2549174E0,-6.2656407E-3,1.3E1,3.6E1,5.4432907E0,2.429114E1,1.3E1,4.2E1,1.4E1,1E0,-2.8398504E0,1E0,1E0,-1.3886902E0,2.3E1,1.6212965E1,3.1E1,2.870085E1,1.9E1,1.9E1,9E0,4.2E1,4.1E1,-1.7637903E1,1.3E1,1E0,2.1E1,6.6E1,1.777105E0,-1.8212414E-1,9.5766544E-1,5.7770967E0,8.622666E-2,2.7068481E0,2.225647E0,-2.9190714E0,-1.1682785E1,-1.5880677E0,1.1370191E1,-3.664385E0,9.404403E-1,-3.913027E0,-1.7405867E1,-2.0802338E0,-9.912029E0,3.9190414E1,-7.948432E0,6.16692E1,-2.2731695E1,3.9453232E0,1.3868102E-1,-2.6002684E0,7.602224E0,7.1227616E-1],"split_indices":[0,0,0,0,2,0,0,0,0,1,0,2,2,2,0,2,2,0,0,0,0,2,0,0,0,2,0,2,1,0,1,1,0,0,0,0,0,2,2,2,0,0,0,2,1,2,0,0,0,0,0,0,0,0,0,0,0,0,0,0,0,0,0,0,0,0,0,0,0,0,0,0,0],"split_type":[0,0,0,0,0,0,0,0,0,0,0,0,0,0,0,0,0,0,0,0,0,0,0,0,0,0,0,0,0,0,0,0,0,0,0,0,0,0,0,0,0,0,0,0,0,0,0,0,0,0,0,0,0,0,0,0,0,0,0,0,0,0,0,0,0,0,0,0,0,0,0,0,0],"sum_hessian":[2.78E2,1.8E1,2.6E2,1.2E1,6E0,2.9E1,2.31E2,1E0,1.1E1,4E0,2E0,2.7E1,2E0,1.3E1,2.18E2,5E0,6E0,3E0,1E0,1E0,1E0,1.5E1,1.2E1,1E0,1E0,9E0,4E0,5E0,2.13E2,1E0,4E0,5E0,1E0,2E0,1E0,1.4E1,1E0,8E0,4E0,5E0,4E0,3E0,1E0,3E0,2E0,1.94E2,1.9E1,1E0,3E0,4E0,1E0,1E0,1E0,8E0,6E0,2E0,6E0,1E0,3E0,3E0,2E0,3E0,1E0,2E0,1E0,2E0,1E0,1E0,1E0,1.67E2,2.7E1,6E0,1.3E1],"tree_param":{"num_deleted":"0","num_feature":"3","num_nodes":"73","size_leaf_vector":"1"}},{"base_weights":[3.0496142E0,2.7930248E1,9.161897E-1,5.1784215E0,5.4714596E1,-7.9691486E0,1.126477E0,5.733838E0,2.4244912E0,1.021864E1,9.7166824E1,9.335402E0,2.0165575E-1,1.2062921E-3,7.2707596E0,-3.7946205E0,7.6490326E0,1.6432695E2,-2.3822353E0,3.0927236E0,5.6165028E1,-1.217145E1,9.917097E-1,3.6885777E0,-4.424665E0,1.2317424E1,-1.1803849E0,5.275808E0,-4.650886E0,6.0166115E1,1.3781013E1,-1.0666798E0,-5.3260806E-3,1.4054032E1,-7.26331E0,4.6267962E0,2.0647469E1,-2.1323494E1,8.566928E0,2.9902536E1,1.7649159E-1,-1.3704725E-1,4.9059587E0,6.3230896E-1,4.910532E0,7.3292546E-2,2.300821E0,1.639156E-1,2.4395723E1,-8.884671E0,-8.797972E-1,-1.0793164E0,-1.1498917E1,1.0708706E1,-1.4992216E1,2.1440351E1,-1.0645612E1,-9.0494287E-1,9.499534E-1],"categories":[],"categories_nodes":[],"categories_segments":[],"categories_sizes":[],"default_left":[0,0,0,0,0,0,0,0,0,0,0,0,0,0,0,0,0,0,0,0,0,0,0,0,0,0,0,0,0,0,0,0,0,0,0,0,0,0,0,0,0,0,0,0,0,0,0,0,0,0,0,0,0,0,0,0,0,0,0],"id":15,"left_children":[1,3,5,7,9,-1,11,-1,13,15,17,19,21,23,25,27,-1,29,31,33,35,37,39,41,-1,43,-1,45,-1,-1,-1,-1,-1,47,49,-1,-1,51,53,55,57,-1,-1,-1,-1,-1,-1,-1,-1,-1,-1,-1,-1,-1,-1,-1,-1,-1,-1],"loss_changes":[1.4783997E4,1.3123309E4,1.520828E3,4.5252695E2,1.7896613E4,0E0,1.9492072E3,0E0,1.4091791E2,1.3813296E3,3.38201E4,7.427197E3,2.279968E3,5.439039E2,2.746634E2,5.0658896E2,0E0,3.6538984E3,8.260069E0,2.826455E3,4.85917E2,2.8398564E3,5.1562524E3,4.2746997E2,0E0,8.957956E1,0E0,3.4256416E1,0E0,0E0,0E0,0E0,0E0,1.0858678E4,1.1715459E3,0E0,0E0,2.8765854E3,9.724579E3,1.884327E4,2.0526174E3,0E0,0E0,0E0,0E0,0E0,0E0,0E0,0E0,0E0,0E0,0E0,0E0,0E0,0E0,0E0,0E0,0E0,0E0],"parents":[2147483647,0,0,1,1,2,2,3,3,4,4,6,6,8,8,9,9,10,10,11,11,12,12,13,13,14,14,15,15,17,17,18,18,19,19,20,20,21,21,22,22,23,23,25,25,27,27,33,33,34,34,37,37,38,38,39,39,40,40],"right_children":[2,4,6,8,10,-1,12,-1,14,16,18,20,22,24,26,28,-1,30,32,34,36,38,40,42,-1,44,-1,46,-1,-1,-1,-1,-1,48,50,-1,-1,52,54,56,58,-1,-1,-1,-1,-1,-1,-1,-1,-1,-1,-1,-1,-1,-1,-1,-1,-1,-1],"split_conditions":[2.7E1,2.2E1,2.9E1,1.3E1,1.1E1,-7.9691486E0,4E1,5.733838E0,2E1,2.6E1,1.5E1,3.8E1,4.4E1,1.9E1,1.5E1,2.4E1,7.6490326E0,2.3E1,2.3E1,1.6E1,1.2E1,1.9E1,4.5E1,1.8E1,-4.424665E0,1E0,-1.1803849E0,2.3E1,-4.650886E0,6.0166115E1,1.3781013E1,-1.0666798E0,-5.3260806E-3,1.3E1,3.1E1,4.6267962E0,2.0647469E1,1.3E1,4.2E1,1.4E1,1.5E1,-1.3704725E-1,4.9059587E0,6.3230896E-1,4.910532E0,7.3292546E-2,2.300821E0,1.639156E-1,2.4395723E1,-8.884671E0,-8.797972E-1,-1.0793164E0,-1.1498917E1,1.0708706E1,-1.4992216E1,2.1440351E1,-1.0645612E1,-9.0494287E-1,9.499534E-1],"split_indices":[0,0,0,0,2,0,0,0,0,0,2,0,0,0,2,0,0,0,0,2,2,2,0,0,0,1,0,0,0,0,0,0,0,2,0,0,0,2,0,2,2,0,0,0,0,0,0,0,0,0,0,0,0,0,0,0,0,0,0],"split_type":[0,0,0,0,0,0,0,0,0,0,0,0,0,0,0,0,0,0,0,0,0,0,0,0,0,0,0,0,0,0,0,0,0,0,0,0,0,0,0,0,0,0,0,0,0,0,0,0,0,0,0,0,0,0,0,0,0,0,0],"sum_hessian":[2.78E2,2.1E1,2.57E2,1.2E1,9E0,1E0,2.56E2,1E0,1.1E1,5E0,4E0,2.5E1,2.31E2,8E0,3E0,3E0,2E0,2E0,2E0,2.3E1,2E0,1.3E1,2.18E2,7E0,1E0,2E0,1E0,2E0,1E0,1E0,1E0,1E0,1E0,1.1E1,1.2E1,1E0,1E0,9E0,4E0,5E0,2.13E2,6E0,1E0,1E0,1E0,1E0,1E0,1E1,1E0,1E0,1.1E1,5E0,4E0,3E0,1E0,3E0,2E0,1.03E2,1.1E2],"tree_param":{"num_deleted":"0","num_feature":"3","num_nodes":"59","size_leaf_vector":"1"}},{"base_weights":[2.546079E0,2.5472456E1,8.6735386E-1,4.428019E0,6.091606E1,-6.6005616E-3,7.3517447E0,4.873764E0,2.0893738E0,8.649743E1,-2.0248997E0,3.6040733E0,-1.8353406E0,1.3382087E1,-3.311472E0,-1.2031504E0,4.6130557E0,2.288643E1,5.1141212E1,-9.0667766E-1,-4.527283E-3,-1.2215517E-1,7.256984E1,-2.9248495E1,-5.263715E-1,2.1179308E1,1.4988942E0,-1.0665044E1,9.116537E0,-2.3933156E0,1.7473068E0,1.0881297E1,-7.050018E-2,4.4844384E0,1.1713861E1,4.1738086E0,-1.5024491E1,1.1083639E2,-6.334472E0,-3.5381023E1,1.1320004E0,1.649591E1,-8.725391E-1,7.88929E0,2.5105427E1,-3.408012E0,3.7346132E0,-3.935706E0,-6.170612E0,1.1694489E1,-8.095142E0,1.5310982E0,-1.10309035E-1,7.265167E-1,4.170067E0,-3.7609646E0,1.8540448E0,6.2298205E-2,1.9556992E0,-1.8888257E-1,2.111346E1,-7.339006E0,-4.043559E-1,6.8037305E0,4.3072647E1,-4.349755E0,-1.5428943E1,-4.614338E-1,7.884594E0,-3.613848E0,3.814045E-2,6.451519E0,-8.889912E-1,1.19689874E-1,-2.5850914E0,-3.7716668E0,2.6674654E0,-1.0807259E0,-3.2359967E0],"categories":[],"categories_nodes":[],"categories_segments":[],"categories_sizes":[],"default_left":[0,0,0,0,0,0,0,0,0,0,0,0,0,0,0,0,0,0,0,0,0,0,0,0,0,0,0,0,0,0,0,0,0,0,0,0,0,0,0,0,0,0,0,0,0,0,0,0,0,0,0,0,0,0,0,0,0,0,0,0,0,0,0,0,0,0,0,0,0,0,0,0,0,0,0,0,0,0,0],"id":16,"left_children":[1,3,5,7,9,11,13,-1,15,17,19,21,23,25,27,29,31,33,-1,-1,-1,35,37,39,41,43,45,47,49,-1,51,53,55,57,-1,59,61,63,-1,65,-1,67,69,71,-1,73,-1,75,-1,-1,77,-1,-1,-1,-1,-1,-1,-1,-1,-1,-1,-1,-1,-1,-1,-1,-1,-1,-1,-1,-1,-1,-1,-1,-1,-1,-1,-1,-1],"loss_changes":[1.0715803E4,1.3902187E4,1.4791516E3,3.2534747E2,1.1445959E4,1.531904E3,2.0377025E3,0E0,1.0526161E2,2.2806652E4,5.9678946E0,2.0053479E4,5.510582E3,1.8213726E3,1.1939114E3,1.3386797E2,2.062707E2,1.0143877E3,0E0,0E0,0E0,4.864201E3,1.668027E4,1.5510557E3,8.864927E2,9.308168E3,5.259928E2,4.5220844E2,2.8857036E3,0E0,3.7370102E1,4.295401E1,4.6708224E2,2.4750328E1,0E0,1.880674E4,2.1615889E3,5.4024062E3,0E0,1.2650786E3,0E0,5.698711E2,1.6323481E3,1.689157E3,0E0,1.4225064E2,0E0,7.764834E2,0E0,0E0,9.510834E0,0E0,0E0,0E0,0E0,0E0,0E0,0E0,0E0,0E0,0E0,0E0,0E0,0E0,0E0,0E0,0E0,0E0,0E0,0E0,0E0,0E0,0E0,0E0,0E0,0E0,0E0,0E0,0E0],"parents":[2147483647,0,0,1,1,2,2,3,3,4,4,5,5,6,6,8,8,9,9,10,10,11,11,12,12,13,13,14,14,15,15,16,16,17,17,21,21,22,22,23,23,24,24,25,25,26,26,27,27,28,28,30,30,31,31,32,32,33,33,35,35,36,36,37,37,39,39,41,41,42,42,43,43,45,45,47,47,50,50],"right_children":[2,4,6,8,10,12,14,-1,16,18,20,22,24,26,28,30,32,34,-1,-1,-1,36,38,40,42,44,46,48,50,-1,52,54,56,58,-1,60,62,64,-1,66,-1,68,70,72,-1,74,-1,76,-1,-1,78,-1,-1,-1,-1,-1,-1,-1,-1,-1,-1,-1,-1,-1,-1,-1,-1,-1,-1,-1,-1,-1,-1,-1,-1,-1,-1,-1,-1],"split_conditions":[2.5E1,2.2E1,1E0,1.3E1,1.5E1,6.4E1,1.9E1,4.873764E0,1.7E1,1E0,2.3E1,6.3E1,6.6E1,6.6E1,8.2E1,1.2E1,1.9E1,2.4E1,5.1141212E1,-9.0667766E-1,-4.527283E-3,5.6E1,1.7E1,1.7E1,6.7E1,6.3E1,8.6E1,5E1,1.01E2,-2.3933156E0,1E0,1.8E1,2E1,2.3E1,1.1713861E1,5.5E1,1.5E1,2E0,-6.334472E0,1.4E1,1.1320004E0,2E0,7E1,3.8E1,2.5105427E1,7.2E1,3.7346132E0,3.8E1,-6.170612E0,1.1694489E1,1.07E2,1.5310982E0,-1.10309035E-1,7.265167E-1,4.170067E0,-3.7609646E0,1.8540448E0,6.2298205E-2,1.9556992E0,-1.8888257E-1,2.111346E1,-7.339006E0,-4.043559E-1,6.8037305E0,4.3072647E1,-4.349755E0,-1.5428943E1,-4.614338E-1,7.884594E0,-3.613848E0,3.814045E-2,6.451519E0,-8.889912E-1,1.19689874E-1,-2.5850914E0,-3.7716668E0,2.6674654E0,-1.0807259E0,-3.2359967E0],"split_indices":[0,0,1,0,2,0,2,0,0,1,0,0,0,0,0,2,0,0,0,0,0,0,2,2,0,0,0,0,0,0,1,0,0,0,0,0,2,2,0,2,0,2,0,0,0,0,0,0,0,0,0,0,0,0,0,0,0,0,0,0,0,0,0,0,0,0,0,0,0,0,0,0,0,0,0,0,0,0,0],"split_type":[0,0,0,0,0,0,0,0,0,0,0,0,0,0,0,0,0,0,0,0,0,0,0,0,0,0,0,0,0,0,0,0,0,0,0,0,0,0,0,0,0,0,0,0,0,0,0,0,0,0,0,0,0,0,0,0,0,0,0,0,0,0,0,0,0,0,0,0,0,0,0,0,0,0,0,0,0,0,0],"sum_hessian":[2.78E2,1.8E1,2.6E2,1.2E1,6E0,2.3E2,3E1,1E0,1.1E1,4E0,2E0,7.7E1,1.53E2,1.9E1,1.1E1,5E0,6E0,3E0,1E0,1E0,1E0,7.4E1,3E0,6E0,1.47E2,1.1E1,8E0,7E0,4E0,1E0,4E0,2E0,4E0,2E0,1E0,5.8E1,1.6E1,2E0,1E0,5E0,1E0,2E0,1.45E2,1E1,1E0,6E0,2E0,5E0,2E0,1E0,3E0,1E0,3E0,1E0,1E0,1E0,3E0,1E0,1E0,5.5E1,3E0,9E0,7E0,1E0,1E0,3E0,2E0,1E0,1E0,1.1E1,1.34E2,4E0,6E0,4E0,2E0,3E0,2E0,2E0,1E0],"tree_param":{"num_deleted":"0","num_feature":"3","num_nodes":"79","size_leaf_vector":"1"}},{"base_weights":[2.3013122E0,2.1559818E1,8.905349E-1,3.6296825E0,5.1778667E1,6.3105593E0,1.8583108E-1,4.1426973E0,1.6306577E0,7.3522835E1,-1.721166E0,1.6327927E0,4.7866196E1,-1.7362497E1,7.2854114E-1,3.5089452E0,-1.7007339E0,1.9453466E1,4.3470047E1,-7.706761E-1,-3.8486482E-3,7.2655983E0,-5.4254904E0,3.9611094E0,1.757868E1,4.4291167E0,-2.5177488E1,2.2355804E1,3.3734116E-1,-8.996509E-1,3.346947E0,1.3014336E0,-4.2949734E0,3.8117752E0,9.956781E0,-1.25889E0,2.1682894E1,4.4214326E-1,-5.6214604E0,-2.8767815E0,-3.0574278E1,-1.22135935E1,3.1733873E1,-2.4842934E1,7.9363096E-1,1.0638896E0,-1.95831E0,-2.4501915E-1,-1.5546433E0,5.295296E-2,1.662346E0,9.336552E-1,-6.7454443E0,1.7424824E1,-3.3113155E0,-2.021174E0,3.8686616E0,-1.0481029E1,-2.623025E0,-1.460474E0,-1.2715051E1,5.758857E0,5.6390885E-2],"categories":[],"categories_nodes":[],"categories_segments":[],"categories_sizes":[],"default_left":[0,0,0,0,0,0,0,0,0,0,0,0,0,0,0,0,0,0,0,0,0,0,0,0,0,0,0,0,0,0,0,0,0,0,0,0,0,0,0,0,0,0,0,0,0,0,0,0,0,0,0,0,0,0,0,0,0,0,0,0,0,0,0],"id":17,"left_children":[1,3,5,7,9,11,13,-1,15,17,19,21,23,25,27,29,31,33,-1,-1,-1,35,37,-1,-1,-1,39,41,43,45,-1,-1,47,49,-1,51,53,55,-1,-1,57,-1,-1,59,61,-1,-1,-1,-1,-1,-1,-1,-1,-1,-1,-1,-1,-1,-1,-1,-1,-1,-1],"loss_changes":[7.561081E3,1.0106793E4,9.957199E2,2.4201523E2,8.269709E3,5.7534717E3,2.222137E3,0E0,8.105552E1,1.647782E4,4.3117933E0,1.1526416E3,3.4204492E2,2.129176E3,1.9045507E3,2.797564E2,9.6963135E1,7.3289465E2,0E0,0E0,0E0,1.9936973E3,1.02376843E3,0E0,0E0,0E0,2.1157275E2,2.5351902E4,2.5818755E3,1.7328128E2,0E0,0E0,8.110764E0,1.7882172E1,0E0,1.0905577E3,7.787254E3,9.8095807E2,0E0,0E0,7.5480225E1,0E0,0E0,1.1951357E3,2.4484497E3,0E0,0E0,0E0,0E0,0E0,0E0,0E0,0E0,0E0,0E0,0E0,0E0,0E0,0E0,0E0,0E0,0E0,0E0],"parents":[2147483647,0,0,1,1,2,2,3,3,4,4,5,5,6,6,8,8,9,9,10,10,11,11,12,12,13,13,14,14,15,15,16,16,17,17,21,21,22,22,26,26,27,27,28,28,29,29,32,32,33,33,35,35,36,36,37,37,40,40,43,43,44,44],"right_children":[2,4,6,8,10,12,14,-1,16,18,20,22,24,26,28,30,32,34,-1,-1,-1,36,38,-1,-1,-1,40,42,44,46,-1,-1,48,50,-1,52,54,56,-1,-1,58,-1,-1,60,62,-1,-1,-1,-1,-1,-1,-1,-1,-1,-1,-1,-1,-1,-1,-1,-1,-1,-1],"split_conditions":[2.5E1,2.2E1,4E1,1.3E1,1.5E1,3.8E1,4.1E1,4.1426973E0,1.5E1,1E0,2.3E1,3.2E1,1.2E1,9E0,4.2E1,1E0,1E0,2.4E1,4.3470047E1,-7.706761E-1,-3.8486482E-3,1.2E1,2.2E1,3.9611094E0,1.757868E1,4.4291167E0,1.3E1,1.6E1,4.3E1,1.9E1,3.346947E0,1.3014336E0,1.4E1,2.3E1,9.956781E0,1.1E1,1.6E1,3.6E1,-5.6214604E0,-2.8767815E0,2.1E1,-1.22135935E1,3.1733873E1,2E0,4.5E1,1.0638896E0,-1.95831E0,-2.4501915E-1,-1.5546433E0,5.295296E-2,1.662346E0,9.336552E-1,-6.7454443E0,1.7424824E1,-3.3113155E0,-2.021174E0,3.8686616E0,-1.0481029E1,-2.623025E0,-1.460474E0,-1.2715051E1,5.758857E0,5.6390885E-2],"split_indices":[0,0,0,0,2,0,0,0,2,1,0,0,2,2,0,1,1,0,0,0,0,2,2,0,0,0,2,2,0,0,0,0,0,0,0,2,2,0,0,0,2,0,0,2,0,0,0,0,0,0,0,0,0,0,0,0,0,0,0,0,0,0,0],"split_type":[0,0,0,0,0,0,0,0,0,0,0,0,0,0,0,0,0,0,0,0,0,0,0,0,0,0,0,0,0,0,0,0,0,0,0,0,0,0,0,0,0,0,0,0,0,0,0,0,0,0,0,0,0,0,0,0,0,0,0,0,0,0,0],"sum_hessian":[2.78E2,1.8E1,2.6E2,1.2E1,6E0,2.9E1,2.31E2,1E0,1.1E1,4E0,2E0,2.7E1,2E0,6E0,2.25E2,7E0,4E0,3E0,1E0,1E0,1E0,1.5E1,1.2E1,1E0,1E0,1E0,5E0,3E0,2.22E2,5E0,2E0,1E0,3E0,2E0,1E0,1E1,5E0,9E0,3E0,2E0,3E0,2E0,1E0,3E0,2.19E2,3E0,2E0,1E0,2E0,1E0,1E0,9E0,1E0,2E0,3E0,6E0,3E0,2E0,1E0,2E0,1E0,6E0,2.13E2],"tree_param":{"num_deleted":"0","num_feature":"3","num_nodes":"63","size_leaf_vector":"1"}},{"base_weights":[1.9196643E0,1.8274208E1,7.2174853E-1,3.0097747E0,4.4011837E1,-4.2543985E-2,6.3936787E0,3.5212922E0,1.3043159E0,6.249437E1,-1.4629923E0,2.7108862E0,-1.4368622E0,1.1120362E1,-2.0169337E0,-1.6563982E0,3.65574E0,1.6535442E1,3.6949512E1,-6.550747E-1,-3.271866E-3,-4.68255E-1,6.1642063E1,-2.3186096E1,-3.9847377E-1,1.7894145E0,2.0272367E1,-7.90791E0,7.8120146E0,-2.1939018E0,9.3752444E-1,8.539836E0,-5.8654784E-3,3.2400055E0,8.4632635E0,6.1175046E0,-7.397346E0,9.417333E1,-5.3927608E0,-2.8110157E1,9.537415E-1,1.8449441E0,-2.6668234E0,5.6621113E0,-1.8063847E0,3.6825806E1,3.099107E0,1.7497777E0,-1.0704066E1,9.931856E0,-6.7880745E0,1.106218E0,-2.0153733E-1,4.5795596E-1,3.3849702E0,-2.9030733E0,1.449337E0,4.5009613E-2,1.412993E0,2.2838588E-1,1.271626E1,4.1109533E0,-6.25108E0,5.7747116E0,3.6603287E1,-3.3837473E0,-1.2354432E1,-2.2631101E-1,9.558836E0,-8.834366E0,-2.1473786E-1,7.5952E-1,-1.9952549E0,3.1441002E0,2.1331156E1,-9.829056E-2,3.0349228E0,-1.5270473E0,-4.947768E0,-8.758591E-1,-2.759056E0],"categories":[],"categories_nodes":[],"categories_segments":[],"categories_sizes":[],"default_left":[0,0,0,0,0,0,0,0,0,0,0,0,0,0,0,0,0,0,0,0,0,0,0,0,0,0,0,0,0,0,0,0,0,0,0,0,0,0,0,0,0,0,0,0,0,0,0,0,0,0,0,0,0,0,0,0,0,0,0,0,0,0,0,0,0,0,0,0,0,0,0,0,0,0,0,0,0,0,0,0,0],"id":18,"left_children":[1,3,5,7,9,11,13,-1,15,17,19,21,23,25,27,29,31,33,-1,-1,-1,35,37,39,41,43,45,47,49,-1,51,53,55,57,-1,59,61,63,-1,65,-1,67,69,-1,71,73,75,-1,77,-1,79,-1,-1,-1,-1,-1,-1,-1,-1,-1,-1,-1,-1,-1,-1,-1,-1,-1,-1,-1,-1,-1,-1,-1,-1,-1,-1,-1,-1,-1,-1],"loss_changes":[5.452801E3,7.3320713E3,1.1317107E3,1.7819562E2,5.9748584E3,8.907407E2,1.2548123E3,0E0,8.959809E1,1.1905207E4,3.115261E0,1.4642205E4,3.4687207E3,1.6716621E3,7.566019E2,9.489293E1,1.25235504E2,5.295166E2,0E0,0E0,0E0,3.467753E3,1.2053138E4,9.9813403E2,7.580708E2,7.0984155E2,2.7286382E3,3.6979715E2,2.071213E3,0E0,2.460419E1,4.0496887E1,2.80644E2,1.2919867E1,0E0,7.544267E3,1.0778078E4,3.9085469E3,0E0,8.555244E2,0E0,5.8759707E3,3.8454707E3,0E0,2.2699677E2,3.770165E3,1.4759341E2,0E0,1.4352283E2,0E0,1.042337E1,0E0,0E0,0E0,0E0,0E0,0E0,0E0,0E0,0E0,0E0,0E0,0E0,0E0,0E0,0E0,0E0,0E0,0E0,0E0,0E0,0E0,0E0,0E0,0E0,0E0,0E0,0E0,0E0,0E0,0E0],"parents":[2147483647,0,0,1,1,2,2,3,3,4,4,5,5,6,6,8,8,9,9,10,10,11,11,12,12,13,13,14,14,15,15,16,16,17,17,21,21,22,22,23,23,24,24,25,25,26,26,27,27,28,28,30,30,31,31,32,32,33,33,35,35,36,36,37,37,39,39,41,41,42,42,44,44,45,45,46,46,48,48,50,50],"right_children":[2,4,6,8,10,12,14,-1,16,18,20,22,24,26,28,30,32,34,-1,-1,-1,36,38,40,42,44,46,48,50,-1,52,54,56,58,-1,60,62,64,-1,66,-1,68,70,-1,72,74,76,-1,78,-1,80,-1,-1,-1,-1,-1,-1,-1,-1,-1,-1,-1,-1,-1,-1,-1,-1,-1,-1,-1,-1,-1,-1,-1,-1,-1,-1,-1,-1,-1,-1],"split_conditions":[2.5E1,2.2E1,1E0,1.3E1,1.5E1,6.4E1,1.9E1,3.5212922E0,1.7E1,1E0,2.3E1,6.3E1,6.6E1,1.5E1,8.2E1,1.2E1,1.9E1,2.4E1,3.6949512E1,-6.550747E-1,-3.271866E-3,1.4E1,1.7E1,1.7E1,9.1E1,2.7E1,6.6E1,3.4E1,1.01E2,-2.1939018E0,1E0,1.8E1,2E1,2.3E1,8.4632635E0,1.3E1,4.2E1,2E0,-5.3927608E0,1.4E1,9.537415E-1,9E1,9.2E1,5.6621113E0,9E0,6.3E1,8.3E1,1.7497777E0,5E1,9.931856E0,1.07E2,1.106218E0,-2.0153733E-1,4.5795596E-1,3.3849702E0,-2.9030733E0,1.449337E0,4.5009613E-2,1.412993E0,2.2838588E-1,1.271626E1,4.1109533E0,-6.25108E0,5.7747116E0,3.6603287E1,-3.3837473E0,-1.2354432E1,-2.2631101E-1,9.558836E0,-8.834366E0,-2.1473786E-1,7.5952E-1,-1.9952549E0,3.1441002E0,2.1331156E1,-9.829056E-2,3.0349228E0,-1.5270473E0,-4.947768E0,-8.758591E-1,-2.759056E0],"split_indices":[0,0,1,0,2,0,2,0,0,1,0,0,0,2,0,2,0,0,0,0,0,2,2,2,0,0,0,0,0,0,1,0,0,0,0,2,0,2,0,2,0,0,0,0,2,0,0,0,0,0,0,0,0,0,0,0,0,0,0,0,0,0,0,0,0,0,0,0,0,0,0,0,0,0,0,0,0,0,0,0,0],"split_type":[0,0,0,0,0,0,0,0,0,0,0,0,0,0,0,0,0,0,0,0,0,0,0,0,0,0,0,0,0,0,0,0,0,0,0,0,0,0,0,0,0,0,0,0,0,0,0,0,0,0,0,0,0,0,0,0,0,0,0,0,0,0,0,0,0,0,0,0,0,0,0,0,0,0,0,0,0,0,0,0,0],"sum_hessian":[2.78E2,1.8E1,2.6E2,1.2E1,6E0,2.3E2,3E1,1E0,1.1E1,4E0,2E0,7.7E1,1.53E2,1.9E1,1.1E1,5E0,6E0,3E0,1E0,1E0,1E0,7.4E1,3E0,6E0,1.47E2,1E1,9E0,7E0,4E0,1E0,4E0,2E0,4E0,2E0,1E0,3.8E1,3.6E1,2E0,1E0,5E0,1E0,7.4E1,7.3E1,1E0,9E0,4E0,5E0,1E0,6E0,1E0,3E0,1E0,3E0,1E0,1E0,1E0,3E0,1E0,1E0,3.4E1,4E0,1.4E1,2.2E1,1E0,1E0,3E0,2E0,6.9E1,5E0,4E0,6.9E1,5E0,4E0,3E0,1E0,4E0,1E0,4E0,2E0,2E0,1E0],"tree_param":{"num_deleted":"0","num_feature":"3","num_nodes":"81","size_leaf_vector":"1"}},{"base_weights":[1.765028E0,1.5467392E1,7.607753E-1,2.4623227E0,3.7410034E1,1.1432624E-1,5.553323E0,2.993097E0,1.0046848E0,5.3120174E1,-1.243543E0,2.5103102E0,-1.0999664E0,9.376166E0,-1.2808605E0,-1.3743483E0,2.9003296E0,1.4055126E1,3.1407057E1,-5.568135E-1,-2.7809143E-3,-1.8371786E-1,5.239576E1,-1.8342329E1,-2.770171E-1,1.6549873E0,1.6931847E1,-6.126165E0,6.7277985E0,-1.8648165E0,8.37204E-1,4.789978E0,-1.2656342E0,2.7540028E0,7.1937747E0,4.614168E0,-5.235984E0,8.004733E1,-4.5838466E0,-2.2300138E1,8.1068003E-1,-4.604101E0,1.1039745E0,4.8127947E0,-1.3880436E0,3.0673111E1,2.6588185E0,-3.8051683E-1,-1.1776684E1,8.442078E0,-5.6603813E0,9.402855E-1,-1.5619126E-1,4.5383057E-1,3.176404E0,3.82576E-2,1.2010437E0,-2.6238778E0,4.600708E0,2.959886E0,-4.457292E0,4.908505E0,3.1112797E1,-2.622404E0,-9.883545E0,3.2557716E0,-2.0625985E0,1.0517061E1,-1.3908778E-1,4.5022205E-1,-1.8289213E0,2.4366772E0,1.813148E1,1.5188344E0,-1.4041489E0,-2.1004324E0,3.915477E0,-1.6291231E0,-4.622326E0,-7.006874E-1,-2.3451977E0],"categories":[],"categories_nodes":[],"categories_segments":[],"categories_sizes":[],"default_left":[0,0,0,0,0,0,0,0,0,0,0,0,0,0,0,0,0,0,0,0,0,0,0,0,0,0,0,0,0,0,0,0,0,0,0,0,0,0,0,0,0,0,0,0,0,0,0,0,0,0,0,0,0,0,0,0,0,0,0,0,0,0,0,0,0,0,0,0,0,0,0,0,0,0,0,0,0,0,0,0,0],"id":19,"left_children":[1,3,5,7,9,11,13,-1,15,17,19,21,23,25,27,29,31,33,-1,-1,-1,35,37,39,41,43,45,47,49,-1,51,53,-1,55,-1,57,59,61,-1,63,-1,65,67,-1,69,71,73,75,77,-1,79,-1,-1,-1,-1,-1,-1,-1,-1,-1,-1,-1,-1,-1,-1,-1,-1,-1,-1,-1,-1,-1,-1,-1,-1,-1,-1,-1,-1,-1,-1],"loss_changes":[3.8274502E3,5.3298306E3,8.079791E2,1.323739E2,4.31683E3,6.7483856E2,8.219161E2,0E0,5.8103687E1,8.60149E3,2.2507787E0,1.0492264E4,2.1801157E3,1.1387532E3,5.068683E2,6.945023E1,1.1437618E2,3.8257593E2,0E0,0E0,0E0,1.8421747E3,8.708393E3,6.4329443E2,8.894815E2,5.03871E2,1.8797405E3,2.5524588E2,1.4855916E3,0E0,1.7227184E1,9.799101E1,0E0,9.334616E0,0E0,5.720651E3,5.523017E3,2.8239277E3,0E0,5.780161E2,0E0,1.338417E3,6.03063E3,0E0,1.4516347E2,2.865253E3,1.2955693E2,5.3604474E2,8.504639E0,0E0,1.0426926E1,0E0,0E0,0E0,0E0,0E0,0E0,0E0,0E0,0E0,0E0,0E0,0E0,0E0,0E0,0E0,0E0,0E0,0E0,0E0,0E0,0E0,0E0,0E0,0E0,0E0,0E0,0E0,0E0,0E0,0E0],"parents":[2147483647,0,0,1,1,2,2,3,3,4,4,5,5,6,6,8,8,9,9,10,10,11,11,12,12,13,13,14,14,15,15,16,16,17,17,21,21,22,22,23,23,24,24,25,25,26,26,27,27,28,28,30,30,31,31,33,33,35,35,36,36,37,37,39,39,41,41,42,42,44,44,45,45,46,46,47,47,48,48,50,50],"right_children":[2,4,6,8,10,12,14,-1,16,18,20,22,24,26,28,30,32,34,-1,-1,-1,36,38,40,42,44,46,48,50,-1,52,54,-1,56,-1,58,60,62,-1,64,-1,66,68,-1,70,72,74,76,78,-1,80,-1,-1,-1,-1,-1,-1,-1,-1,-1,-1,-1,-1,-1,-1,-1,-1,-1,-1,-1,-1,-1,-1,-1,-1,-1,-1,-1,-1,-1,-1],"split_conditions":[2.5E1,2.2E1,1E0,1.3E1,1.5E1,6.4E1,1.9E1,2.993097E0,1.7E1,1E0,2.3E1,6.3E1,6.6E1,1.5E1,8.2E1,1.2E1,1.5E1,2.4E1,3.1407057E1,-5.568135E-1,-2.7809143E-3,1.4E1,1.7E1,1.7E1,7E0,2.7E1,6.6E1,4.5E1,1.01E2,-1.8648165E0,1E0,1E0,-1.2656342E0,2.3E1,7.1937747E0,4.4E1,4.2E1,2E0,-4.5838466E0,1.4E1,8.1068003E-1,1E0,8E0,4.8127947E0,1E1,6.3E1,1.7E1,3.8E1,5.5E1,8.442078E0,1.07E2,9.402855E-1,-1.5619126E-1,4.5383057E-1,3.176404E0,3.82576E-2,1.2010437E0,-2.6238778E0,4.600708E0,2.959886E0,-4.457292E0,4.908505E0,3.1112797E1,-2.622404E0,-9.883545E0,3.2557716E0,-2.0625985E0,1.0517061E1,-1.3908778E-1,4.5022205E-1,-1.8289213E0,2.4366772E0,1.813148E1,1.5188344E0,-1.4041489E0,-2.1004324E0,3.915477E0,-1.6291231E0,-4.622326E0,-7.006874E-1,-2.3451977E0],"split_indices":[0,0,1,0,2,0,2,0,0,1,0,0,0,2,0,2,2,0,0,0,0,2,2,2,2,0,0,0,0,0,1,1,0,0,0,0,0,2,0,2,0,2,2,0,2,0,2,0,0,0,0,0,0,0,0,0,0,0,0,0,0,0,0,0,0,0,0,0,0,0,0,0,0,0,0,0,0,0,0,0,0],"split_type":[0,0,0,0,0,0,0,0,0,0,0,0,0,0,0,0,0,0,0,0,0,0,0,0,0,0,0,0,0,0,0,0,0,0,0,0,0,0,0,0,0,0,0,0,0,0,0,0,0,0,0,0,0,0,0,0,0,0,0,0,0,0,0,0,0,0,0,0,0,0,0,0,0,0,0,0,0,0,0,0,0],"sum_hessian":[2.78E2,1.8E1,2.6E2,1.2E1,6E0,2.3E2,3E1,1E0,1.1E1,4E0,2E0,7.7E1,1.53E2,1.9E1,1.1E1,5E0,6E0,3E0,1E0,1E0,1E0,7.4E1,3E0,6E0,1.47E2,1E1,9E0,7E0,4E0,1E0,4E0,5E0,1E0,2E0,1E0,3.8E1,3.6E1,2E0,1E0,5E0,1E0,3.5E1,1.12E2,1E0,9E0,4E0,5E0,4E0,3E0,1E0,3E0,1E0,3E0,4E0,1E0,1E0,1E0,1.7E1,2.1E1,1.4E1,2.2E1,1E0,1E0,3E0,2E0,4E0,3.1E1,4E0,1.08E2,6E0,3E0,3E0,1E0,4E0,1E0,3E0,1E0,2E0,1E0,2E0,1E0],"tree_param":{"num_deleted":"0","num_feature":"3","num_nodes":"81","size_leaf_vector":"1"}},{"base_weights":[1.5954727E0,1.2252376E1,6.805605E-1,2.052624E0,2.4286816E1,-1.1564301E0,2.4157505E0,2.5441315E0,8.1026953E-1,4.5502143E0,4.3113377E1,6.624753E-1,-2.232198E1,-8.087566E0,2.8425145E0,2.2110994E0,-1.5931122E0,-4.4203987E0,4.498288E0,7.2912636E1,-1.0570132E0,7.9602103E0,-2.2992563E0,-7.3498195E-1,-2.4257769E1,2.810582E1,2.0371213E0,-8.0312634E-1,7.5025177E0,7.9924166E-1,-3.3234596E0,2.3409016E0,-3.705645E0,2.6695972E1,6.114716E0,-4.732916E-1,-2.3643496E-3,-2.3133698E0,5.2048252E1,-6.024477E-1,-1.4795396E1,-2.9623163E1,-1.0145237E1,1.7090342E1,-5.041097E-1,-4.413813E0,4.036534E0,7.726226E-1,-1.5120393E0,6.7618793E-1,2.6999452E0,-1.546074E-1,-1.2263123E0,3.2519534E-2,1.0208863E0,-2.9147425E0,1.6134977E1,-7.4998116E-1,1.5365185E0,-6.820346E0,-6.9282264E-1,-2.6566842E0,-9.6016655E0,-1.2012315E0,-4.2852955E0,-5.5382977E0,5.311448E0,-1.4751477E1,6.4133745E-1,5.306836E0,4.1637716E-1],"categories":[],"categories_nodes":[],"categories_segments":[],"categories_sizes":[],"default_left":[0,0,0,0,0,0,0,0,0,0,0,0,0,0,0,0,0,0,0,0,0,0,0,0,0,0,0,0,0,0,0,0,0,0,0,0,0,0,0,0,0,0,0,0,0,0,0,0,0,0,0,0,0,0,0,0,0,0,0,0,0,0,0,0,0,0,0,0,0,0,0],"id":20,"left_children":[1,3,5,7,9,11,13,-1,15,17,19,21,23,-1,25,27,29,31,-1,33,35,37,39,-1,41,43,45,47,49,-1,51,53,-1,-1,-1,-1,-1,55,-1,57,59,61,63,-1,65,67,69,-1,-1,-1,-1,-1,-1,-1,-1,-1,-1,-1,-1,-1,-1,-1,-1,-1,-1,-1,-1,-1,-1,-1,-1],"loss_changes":[2.711948E3,2.6506106E3,8.251758E2,9.694165E1,3.5195479E3,4.8655527E3,1.7439044E3,0E0,4.3923275E1,6.2841956E2,6.658295E3,2.5471328E3,3.2525098E2,0E0,2.6285352E3,1.336217E2,4.568677E1,2.4343097E2,0E0,7.193447E2,1.6261809E0,5.822265E4,1.7721855E3,0E0,3.8093896E2,3.331675E3,1.6816687E3,9.886959E1,3.2907715E0,0E0,6.4777107E0,6.7442303E0,0E0,0E0,0E0,0E0,0E0,1.4225856E4,0E0,8.2742114E2,9.387705E2,1.34296875E1,4.447867E1,0E0,1.3077758E3,9.19541E3,3.555413E3,0E0,0E0,0E0,0E0,0E0,0E0,0E0,0E0,0E0,0E0,0E0,0E0,0E0,0E0,0E0,0E0,0E0,0E0,0E0,0E0,0E0,0E0,0E0,0E0],"parents":[2147483647,0,0,1,1,2,2,3,3,4,4,5,5,6,6,8,8,9,9,10,10,11,11,12,12,14,14,15,15,16,16,17,17,19,19,20,20,21,21,22,22,24,24,25,25,26,26,27,27,28,28,30,30,31,31,37,37,39,39,40,40,41,41,42,42,44,44,45,45,46,46],"right_children":[2,4,6,8,10,12,14,-1,16,18,20,22,24,-1,26,28,30,32,-1,34,36,38,40,-1,42,44,46,48,50,-1,52,54,-1,-1,-1,-1,-1,56,-1,58,60,62,64,-1,66,68,70,-1,-1,-1,-1,-1,-1,-1,-1,-1,-1,-1,-1,-1,-1,-1,-1,-1,-1,-1,-1,-1,-1,-1,-1],"split_conditions":[2.7E1,2.2E1,1.5E1,1.3E1,1.1E1,1.4E1,3.1E1,2.5441315E0,1.5E1,2.6E1,1.5E1,5.6E1,4.7E1,-8.087566E0,3.2E1,1E0,1E0,2.4E1,4.498288E0,2.3E1,2.3E1,5.5E1,1.3E1,-7.3498195E-1,7.4E1,1.6E1,5.6E1,1.9E1,1.7E1,7.9924166E-1,1.4E1,2.3E1,-3.705645E0,2.6695972E1,6.114716E0,-4.732916E-1,-2.3643496E-3,1.3E1,5.2048252E1,1E1,8.2E1,5.5E1,1.08E2,1.7090342E1,1.9E1,1.7E1,6.7E1,7.726226E-1,-1.5120393E0,6.7618793E-1,2.6999452E0,-1.546074E-1,-1.2263123E0,3.2519534E-2,1.0208863E0,-2.9147425E0,1.6134977E1,-7.4998116E-1,1.5365185E0,-6.820346E0,-6.9282264E-1,-2.6566842E0,-9.6016655E0,-1.2012315E0,-4.2852955E0,-5.5382977E0,5.311448E0,-1.4751477E1,6.4133745E-1,5.306836E0,4.1637716E-1],"split_indices":[0,0,2,0,2,2,0,0,2,0,2,0,0,0,0,1,1,0,0,0,0,0,2,0,0,2,0,0,0,0,0,0,0,0,0,0,0,2,0,2,0,0,0,0,2,2,0,0,0,0,0,0,0,0,0,0,0,0,0,0,0,0,0,0,0,0,0,0,0,0,0],"split_type":[0,0,0,0,0,0,0,0,0,0,0,0,0,0,0,0,0,0,0,0,0,0,0,0,0,0,0,0,0,0,0,0,0,0,0,0,0,0,0,0,0,0,0,0,0,0,0,0,0,0,0,0,0,0,0,0,0,0,0,0,0,0,0,0,0,0,0,0,0,0,0],"sum_hessian":[2.78E2,2.1E1,2.57E2,1.2E1,9E0,1.25E2,1.32E2,1E0,1.1E1,5E0,4E0,1.16E2,9E0,1E0,1.31E2,7E0,4E0,3E0,2E0,2E0,2E0,3.3E1,8.3E1,1E0,8E0,3E0,1.28E2,5E0,2E0,1E0,3E0,2E0,1E0,1E0,1E0,1E0,1E0,3.2E1,1E0,7.4E1,9E0,5E0,3E0,1E0,2E0,3E1,9.8E1,3E0,2E0,1E0,1E0,1E0,2E0,1E0,1E0,2.9E1,3E0,5.6E1,1.8E1,5E0,4E0,1E0,4E0,2E0,1E0,1E0,1E0,3E0,2.7E1,1.5E1,8.3E1],"tree_param":{"num_deleted":"0","num_feature":"3","num_nodes":"71","size_leaf_vector":"1"}},{"base_weights":[1.4008148E0,8.765651E0,3.7721622E-1,1.4160004E1,-5.5967956E0,-8.922789E0,7.2731215E-1,2.9781845E0,3.7549095E1,-1.464997E1,6.3863726E0,-8.5981303E-1,-5.6359663E0,1.754212E1,2.168338E-1,2.4231644E0,3.9569473E-1,3.5240235E0,7.069316E1,-2.671648E0,-7.7213225E0,4.5841408E-1,4.514731E0,4.6580076E0,-7.930303E0,6.276001E-1,1.1965685E1,-1.0630795E1,9.092994E-1,-2.851854E0,3.0602338E0,5.8010864E-1,2.2949524E0,5.197504E0,2.4812263E1,-1.3141595E-1,-9.810486E-1,6.793556E-1,-8.984604E-1,-3.9229777E-2,1.8893563E0,-3.8051722E0,2.3653565E-1,7.3152833E0,-1.1407639E1,1.623498E0,-1.7619123E1,1.3818136E1,3.5437602E-1,1.7994784E0,-1.0742638E0,2.1625123E0,-1.2096314E0,-4.0229762E-1,-2.0095827E-3,1.2727203E0,-5.4115357E0,1.660107E0,-1.2393773E0,-9.9626465E0,4.4831955E-1,-7.382639E0,1.1139921E1,3.578165E-1,-1.2611257E0],"categories":[],"categories_nodes":[],"categories_segments":[],"categories_sizes":[],"default_left":[0,0,0,0,0,0,0,0,0,0,0,0,0,0,0,0,0,0,0,0,0,0,0,0,0,0,0,0,0,0,0,0,0,0,0,0,0,0,0,0,0,0,0,0,0,0,0,0,0,0,0,0,0,0,0,0,0,0,0,0,0,0,0,0,0],"id":21,"left_children":[1,3,5,7,9,11,13,15,17,19,21,23,-1,25,27,-1,29,31,33,35,-1,37,-1,39,41,43,-1,45,47,-1,49,51,-1,-1,-1,-1,-1,-1,53,-1,-1,-1,-1,-1,55,57,59,61,63,-1,-1,-1,-1,-1,-1,-1,-1,-1,-1,-1,-1,-1,-1,-1,-1],"loss_changes":[2.099973E3,2.7134377E3,8.0743945E2,6.426487E3,1.1784171E3,6.9962885E2,2.039092E3,2.3383134E2,8.772709E3,7.2811523E2,2.4986281E2,2.7102158E2,0E0,2.620474E3,1.7523599E3,0E0,3.720822E2,5.6292545E1,1.131832E3,3.9148483E0,0E0,1.1837209E1,0E0,3.2234962E1,1.3433717E2,1.7077534E3,0E0,1.227523E3,1.5638914E3,0E0,2.361085E2,1.5134882E2,0E0,0E0,0E0,0E0,0E0,0E0,1.1749156E0,0E0,0E0,0E0,0E0,0E0,4.9161633E2,1.578743E2,2.7313933E3,8.977092E3,8.1130536E2,0E0,0E0,0E0,0E0,0E0,0E0,0E0,0E0,0E0,0E0,0E0,0E0,0E0,0E0,0E0,0E0],"parents":[2147483647,0,0,1,1,2,2,3,3,4,4,5,5,6,6,7,7,8,8,9,9,10,10,11,11,13,13,14,14,16,16,17,17,18,18,19,19,21,21,23,23,24,24,25,25,27,27,28,28,30,30,31,31,38,38,44,44,45,45,46,46,47,47,48,48],"right_children":[2,4,6,8,10,12,14,16,18,20,22,24,-1,26,28,-1,30,32,34,36,-1,38,-1,40,42,44,-1,46,48,-1,50,52,-1,-1,-1,-1,-1,-1,54,-1,-1,-1,-1,-1,56,58,60,62,64,-1,-1,-1,-1,-1,-1,-1,-1,-1,-1,-1,-1,-1,-1,-1,-1],"split_conditions":[3.2E1,1.6E1,3.6E1,1.3E1,1.9E1,2.1E1,4E1,3E0,2.2E1,2.2E1,2.4E1,3.4E1,-5.6359663E0,3.8E1,4.4E1,2.4231644E0,9E0,1E0,1.4E1,1.4E1,-7.7213225E0,1.5E1,4.514731E0,1.1E1,3.5E1,1.9E1,1.1965685E1,1.3E1,4.6E1,-2.851854E0,2.7E1,1.3E1,2.2949524E0,5.197504E0,2.4812263E1,-1.3141595E-1,-9.810486E-1,6.793556E-1,2.3E1,-3.9229777E-2,1.8893563E0,-3.8051722E0,2.3653565E-1,7.3152833E0,3.7E1,9E0,1.9E1,1.3E1,2.1E1,1.7994784E0,-1.0742638E0,2.1625123E0,-1.2096314E0,-4.0229762E-1,-2.0095827E-3,1.2727203E0,-5.4115357E0,1.660107E0,-1.2393773E0,-9.9626465E0,4.4831955E-1,-7.382639E0,1.1139921E1,3.578165E-1,-1.2611257E0],"split_indices":[0,2,0,2,2,2,0,2,0,0,0,0,0,0,0,0,2,1,2,0,0,0,0,2,0,2,0,2,0,0,0,0,0,0,0,0,0,0,0,0,0,0,0,0,0,2,2,2,2,0,0,0,0,0,0,0,0,0,0,0,0,0,0,0,0],"split_type":[0,0,0,0,0,0,0,0,0,0,0,0,0,0,0,0,0,0,0,0,0,0,0,0,0,0,0,0,0,0,0,0,0,0,0,0,0,0,0,0,0,0,0,0,0,0,0,0,0,0,0,0,0,0,0,0,0,0,0,0,0,0,0,0,0],"sum_hessian":[2.78E2,3.3E1,2.45E2,2.4E1,9E0,8E0,2.37E2,1.7E1,7E0,5E0,4E0,5E0,3E0,6E0,2.31E2,5E0,1.2E1,4E0,3E0,3E0,2E0,3E0,1E0,3E0,2E0,4E0,2E0,1.3E1,2.18E2,2E0,1E1,3E0,1E0,1E0,2E0,1E0,2E0,1E0,2E0,1E0,2E0,1E0,1E0,1E0,3E0,5E0,8E0,8E0,2.1E2,7E0,3E0,1E0,2E0,1E0,1E0,1E0,2E0,3E0,2E0,4E0,4E0,3E0,5E0,1.78E2,3.2E1],"tree_param":{"num_deleted":"0","num_feature":"3","num_nodes":"65","size_leaf_vector":"1"}},{"base_weights":[1.0918895E0,1.6358458E-1,6.800341E0,8.1424767E-1,-4.815183E0,1.4815158E1,5.806785E-1,3.327E-1,1.037166E1,-1.9269243E1,4.2853637E0,2.7314014E0,3.1687468E1,-1.7918235E0,7.6014047E0,1.7586475E1,-3.4224096E-1,-8.750453E0,-7.208975E0,1.3509669E1,-3.622509E0,7.5754914E0,-2.5679224E0,5.9137505E1,-1.1053308E0,2.1534896E-1,-3.5698407E0,7.3024797E0,-6.1495364E-1,4.192202E0,1.155386E1,7.893678E-2,-4.297338E0,-6.67344E0,2.298213E0,2.0867624E0,-4.9800777E0,4.061948E0,3.7714818E0,-1.447274E0,1.307055E0,1.9507096E0,2.235453E1,3.4532351E0,-3.4541917E0,-4.494911E0,2.2357316E0,2.006298E0,-1.5974274E-1,-2.1477567E-1,7.7695765E0,3.5215807E0,-1.2619448E0,2.3006973E0,-2.6972353E-1,2.1172674E0,-8.449671E-1,-1.574793E0,-1.0402394E-1,-3.9160007E-1,-2.1095467E0],"categories":[],"categories_nodes":[],"categories_segments":[],"categories_sizes":[],"default_left":[0,0,0,0,0,0,0,0,0,0,0,0,0,0,0,0,0,0,0,0,0,0,0,0,0,0,0,0,0,0,0,0,0,0,0,0,0,0,0,0,0,0,0,0,0,0,0,0,0,0,0,0,0,0,0,0,0,0,0,0,0],"id":22,"left_children":[1,3,5,7,9,11,13,15,-1,17,19,21,23,25,27,29,31,33,-1,-1,35,37,39,41,-1,43,-1,-1,45,47,-1,49,-1,-1,-1,51,-1,53,-1,-1,-1,-1,-1,55,57,59,-1,-1,-1,-1,-1,-1,-1,-1,-1,-1,-1,-1,-1,-1,-1],"loss_changes":[1.4773599E3,7.846403E2,1.935526E3,3.4672952E3,3.7656914E3,3.3794233E3,3.9672418E2,2.4748184E3,0E0,3.405691E2,5.963108E3,3.018277E2,7.0146084E3,3.6774274E2,8.402296E2,2.0808965E3,1.2083755E3,1.2777004E3,0E0,0E0,1.2201367E3,5.4259186E1,1.147657E2,2.753081E3,0E0,2.0203302E2,0E0,0E0,1.9000375E2,7.430243E1,0E0,4.12312E3,0E0,0E0,0E0,7.7827484E2,0E0,9.636819E1,0E0,0E0,0E0,0E0,0E0,2.2326317E2,4.2805664E1,2.318782E1,0E0,0E0,0E0,0E0,0E0,0E0,0E0,0E0,0E0,0E0,0E0,0E0,0E0,0E0,0E0],"parents":[2147483647,0,0,1,1,2,2,3,3,4,4,5,5,6,6,7,7,9,9,10,10,11,11,12,12,13,13,14,14,15,15,16,16,17,17,20,20,21,21,22,22,23,23,25,25,28,28,29,29,31,31,35,35,37,37,43,43,44,44,45,45],"right_children":[2,4,6,8,10,12,14,16,-1,18,20,22,24,26,28,30,32,34,-1,-1,36,38,40,42,-1,44,-1,-1,46,48,-1,50,-1,-1,-1,52,-1,54,-1,-1,-1,-1,-1,56,58,60,-1,-1,-1,-1,-1,-1,-1,-1,-1,-1,-1,-1,-1,-1,-1],"split_conditions":[1E0,1.14E2,1.6E1,1.1E2,1.37E2,1.3E1,8.3E1,1E0,1.037166E1,1.18E2,1.4E2,4.1E1,6.6E1,7.1E1,1.01E2,5E1,1.07E2,1.16E2,-7.208975E0,1.3509669E1,2E1,3.6E1,6.7E1,2.2E1,-1.1053308E0,2.1E1,-3.5698407E0,7.3024797E0,1.12E2,3.1E1,1.155386E1,1.04E2,-4.297338E0,-6.67344E0,2.298213E0,1.55E2,-4.9800777E0,2.7E1,3.7714818E0,-1.447274E0,1.307055E0,1.9507096E0,2.235453E1,3.8E1,3.8E1,1.07E2,2.2357316E0,2.006298E0,-1.5974274E-1,-2.1477567E-1,7.7695765E0,3.5215807E0,-1.2619448E0,2.3006973E0,-2.6972353E-1,2.1172674E0,-8.449671E-1,-1.574793E0,-1.0402394E-1,-3.9160007E-1,-2.1095467E0],"split_indices":[1,0,2,0,0,2,0,2,0,0,0,0,0,0,0,0,0,0,0,0,2,0,0,0,0,2,0,0,0,0,0,0,0,0,0,0,0,0,0,0,0,0,0,0,0,0,0,0,0,0,0,0,0,0,0,0,0,0,0,0,0],"split_type":[0,0,0,0,0,0,0,0,0,0,0,0,0,0,0,0,0,0,0,0,0,0,0,0,0,0,0,0,0,0,0,0,0,0,0,0,0,0,0,0,0,0,0,0,0,0,0,0,0,0,0,0,0,0,0,0,0,0,0,0,0],"sum_hessian":[2.78E2,2.4E2,3.8E1,2.13E2,2.7E1,1.6E1,2.2E1,2.11E2,2E0,1E1,1.7E1,1E1,6E0,1.7E1,5E0,7E0,2.04E2,4E0,6E0,2E0,1.5E1,5E0,5E0,3E0,3E0,1.5E1,2E0,1E0,4E0,5E0,2E0,1.99E2,5E0,2E0,2E0,1.1E1,4E0,4E0,1E0,4E0,1E0,1E0,2E0,8E0,7E0,3E0,1E0,3E0,2E0,1.94E2,5E0,4E0,7E0,2E0,2E0,5E0,3E0,4E0,3E0,2E0,1E0],"tree_param":{"num_deleted":"0","num_feature":"3","num_nodes":"61","size_leaf_vector":"1"}},{"base_weights":[9.727724E-1,6.016762E0,2.7168137E-1,1.0005383E1,-4.556468E0,-1.2195616E0,1.8734244E0,1.657426E0,2.7537613E1,-1.271432E1,6.144248E0,6.929235E-1,-1.1581627E1,7.0710125E0,-1.2701075E0,-1.2834544E0,5.4939585E0,2.8551025E0,5.1506348E1,-1.1208664E0,-6.134104E0,1.2307444E0,3.8697398E0,9.775983E0,-2.1267488E0,-3.5870285E1,1.3899616E0,1.9960066E1,-6.125476E0,-3.3785107E0,3.3510203E0,1.750691E0,-4.7437363E0,9.144613E0,-4.428506E-1,-4.9971008E-1,1.5774645E0,4.4500856E0,1.7635817E1,6.096703E-1,2.8616968E-1,-1.6248599E0,4.421956E1,-1.3168344E1,-6.261796E-1,-2.3843904E0,-1.1759804E1,1.1208884E1,-4.2512636E0,4.892105E0,7.32263E1,-8.399457E0,1.5057329E0,9.12661E-1,-1.4024245E1,1.8577484E1,-1.8880607E0,-4.7979537E-1,3.0301454E0,1.5548803E0,3.7487001E0,9.674607E-1,-8.2211405E-1,1.8703492E0,-2.0952187E0,-1.05733685E-1,2.3451005E-1,-2.9560828E0,1.3211843E1,-9.711845E-1,-8.176685E0,1.7674694E0,-9.310163E-1,-3.2985098E0,9.2994857E-1,7.2602997E0,-3.405245E0,2.7846952E1,-7.741791E-1,2.7792774E1,-2.7914464E0,-6.8566215E-1,4.620789E0,-6.5608373E0,-5.8022374E-1,-6.311669E0,6.1095273E-1],"categories":[],"categories_nodes":[],"categories_segments":[],"categories_sizes":[],"default_left":[0,0,0,0,0,0,0,0,0,0,0,0,0,0,0,0,0,0,0,0,0,0,0,0,0,0,0,0,0,0,0,0,0,0,0,0,0,0,0,0,0,0,0,0,0,0,0,0,0,0,0,0,0,0,0,0,0,0,0,0,0,0,0,0,0,0,0,0,0,0,0,0,0,0,0,0,0,0,0,0,0,0,0,0,0,0,0],"id":23,"left_children":[1,3,5,7,9,11,13,15,17,19,21,23,25,27,29,31,33,35,37,-1,-1,39,-1,41,43,45,47,49,51,53,55,57,-1,59,61,63,-1,-1,-1,-1,65,67,-1,69,71,-1,-1,-1,73,75,77,-1,79,81,83,-1,85,-1,-1,-1,-1,-1,-1,-1,-1,-1,-1,-1,-1,-1,-1,-1,-1,-1,-1,-1,-1,-1,-1,-1,-1,-1,-1,-1,-1,-1,-1],"loss_changes":[9.849919E2,1.4794579E3,5.898774E2,3.6133162E3,9.510685E2,2.5446392E3,1.9532964E3,2.1014131E2,4.585812E3,3.4015466E2,1.500752E2,2.8124172E3,6.3511084E3,7.776325E3,7.4206146E2,5.125968E2,1.7743562E2,4.2937527E1,1.9585645E2,0E0,0E0,2.446704E0,0E0,4.103384E4,1.3835232E3,3.3913086E2,2.9998838E3,1.810188E4,3.8812083E3,2.3882983E3,7.481883E3,2.958727E2,0E0,1.6147766E0,4.254414E1,1.7454303E2,0E0,0E0,0E0,0E0,1.2248667E0,9.827957E3,0E0,1.3107815E3,1.2292194E3,0E0,0E0,0E0,6.785456E2,6.233725E3,7.6674297E3,0E0,1.859634E4,1.7961932E3,1.3804519E3,0E0,1.7714978E3,0E0,0E0,0E0,0E0,0E0,0E0,0E0,0E0,0E0,0E0,0E0,0E0,0E0,0E0,0E0,0E0,0E0,0E0,0E0,0E0,0E0,0E0,0E0,0E0,0E0,0E0,0E0,0E0,0E0,0E0],"parents":[2147483647,0,0,1,1,2,2,3,3,4,4,5,5,6,6,7,7,8,8,9,9,10,10,11,11,12,12,13,13,14,14,15,15,16,16,17,17,18,18,21,21,23,23,24,24,25,25,26,26,27,27,28,28,29,29,30,30,31,31,33,33,34,34,35,35,40,40,41,41,43,43,44,44,48,48,49,49,50,50,52,52,53,53,54,54,56,56],"right_children":[2,4,6,8,10,12,14,16,18,20,22,24,26,28,30,32,34,36,38,-1,-1,40,-1,42,44,46,48,50,52,54,56,58,-1,60,62,64,-1,-1,-1,-1,66,68,-1,70,72,-1,-1,-1,74,76,78,-1,80,82,84,-1,86,-1,-1,-1,-1,-1,-1,-1,-1,-1,-1,-1,-1,-1,-1,-1,-1,-1,-1,-1,-1,-1,-1,-1,-1,-1,-1,-1,-1,-1,-1],"split_conditions":[3.2E1,1.6E1,1.6E1,1.3E1,1.9E1,1.4E1,1.9E1,2.9E1,2.2E1,2.2E1,2.4E1,5.6E1,6.5E1,8.4E1,9.2E1,2.7E1,3.1E1,2E1,1.4E1,-1.1208664E0,-6.134104E0,1.5E1,3.8697398E0,5.5E1,6.3E1,4.2E1,6.6E1,7.8E1,8.9E1,7.5E1,9.4E1,2.6E1,-4.7437363E0,1E0,3E0,1.3E1,1.5774645E0,4.4500856E0,1.7635817E1,6.096703E-1,2.3E1,1.3E1,4.421956E1,1E1,7.8E1,-2.3843904E0,-1.1759804E1,1.1208884E1,1.5E1,6.4E1,1E0,-8.399457E0,9.1E1,6.8E1,8.3E1,1.8577484E1,1E2,-4.7979537E-1,3.0301454E0,1.5548803E0,3.7487001E0,9.674607E-1,-8.2211405E-1,1.8703492E0,-2.0952187E0,-1.05733685E-1,2.3451005E-1,-2.9560828E0,1.3211843E1,-9.711845E-1,-8.176685E0,1.7674694E0,-9.310163E-1,-3.2985098E0,9.2994857E-1,7.2602997E0,-3.405245E0,2.7846952E1,-7.741791E-1,2.7792774E1,-2.7914464E0,-6.8566215E-1,4.620789E0,-6.5608373E0,-5.8022374E-1,-6.311669E0,6.1095273E-1],"split_indices":[0,2,2,2,2,2,2,0,0,0,0,0,0,0,0,0,0,0,2,0,0,0,0,0,0,0,0,0,0,0,0,0,0,2,2,0,0,0,0,0,0,2,0,2,0,0,0,0,2,0,1,0,0,0,0,0,0,0,0,0,0,0,0,0,0,0,0,0,0,0,0,0,0,0,0,0,0,0,0,0,0,0,0,0,0,0,0],"split_type":[0,0,0,0,0,0,0,0,0,0,0,0,0,0,0,0,0,0,0,0,0,0,0,0,0,0,0,0,0,0,0,0,0,0,0,0,0,0,0,0,0,0,0,0,0,0,0,0,0,0,0,0,0,0,0,0,0,0,0,0,0,0,0,0,0,0,0,0,0,0,0,0,0,0,0,0,0,0,0,0,0,0,0,0,0,0,0],"sum_hessian":[2.78E2,3.3E1,2.45E2,2.4E1,9E0,1.27E2,1.18E2,1.7E1,7E0,5E0,4E0,1.08E2,1.9E1,4.4E1,7.4E1,1E1,7E0,4E0,3E0,3E0,2E0,3E0,1E0,2.5E1,8.3E1,6E0,1.3E1,2.2E1,2.2E1,5.1E1,2.3E1,9E0,1E0,4E0,3E0,2E0,2E0,1E0,2E0,1E0,2E0,2.4E1,1E0,9E0,7.4E1,1E0,5E0,1E0,1.2E1,1.8E1,4E0,5E0,1.7E1,3.7E1,1.4E1,1E0,2.2E1,7E0,2E0,3E0,1E0,1E0,2E0,1E0,1E0,1E0,1E0,2.1E1,3E0,6E0,3E0,2E1,5.4E1,6E0,6E0,8E0,1E1,3E0,1E0,1E0,1.6E1,3.1E1,6E0,8E0,6E0,3E0,1.9E1],"tree_param":{"num_deleted":"0","num_feature":"3","num_nodes":"87","size_leaf_vector":"1"}},{"base_weights":[1.1186033E0,4.5398563E-1,5.1969175E0,1.1636828E0,-1.6137478E0,1.0333946E1,-7.543731E-1,5.128719E-1,1.5092008E1,-1.1369457E1,2.324397E0,4.01185E0,1.5716594E1,-2.5455384E0,4.7699976E0,1.1730628E0,-1.8057951E1,1.9015983E0,3.6442158E1,5.349312E0,-1.4136019E1,1.9183054E1,-1.2859621E0,6.967241E0,3.8781738E-1,2.3915018E1,1.0954819E0,1.250459E0,-8.447944E0,6.115462E0,-4.2299395E0,4.3808013E-1,2.094458E1,-6.1805873E0,-8.006879E-1,-1.5506879E0,4.3495016E0,1.579086E1,6.08111E-1,-5.9618907E0,-6.2218432E0,3.885547E1,-3.9149016E-1,-6.015008E0,4.3027E0,3.4951262E0,3.649172E0,-1.2453753E0,2.1258812E0,9.638138E-1,4.0887466E1,-7.487395E-1,2.3190904E0,-1.5154253E0,4.3194284E0,-1.0214044E0,-1.0118405E1,-4.354706E-1,-1.8847579E0,3.8351414E-1,-2.8068087E0,-1.9094944E0,2.362386E1,-1.9068356E-1,2.3654344E0,-3.1995754E0,4.749748E0,3.2103097E0,1.8497818E1,1.7319947E-1,-6.4001656E-1,-3.1803224E0,4.8378124E0,1.10257845E1,-6.151732E-1,1.5855225E0,1.6204071E-1,1.3930355E0,-3.3009493E-1,-5.6213075E-1,1.4214845E0,1.4999164E1,2.0337343E0,1.6933823E-1,-1.7872285E0,2.1837635E0,-1.1279554E0,-3.6086607E0,-6.5805244E-1],"categories":[],"categories_nodes":[],"categories_segments":[],"categories_sizes":[],"default_left":[0,0,0,0,0,0,0,0,0,0,0,0,0,0,0,0,0,0,0,0,0,0,0,0,0,0,0,0,0,0,0,0,0,0,0,0,0,0,0,0,0,0,0,0,0,0,0,0,0,0,0,0,0,0,0,0,0,0,0,0,0,0,0,0,0,0,0,0,0,0,0,0,0,0,0,0,0,0,0,0,0,0,0,0,0,0,0,0,0],"id":24,"left_children":[1,3,5,7,9,11,13,15,17,19,21,23,25,27,29,31,33,35,37,-1,39,41,43,45,47,49,51,53,55,-1,57,59,61,-1,-1,-1,63,-1,-1,65,-1,67,69,71,73,75,-1,-1,77,79,81,-1,-1,83,85,-1,87,-1,-1,-1,-1,-1,-1,-1,-1,-1,-1,-1,-1,-1,-1,-1,-1,-1,-1,-1,-1,-1,-1,-1,-1,-1,-1,-1,-1,-1,-1,-1,-1],"loss_changes":[7.538757E2,3.5553687E2,1.2001019E3,1.6239067E3,2.40843E3,6.5156934E2,2.0014838E2,2.1422126E3,2.1836394E3,1.706189E3,2.7636301E3,1.1511275E2,1.2923723E3,3.4664655E2,7.8889124E2,2.4321536E3,1.7991223E2,1.2633067E2,1.5652644E3,0E0,7.9397144E2,3.0958398E3,1.0301843E3,6.574609E1,5.616021E1,2.6873591E3,1.3843074E2,9.142992E1,1.6097504E1,0E0,1.3691872E1,1.3534493E3,9.9724375E3,0E0,0E0,0E0,9.313051E1,0E0,0E0,1.091419E3,0E0,1.9083076E3,9.669618E0,2.3033003E3,3.786304E3,2.3591747E1,0E0,0E0,4.572016E1,5.1719902E1,9.03937E2,0E0,0E0,5.879589E1,1.469333E2,0E0,3.4175476E1,0E0,0E0,0E0,0E0,0E0,0E0,0E0,0E0,0E0,0E0,0E0,0E0,0E0,0E0,0E0,0E0,0E0,0E0,0E0,0E0,0E0,0E0,0E0,0E0,0E0,0E0,0E0,0E0,0E0,0E0,0E0,0E0],"parents":[2147483647,0,0,1,1,2,2,3,3,4,4,5,5,6,6,7,7,8,8,9,9,10,10,11,11,12,12,13,13,14,14,15,15,16,16,17,17,18,18,20,20,21,21,22,22,23,23,24,24,25,25,26,26,27,27,28,28,30,30,31,31,32,32,36,36,39,39,41,41,42,42,43,43,44,44,45,45,48,48,49,49,50,50,53,53,54,54,56,56],"right_children":[2,4,6,8,10,12,14,16,18,20,22,24,26,28,30,32,34,36,38,-1,40,42,44,46,48,50,52,54,56,-1,58,60,62,-1,-1,-1,64,-1,-1,66,-1,68,70,72,74,76,-1,-1,78,80,82,-1,-1,84,86,-1,88,-1,-1,-1,-1,-1,-1,-1,-1,-1,-1,-1,-1,-1,-1,-1,-1,-1,-1,-1,-1,-1,-1,-1,-1,-1,-1,-1,-1,-1,-1,-1,-1],"split_conditions":[1E0,9.7E1,1.7E1,9.3E1,1.02E2,1.3E1,8.3E1,9.1E1,1.7E1,2E0,1.05E2,4.1E1,7.1E1,4.5E1,1.01E2,9E1,9.2E1,2E0,9.4E1,5.349312E0,1.6E1,1.1E1,1.37E2,3.6E1,4.3E1,2.2E1,8.6E1,3.6E1,5.5E1,6.115462E0,1.07E2,8.6E1,1.4E1,-6.1805873E0,-8.006879E-1,-1.5506879E0,9.4E1,1.579086E1,6.08111E-1,1.4E1,-6.2218432E0,1.03E2,1.04E2,2.1E1,1.4E2,2.7E1,3.649172E0,-1.2453753E0,8E0,1.7E1,6.6E1,-7.487395E-1,2.3190904E0,3.4E1,2.2E1,-1.0214044E0,8.2E1,-4.354706E-1,-1.8847579E0,3.8351414E-1,-2.8068087E0,-1.9094944E0,2.362386E1,-1.9068356E-1,2.3654344E0,-3.1995754E0,4.749748E0,3.2103097E0,1.8497818E1,1.7319947E-1,-6.4001656E-1,-3.1803224E0,4.8378124E0,1.10257845E1,-6.151732E-1,1.5855225E0,1.6204071E-1,1.3930355E0,-3.3009493E-1,-5.6213075E-1,1.4214845E0,1.4999164E1,2.0337343E0,1.6933823E-1,-1.7872285E0,2.1837635E0,-1.1279554E0,-3.6086607E0,-6.5805244E-1],"split_indices":[1,0,2,0,0,2,0,0,2,2,0,0,0,0,0,0,0,2,0,0,2,2,0,0,0,0,0,0,0,0,0,0,2,0,0,0,0,0,0,2,0,0,0,2,0,0,0,0,2,0,0,0,0,0,2,0,0,0,0,0,0,0,0,0,0,0,0,0,0,0,0,0,0,0,0,0,0,0,0,0,0,0,0,0,0,0,0,0,0],"split_type":[0,0,0,0,0,0,0,0,0,0,0,0,0,0,0,0,0,0,0,0,0,0,0,0,0,0,0,0,0,0,0,0,0,0,0,0,0,0,0,0,0,0,0,0,0,0,0,0,0,0,0,0,0,0,0,0,0,0,0,0,0,0,0,0,0,0,0,0,0,0,0,0,0,0,0,0,0,0,0,0,0,0,0,0,0,0,0,0,0],"sum_hessian":[2.78E2,2.4E2,3.8E1,1.79E2,6.1E1,2E1,1.8E1,1.72E2,7E0,1.7E1,4.4E1,1E1,1E1,1.4E1,4E0,1.67E2,5E0,5E0,2E0,1E0,1.6E1,7E0,3.7E1,5E0,5E0,6E0,4E0,9E0,5E0,1E0,3E0,1.62E2,5E0,4E0,1E0,1E0,4E0,1E0,1E0,8E0,8E0,3E0,4E0,2E1,1.7E1,4E0,1E0,1E0,4E0,3E0,3E0,3E0,1E0,5E0,4E0,2E0,3E0,2E0,1E0,1.5E2,1.2E1,4E0,1E0,2E0,2E0,7E0,1E0,2E0,1E0,3E0,1E0,1.7E1,3E0,2E0,1.5E1,2E0,2E0,2E0,2E0,2E0,1E0,2E0,1E0,4E0,1E0,3E0,1E0,2E0,1E0],"tree_param":{"num_deleted":"0","num_feature":"3","num_nodes":"89","size_leaf_vector":"1"}},{"base_weights":[1.0910586E0,3.86708E0,5.120065E-1,1.8823925E0,3.300993E1,-1.4645625E1,9.7922516E-1,5.819353E0,-4.0185175E0,2.786728E0,1.206774E1,4.0845814E0,-2.9714426E1,1.6171635E1,7.0232445E-1,-8.344329E-1,1.7879612E1,-8.737229E0,1.1020463E0,-1.4467722E0,3.1017964E0,-1.0251896E1,-2.450813E0,-3.583171E1,2.5827251E1,-1.9394642E1,1.1579523E0,1.7698303E0,-8.480336E0,1.2332102E0,3.427937E1,-1.3076754E1,1.0412464E0,-1.5599661E0,7.833397E0,-9.7744906E-1,3.2640153E-1,-1.404001E1,-2.08426E0,1.4909999E-1,-9.742051E0,7.09383E0,4.5905316E-1,-9.3520164E-1,1.1491132E0,3.6383057E-1,-4.6039987E0,1.5322725E0,-1.6895324E-1,4.569275E0,1.2570411E1,-5.431328E0,-1.4339682E0,2.4616303E0,-3.0676978E0,-1.0080431E-1,-1.5191443E0,4.483791E0,-9.58762E-1,1.1256638E0,-1.0585688E0,6.694575E-1,1.1629606E1,-6.565664E0,3.464793E-1],"categories":[],"categories_nodes":[],"categories_segments":[],"categories_sizes":[],"default_left":[0,0,0,0,0,0,0,0,0,0,0,0,0,0,0,0,0,0,0,0,0,0,0,0,0,0,0,0,0,0,0,0,0,0,0,0,0,0,0,0,0,0,0,0,0,0,0,0,0,0,0,0,0,0,0,0,0,0,0,0,0,0,0,0,0],"id":25,"left_children":[1,3,5,7,9,11,13,15,17,-1,-1,19,21,23,25,27,29,31,33,35,-1,-1,-1,37,-1,39,41,43,45,47,49,51,53,55,57,-1,-1,-1,-1,59,-1,61,63,-1,-1,-1,-1,-1,-1,-1,-1,-1,-1,-1,-1,