{"learner":{"attributes":{"scikit_learn":"{\"_estimator_type\": \"regressor\"}"},"feature_names":["title_len","has_media","hour"],"feature_types":["int","int","int"],"gradient_booster":{"model":{"cats":{"enc":[],"feature_segments":[],"sorted_idx":[]},"gbtree_model_param":{"num_parallel_tree":"1","num_trees":"50"},"iteration_indptr":[0,1,2,3,4,5,6,7,8,9,10,11,12,13,14,15,16,17,18,19,20,21,22,23,24,25,26,27,28,29,30,31,32,33,34,35,36,37,38,39,40,41,42,43,44,45,46,47,48,49,50],"tree_info":[0,0,0,0,0,0,0,0,0,0,0,0,0,0,0,0,0,0,0,0,0,0,0,0,0,0,0,0,0,0,0,0,0,0,0,0,0,0,0,0,0,0,0,0,0,0,0,0,0,0],"trees":[{"base_weights":[-8.518089E-1,3.9451767E2,-3.1486153E1,1.4975397E2,8.626516E2,-4.546335E1,7.0696754E1,5.444515E1,5.0713223E1,1.2402749E3,-1.6281296E1,3.1193695E1,-6.0110916E1,1.24141235E2,-1.7127055E0,-1.1604314E1,3.788903E1,6.3729023E1,6.0101874E2,-4.7441383E1,8.795903E1,-2.5517756E1,-5.0833275E1,4.6620625E1,3.3187482E2,2.6448664E1,-1.8997553E1,-1.5510971E1,1.028903E1,1.4390293E0,2.723903E1,1.4695148E1,-6.1806007E1,2.1793417E2,-1.1163152E1,-1.7457876E1,-5.9100533E1,1.2389433E2,-3.648066E1,1.27018715E2,3.891871E1,-3.1658235E0,4.8389034E1,6.8187065E0,-1.4109707E0,-2.377506E1,-7.6016173E0,2.0422447E1,9.194838E1,-1.423678E1,4.1318707E1,3.484838E1,-1.4286482E1,-2.1971443E1,-1.504139E1,5.766908E0,1.2848903E2,-1.8233093E1,2.0039032E1,1.2142447E1,-1.1701618E1],"categories":[],"categories_nodes":[],"categories_segments":[],"categories_sizes":[],"default_left":[0,0,0,0,0,0,0,0,0,0,0,0,0,0,0,0,0,0,0,0,0,0,0,0,0,0,0,0,0,0,0,0,0,0,0,0,0,0,0,0,0,0,0,0,0,0,0,0,0,0,0,0,0,0,0,0,0,0,0,0,0],"id":0,"left_children":[1,3,5,7,9,11,13,15,-1,17,-1,19,21,23,25,27,-1,29,-1,31,33,-1,35,37,39,41,-1,-1,-1,-1,-1,43,45,47,49,51,53,55,57,-1,-1,59,-1,-1,-1,-1,-1,-1,-1,-1,-1,-1,-1,-1,-1,-1,-1,-1,-1,-1,-1],"loss_changes":[3.5369802E6,2.2770405E6,3.9026462E5,1.8374156E4,2.49107E6,2.702337E5,1.27918875E5,2.0448633E4,0E0,4.361559E6,0E0,1.78259E5,4.2199812E4,2.9049684E5,2.770124E4,7.295005E3,0E0,4.349959E3,0E0,1.6081902E4,2.987515E5,0E0,4.008078E4,1.00842914E5,3.7576062E4,4.4438664E4,0E0,0E0,0E0,0E0,0E0,7.302766E2,6.8978906E3,1.118515E5,8.218801E4,1.30475805E5,1.1406375E4,2.4666445E5,2.4133795E4,0E0,0E0,1.7219357E4,0E0,0E0,0E0,0E0,0E0,0E0,0E0,0E0,0E0,0E0,0E0,0E0,0E0,0E0,0E0,0E0,0E0,0E0,0E0],"parents":[2147483647,0,0,1,1,2,2,3,3,4,4,5,5,6,6,7,7,9,9,11,11,12,12,13,13,14,14,15,15,17,17,19,19,20,20,22,22,23,23,24,24,25,25,31,31,32,32,33,33,34,34,35,35,36,36,37,37,38,38,41,41],"right_children":[2,4,6,8,10,12,14,16,-1,18,-1,20,22,24,26,28,-1,30,-1,32,34,-1,36,38,40,42,-1,-1,-1,-1,-1,44,46,48,50,52,54,56,58,-1,-1,60,-1,-1,-1,-1,-1,-1,-1,-1,-1,-1,-1,-1,-1,-1,-1,-1,-1,-1,-1],"split_conditions":[2.5E1,2.2E1,1E0,1.3E1,1.5E1,4.5E1,1.7E1,1.7E1,5.0713223E1,1.1E1,-1.6281296E1,1.2E1,1E1,1.5E1,1.01E2,1E0,3.788903E1,2.3E1,6.0101874E2,1E0,1.6E1,-2.5517756E1,6.4E1,4.8E1,1.6E1,8.3E1,-1.8997553E1,-1.5510971E1,1.028903E1,1.4390293E0,2.723903E1,3E1,1.1E1,1.3E1,4.1E1,1.3E1,1.6E1,4.4E1,8.6E1,1.27018715E2,3.891871E1,1.9E1,4.8389034E1,6.8187065E0,-1.4109707E0,-2.377506E1,-7.6016173E0,2.0422447E1,9.194838E1,-1.423678E1,4.1318707E1,3.484838E1,-1.4286482E1,-2.1971443E1,-1.504139E1,5.766908E0,1.2848903E2,-1.8233093E1,2.0039032E1,1.2142447E1,-1.1701618E1],"split_indices":[0,0,1,2,2,0,2,0,0,2,0,2,2,2,0,1,0,0,0,2,2,0,0,0,2,0,0,0,0,0,0,0,2,2,0,2,2,0,0,0,0,2,0,0,0,0,0,0,0,0,0,0,0,0,0,0,0,0,0,0,0],"split_type":[0,0,0,0,0,0,0,0,0,0,0,0,0,0,0,0,0,0,0,0,0,0,0,0,0,0,0,0,0,0,0,0,0,0,0,0,0,0,0,0,0,0,0,0,0,0,0,0,0,0,0,0,0,0,0,0,0,0,0,0,0],"sum_hessian":[2.9E2,2E1,2.7E2,1.4E1,6E0,2.38E2,3.2E1,3E0,1.1E1,4E0,2E0,3.8E1,2E2,1.8E1,1.4E1,2E0,1E0,2E0,2E0,1.6E1,2.2E1,5.2E1,1.48E2,1.4E1,4E0,1E1,4E0,1E0,1E0,1E0,1E0,3E0,1.3E1,9E0,1.3E1,3E1,1.18E2,7E0,7E0,2E0,2E0,9E0,1E0,2E0,1E0,8E0,5E0,4E0,5E0,1.1E1,2E0,5E0,2.5E1,4.3E1,7.5E1,6E0,1E0,6E0,1E0,4E0,5E0],"tree_param":{"num_deleted":"0","num_feature":"3","num_nodes":"61","size_leaf_vector":"1"}},{"base_weights":[3.1842911E0,3.093431E2,-2.0551943E1,1.1038646E2,6.914869E2,-3.1525118E1,5.9543232E1,5.8776066E1,8.215664E1,1.9979172E2,1.2804832E3,2.4745428E1,-4.228644E1,1.02793564E2,7.899262E-1,3.470432E1,1.1787229E2,2.3845955E1,1.3553622E2,5.856862E2,-9.468777E0,-3.4736553E1,6.763448E1,-5.843199E1,-3.396023E1,4.170523E1,2.6549985E2,2.2953142E1,-1.4438142E1,-1.3184325E1,5.5137623E1,5.2658485E1,5.9704247E1,2.3153175E1,-1.965689E1,1.1638538E1,-4.5505398E1,1.63791E2,-5.8797827E0,-6.475949E1,-3.903834E1,-2.6470442E0,-4.2129597E1,1.03508026E2,-2.531072E1,1.16936226E2,4.1094334E1,-2.1719925E0,4.1130676E1,3.3418484E1,-2.5193024E-1,-1.4117954E1,2.944807E1,1.2231755E0,-1.0068777E1,5.4549656E0,-1.1993248E0,-1.7435043E1,-5.701214E0,1.552106E1,6.896129E1,-1.0321666E1,3.3054966E1,-1.2130722E1,-2.1466625E1,-1.5397572E1,-1.1587571E0,6.0317657E1,-1.0165382E1,-1.8212572E1,-1.0895934E1,4.283989E0,1.09215675E2,-1.3544583E1,1.7033176E1,9.22826E0,-8.776213E0],"categories":[],"categories_nodes":[],"categories_segments":[],"categories_sizes":[],"default_left":[0,0,0,0,0,0,0,0,0,0,0,0,0,0,0,0,0,0,0,0,0,0,0,0,0,0,0,0,0,0,0,0,0,0,0,0,0,0,0,0,0,0,0,0,0,0,0,0,0,0,0,0,0,0,0,0,0,0,0,0,0,0,0,0,0,0,0,0,0,0,0,0,0,0,0,0,0],"id":1,"left_children":[1,3,5,7,9,11,13,-1,15,17,19,21,23,25,27,29,31,33,-1,-1,-1,35,37,39,41,43,45,47,-1,-1,49,-1,51,-1,53,55,57,59,61,63,65,67,69,71,73,-1,-1,75,-1,-1,-1,-1,-1,-1,-1,-1,-1,-1,-1,-1,-1,-1,-1,-1,-1,-1,-1,-1,-1,-1,-1,-1,-1,-1,-1,-1,-1],"loss_changes":[2.121071E6,1.5202998E6,2.4005858E5,2.0122875E4,1.7714165E6,1.4577178E5,8.37751E4,0E0,1.7941602E4,2.1091456E5,2.705933E6,1.018433E5,2.5036312E4,1.7777695E5,1.7367062E4,1.3673024E4,1.2996367E4,1.0797315E4,0E0,0E0,0E0,9.019521E3,1.6354722E5,5.6936875E3,3.442267E4,6.4746465E4,2.6472906E4,3.1845916E4,0E0,0E0,1.8988371E4,0E0,2.5147998E4,0E0,1.1269625E3,4.8202985E2,3.5746172E3,6.21525E4,5.0141926E4,5.2064062E3,8.013584E3,1.9134778E5,9.344734E3,1.8078417E5,1.5591031E4,0E0,0E0,9.818771E3,0E0,0E0,0E0,0E0,0E0,0E0,0E0,0E0,0E0,0E0,0E0,0E0,0E0,0E0,0E0,0E0,0E0,0E0,0E0,0E0,0E0,0E0,0E0,0E0,0E0,0E0,0E0,0E0,0E0],"parents":[2147483647,0,0,1,1,2,2,3,3,4,4,5,5,6,6,8,8,9,9,10,10,11,11,12,12,13,13,14,14,15,15,16,16,17,17,21,21,22,22,23,23,24,24,25,25,26,26,27,27,30,30,32,32,34,34,35,35,36,36,37,37,38,38,39,39,40,40,41,41,42,42,43,43,44,44,47,47],"right_children":[2,4,6,8,10,12,14,-1,16,18,20,22,24,26,28,30,32,34,-1,-1,-1,36,38,40,42,44,46,48,-1,-1,50,-1,52,-1,54,56,58,60,62,64,66,68,70,72,74,-1,-1,76,-1,-1,-1,-1,-1,-1,-1,-1,-1,-1,-1,-1,-1,-1,-1,-1,-1,-1,-1,-1,-1,-1,-1,-1,-1,-1,-1,-1,-1],"split_conditions":[2.5E1,2.2E1,1E0,1.3E1,1E0,4.5E1,1.7E1,5.8776066E1,1.7E1,2.4E1,1.5E1,1.2E1,1.2E1,1.5E1,1.01E2,1.2E1,1.9E1,3E0,1.3553622E2,5.856862E2,-9.468777E0,1E0,1.6E1,1.02E2,6.4E1,4.8E1,6.6E1,8.3E1,-1.4438142E1,-1.3184325E1,1.4E1,5.2658485E1,2E1,2.3153175E1,2.3E1,3E1,1.1E1,1.3E1,4.1E1,2E0,1E1,1.3E1,1.5E1,4.4E1,8.6E1,1.16936226E2,4.1094334E1,1.9E1,4.1130676E1,3.3418484E1,-2.5193024E-1,-1.4117954E1,2.944807E1,1.2231755E0,-1.0068777E1,5.4549656E0,-1.1993248E0,-1.7435043E1,-5.701214E0,1.552106E1,6.896129E1,-1.0321666E1,3.3054966E1,-1.2130722E1,-2.1466625E1,-1.5397572E1,-1.1587571E0,6.0317657E1,-1.0165382E1,-1.8212572E1,-1.0895934E1,4.283989E0,1.09215675E2,-1.3544583E1,1.7033176E1,9.22826E0,-8.776213E0],"split_indices":[0,0,1,0,1,0,2,0,0,0,2,2,2,2,0,2,0,2,0,0,0,2,2,0,0,0,0,0,0,0,2,0,0,0,0,0,2,2,0,2,2,2,2,0,0,0,0,2,0,0,0,0,0,0,0,0,0,0,0,0,0,0,0,0,0,0,0,0,0,0,0,0,0,0,0,0,0],"split_type":[0,0,0,0,0,0,0,0,0,0,0,0,0,0,0,0,0,0,0,0,0,0,0,0,0,0,0,0,0,0,0,0,0,0,0,0,0,0,0,0,0,0,0,0,0,0,0,0,0,0,0,0,0,0,0,0,0,0,0,0,0,0,0,0,0,0,0,0,0,0,0,0,0,0,0,0,0],"sum_hessian":[2.9E2,2E1,2.7E2,1.4E1,6E0,2.38E2,3.2E1,2E0,1.2E1,4E0,2E0,3.8E1,2E2,1.8E1,1.4E1,6E0,6E0,3E0,1E0,1E0,1E0,1.6E1,2.2E1,6.6E1,1.34E2,1.4E1,4E0,1E1,4E0,1E0,5E0,2E0,4E0,1E0,2E0,3E0,1.3E1,9E0,1.3E1,4.8E1,1.8E1,2.8E1,1.06E2,7E0,7E0,1E0,3E0,9E0,1E0,2E0,3E0,1E0,3E0,1E0,1E0,2E0,1E0,8E0,5E0,4E0,5E0,1.1E1,2E0,1.2E1,3.6E1,1.3E1,5E0,3E0,2.5E1,2.3E1,8.3E1,6E0,1E0,6E0,1E0,4E0,5E0],"tree_param":{"num_deleted":"0","num_feature":"3","num_nodes":"77","size_leaf_vector":"1"}},{"base_weights":[6.4702306E0,2.5810248E2,-1.3052822E1,8.705364E1,5.8776385E2,-2.1819777E1,5.0836727E1,4.702085E1,6.427663E1,1.6982297E2,1.0884108E3,1.9586798E1,-2.9745333E1,8.643017E1,2.3625884E0,2.7147623E1,9.222326E1,2.0269064E1,1.1520579E2,4.978333E2,-8.048461E0,-2.542621E1,5.200568E1,-6.2039757E1,-2.5834127E1,3.6992878E1,2.17456E2,1.984745E1,-1.0972987E1,6.1431572E1,-1.3923231E1,3.286913E1,3.8556473E1,1.9680199E1,-1.6708357E1,9.210884E0,-3.3506367E1,1.6642397E2,1.8331115E0,-7.3169075E1,-1.1721228E1,2.0687958E2,-3.0918512E1,8.6643074E1,-1.7281427E1,9.939579E1,3.184811E1,-1.4751877E0,3.4961075E1,3.6369274E1,3.2644656E-1,-1.12066765E1,1.9018251E0,2.4306904E1,-3.0569506E0,1.0396992E0,-8.55846E0,4.363971E0,-1.019426E0,-1.3176426E1,-3.6898189E0,1.1796006E1,9.683677E1,8.245184E0,-3.810963E1,-1.2322318E1,-2.6428188E1,1.4181413E2,-1.1790921E1,-1.2286334E1,-5.760082E0,3.1823914E0,9.283332E1,-1.0061689E1,1.44782E1,7.0134783E0,-6.582159E0],"categories":[],"categories_nodes":[],"categories_segments":[],"categories_sizes":[],"default_left":[0,0,0,0,0,0,0,0,0,0,0,0,0,0,0,0,0,0,0,0,0,0,0,0,0,0,0,0,0,0,0,0,0,0,0,0,0,0,0,0,0,0,0,0,0,0,0,0,0,0,0,0,0,0,0,0,0,0,0,0,0,0,0,0,0,0,0,0,0,0,0,0,0,0,0,0,0],"id":2,"left_children":[1,3,5,7,9,11,13,-1,15,17,19,21,23,25,27,29,31,33,-1,-1,-1,35,37,39,41,43,45,47,-1,49,51,53,-1,-1,55,57,59,61,63,65,-1,67,69,71,73,-1,-1,75,-1,-1,-1,-1,-1,-1,-1,-1,-1,-1,-1,-1,-1,-1,-1,-1,-1,-1,-1,-1,-1,-1,-1,-1,-1,-1,-1,-1,-1],"loss_changes":[1.4329441E6,1.1329849E6,1.529009E5,1.373293E4,1.2798488E6,7.901527E4,5.6732727E4,0E0,1.0985551E4,1.5238577E5,1.9550365E6,5.82339E4,2.3785594E4,1.1502934E5,1.0938653E4,1.0711824E4,1.0856789E4,7.8010615E3,0E0,0E0,0E0,5.066465E3,1.3173008E5,2.5094453E3,2.2055672E5,4.1918266E4,2.8189453E4,2.2850332E4,0E0,1.4302067E4,2.136019E3,9.119436E3,0E0,0E0,8.142303E2,3.185405E2,2.551996E3,1.2643042E5,5.968485E4,2.6087188E3,0E0,2.8035412E5,2.0147094E4,1.3224319E5,1.0143037E4,0E0,0E0,5.5992744E3,0E0,0E0,0E0,0E0,0E0,0E0,0E0,0E0,0E0,0E0,0E0,0E0,0E0,0E0,0E0,0E0,0E0,0E0,0E0,0E0,0E0,0E0,0E0,0E0,0E0,0E0,0E0,0E0,0E0],"parents":[2147483647,0,0,1,1,2,2,3,3,4,4,5,5,6,6,8,8,9,9,10,10,11,11,12,12,13,13,14,14,15,15,16,16,17,17,21,21,22,22,23,23,24,24,25,25,26,26,27,27,29,29,30,30,31,31,34,34,35,35,36,36,37,37,38,38,39,39,41,41,42,42,43,43,44,44,47,47],"right_children":[2,4,6,8,10,12,14,-1,16,18,20,22,24,26,28,30,32,34,-1,-1,-1,36,38,40,42,44,46,48,-1,50,52,54,-1,-1,56,58,60,62,64,66,-1,68,70,72,74,-1,-1,76,-1,-1,-1,-1,-1,-1,-1,-1,-1,-1,-1,-1,-1,-1,-1,-1,-1,-1,-1,-1,-1,-1,-1,-1,-1,-1,-1,-1,-1],"split_conditions":[2.5E1,2.2E1,1E0,1.3E1,1E0,4.5E1,1.7E1,4.702085E1,1.7E1,2.4E1,1.5E1,1.2E1,5.5E1,1.5E1,1.01E2,1.5E1,1E0,3E0,1.1520579E2,4.978333E2,-8.048461E0,1E0,1.4E1,1.7E1,5.6E1,4.8E1,6.6E1,8.3E1,-1.0972987E1,1.4E1,1E0,1.9E1,3.8556473E1,1.9680199E1,2.3E1,3E1,3.6E1,1.3E1,4.2E1,1E1,-1.1721228E1,1.3E1,1.6E1,4.4E1,8.6E1,9.939579E1,3.184811E1,1.9E1,3.4961075E1,3.6369274E1,3.2644656E-1,-1.12066765E1,1.9018251E0,2.4306904E1,-3.0569506E0,1.0396992E0,-8.55846E0,4.363971E0,-1.019426E0,-1.3176426E1,-3.6898189E0,1.1796006E1,9.683677E1,8.245184E0,-3.810963E1,-1.2322318E1,-2.6428188E1,1.4181413E2,-1.1790921E1,-1.2286334E1,-5.760082E0,3.1823914E0,9.283332E1,-1.0061689E1,1.44782E1,7.0134783E0,-6.582159E0],"split_indices":[0,0,1,0,1,0,2,0,0,0,2,2,0,2,0,0,1,2,0,0,0,2,2,2,0,0,0,0,0,2,1,0,0,0,0,0,0,2,0,2,0,2,2,0,0,0,0,2,0,0,0,0,0,0,0,0,0,0,0,0,0,0,0,0,0,0,0,0,0,0,0,0,0,0,0,0,0],"split_type":[0,0,0,0,0,0,0,0,0,0,0,0,0,0,0,0,0,0,0,0,0,0,0,0,0,0,0,0,0,0,0,0,0,0,0,0,0,0,0,0,0,0,0,0,0,0,0,0,0,0,0,0,0,0,0,0,0,0,0,0,0,0,0,0,0,0,0,0,0,0,0,0,0,0,0,0,0],"sum_hessian":[2.9E2,2E1,2.7E2,1.4E1,6E0,2.38E2,3.2E1,2E0,1.2E1,4E0,2E0,3.8E1,2E2,1.8E1,1.4E1,6E0,6E0,3E0,1E0,1E0,1E0,1.6E1,2.2E1,2E1,1.8E2,1.4E1,4E0,1E1,4E0,3E0,3E0,3E0,3E0,1E0,2E0,3E0,1.3E1,6E0,1.6E1,1.2E1,8E0,3E0,1.77E2,7E0,7E0,1E0,3E0,9E0,1E0,1E0,2E0,1E0,2E0,1E0,2E0,1E0,1E0,2E0,1E0,8E0,5E0,4E0,2E0,1.4E1,2E0,5E0,7E0,1E0,2E0,9.4E1,8.3E1,6E0,1E0,6E0,1E0,4E0,5E0],"tree_param":{"num_deleted":"0","num_feature":"3","num_nodes":"77","size_leaf_vector":"1"}},{"base_weights":[8.426814E0,2.1645125E2,-7.724256E0,6.988543E1,4.9959924E2,-1.4743504E1,4.3346184E1,3.7616684E1,5.1701122E1,1.4434952E2,9.2514905E2,4.103085E0,-2.4074652E1,7.26946E1,3.2817733E0,2.2916317E1,7.310005E1,1.7228703E1,9.792492E1,4.231583E2,-6.8411913E0,-2.8037984E0,1.3603482E2,-2.091705E1,-4.109619E1,3.2590504E1,1.7846799E2,1.7110708E1,-2.7798237E1,5.217603E1,-1.2072475E1,3.5840446E1,3.0659184E1,1.6728168E1,-1.4202103E1,-3.3841488E1,1.1042652E1,1.7577794E2,2.520821E0,-2.7514261E1,-5.8553696E0,1.9936398E0,-1.3038256E1,6.0018055E1,-1.0280464E1,8.448642E1,2.4682283E1,-9.894966E-1,2.9716913E1,-9.149505E0,-2.5496693E0,2.5489834E1,-6.9291325E0,-9.525676E0,1.52146E0,-1.1541719E1,1.7268053E1,8.8374484E-1,-7.274691E0,-2.626237E0,-1.2515281E1,2.644045E1,-6.260417E0,7.4292507E0,7.167082E1,-1.1906346E1,-6.6291E0,2.3020194E0,-8.749426E0,-1.2120687E1,2.604685E1,3.084081E0,-9.213713E0],"categories":[],"categories_nodes":[],"categories_segments":[],"categories_sizes":[],"default_left":[0,0,0,0,0,0,0,0,0,0,0,0,0,0,0,0,0,0,0,0,0,0,0,0,0,0,0,0,0,0,0,0,0,0,0,0,0,0,0,0,0,0,0,0,0,0,0,0,0,0,0,0,0,0,0,0,0,0,0,0,0,0,0,0,0,0,0,0,0,0,0,0,0],"id":3,"left_children":[1,3,5,7,9,11,13,-1,15,17,19,21,23,25,27,29,31,33,-1,-1,-1,35,37,39,41,43,45,47,49,51,53,-1,55,-1,57,59,61,63,-1,65,67,-1,-1,69,-1,-1,-1,71,-1,-1,-1,-1,-1,-1,-1,-1,-1,-1,-1,-1,-1,-1,-1,-1,-1,-1,-1,-1,-1,-1,-1,-1,-1],"loss_changes":[9.7937875E5,8.365816E5,9.77861E4,8.656641E3,9.246905E5,4.212939E4,3.8563723E4,0E0,6.3323477E3,1.1009871E5,1.4125138E6,7.328038E4,7.739961E3,7.47806E4,6.922698E3,7.796228E3,1.011252E4,5.6362666E3,0E0,0E0,0E0,3.3465355E4,1.8812977E4,1.3451914E4,2.9982383E3,2.9563273E4,2.6443344E4,1.6413582E4,1.3493652E0,1.1835321E4,1.5105936E3,0E0,1.151302E4,0E0,5.882817E2,4.3769824E3,1.3468277E5,2.2681914E4,0E0,5.3880156E3,1.3783722E4,0E0,0E0,3.311703E4,0E0,0E0,0E0,3.6654302E3,0E0,0E0,0E0,0E0,0E0,0E0,0E0,0E0,0E0,0E0,0E0,0E0,0E0,0E0,0E0,0E0,0E0,0E0,0E0,0E0,0E0,0E0,0E0,0E0,0E0],"parents":[2147483647,0,0,1,1,2,2,3,3,4,4,5,5,6,6,8,8,9,9,10,10,11,11,12,12,13,13,14,14,15,15,16,16,17,17,21,21,22,22,23,23,24,24,25,25,26,26,27,27,28,28,29,29,30,30,32,32,34,34,35,35,36,36,37,37,39,39,40,40,43,43,47,47],"right_children":[2,4,6,8,10,12,14,-1,16,18,20,22,24,26,28,30,32,34,-1,-1,-1,36,38,40,42,44,46,48,50,52,54,-1,56,-1,58,60,62,64,-1,66,68,-1,-1,70,-1,-1,-1,72,-1,-1,-1,-1,-1,-1,-1,-1,-1,-1,-1,-1,-1,-1,-1,-1,-1,-1,-1,-1,-1,-1,-1,-1,-1],"split_conditions":[2.5E1,2.2E1,1E0,1.3E1,1E0,6.4E1,1.7E1,3.7616684E1,1.7E1,2.4E1,1.5E1,6.3E1,2.1E1,1.5E1,1.01E2,1.5E1,1.9E1,3E0,9.792492E1,4.231583E2,-6.8411913E0,1.1E1,1.7E1,1.7E1,6.6E1,1.1E1,6.6E1,8.3E1,1.12E2,1E0,1E0,3.5840446E1,2E1,1.6728168E1,2.3E1,2E0,1.4E1,2E0,2.520821E0,7.7E1,9.7E1,1.9936398E0,-1.3038256E1,2E0,-1.0280464E1,8.448642E1,2.4682283E1,6.3E1,2.9716913E1,-9.149505E0,-2.5496693E0,2.5489834E1,-6.9291325E0,-9.525676E0,1.52146E0,-1.1541719E1,1.7268053E1,8.8374484E-1,-7.274691E0,-2.626237E0,-1.2515281E1,2.644045E1,-6.260417E0,7.4292507E0,7.167082E1,-1.1906346E1,-6.6291E0,2.3020194E0,-8.749426E0,-1.2120687E1,2.604685E1,3.084081E0,-9.213713E0],"split_indices":[0,0,1,0,1,0,2,0,0,0,2,0,2,2,0,0,0,2,0,0,0,2,2,2,0,2,0,0,0,1,1,0,0,0,0,2,2,2,0,0,0,0,0,2,0,0,0,0,0,0,0,0,0,0,0,0,0,0,0,0,0,0,0,0,0,0,0,0,0,0,0,0,0],"split_type":[0,0,0,0,0,0,0,0,0,0,0,0,0,0,0,0,0,0,0,0,0,0,0,0,0,0,0,0,0,0,0,0,0,0,0,0,0,0,0,0,0,0,0,0,0,0,0,0,0,0,0,0,0,0,0,0,0,0,0,0,0,0,0,0,0,0,0,0,0,0,0,0,0],"sum_hessian":[2.9E2,2E1,2.7E2,1.4E1,6E0,2.38E2,3.2E1,2E0,1.2E1,4E0,2E0,7.9E1,1.59E2,1.8E1,1.4E1,6E0,6E0,3E0,1E0,1E0,1E0,7.6E1,3E0,1.36E2,2.3E1,1.4E1,4E0,1E1,4E0,3E0,3E0,2E0,4E0,1E0,2E0,2.3E1,5.3E1,2E0,1E0,9.4E1,4.2E1,1E0,2.2E1,1E1,4E0,1E0,3E0,9E0,1E0,3E0,1E0,2E0,1E0,1E0,2E0,1E0,3E0,1E0,1E0,6E0,1.7E1,1.5E1,3.8E1,1E0,1E0,2.7E1,6.7E1,2.7E1,1.5E1,2E0,8E0,7E0,2E0],"tree_param":{"num_deleted":"0","num_feature":"3","num_nodes":"73","size_leaf_vector":"1"}},{"base_weights":[8.612357E0,1.8076918E2,-4.7599883E0,5.4902466E1,4.246594E2,-1.0108603E1,3.4121193E1,3.6220013E1,4.1576447E1,1.2269708E2,7.863768E2,1.3010252E1,-1.454406E1,5.6823822E1,3.0897832E0,2.278915E1,5.710815E1,1.4644398E1,8.3236176E1,3.5968457E2,-5.815012E0,-1.459665E1,4.2838394E1,-4.166711E1,-1.1316832E1,2.3056398E1,1.4676132E2,1.4121795E1,-6.53958E0,4.4824066E1,-1.0451784E1,2.8672358E1,2.2606695E1,1.4218944E1,-1.2071788E1,3.2450916E1,-3.1327196E1,2.4060442E2,5.418602E0,-5.9906853E1,-2.5834436E1,1.7384158E2,-1.5414118E1,5.917299E1,-1.5942242E1,6.1770645E1,1.1610019E1,-1.30561E0,2.5259378E1,2.709041E1,3.263821E0,-8.096825E0,1.2171692E0,-9.810462E0,1.3382742E1,7.5118333E-1,-6.183488E0,-1.5424851E0,3.306204E1,-3.0586255E0,-1.5355365E1,-1.7639008E1,1.25910995E2,7.689449E0,-2.923562E1,-6.60737E0,-3.0526072E1,-8.855427E0,-4.211093E0,1.16575935E2,-8.180654E0,-3.800662E0,-9.08938E0,-1.1410611E0,7.5001305E1,-7.8657527E0,8.399445E0,5.3279333E0,-5.0927496E0],"categories":[],"categories_nodes":[],"categories_segments":[],"categories_sizes":[],"default_left":[0,0,0,0,0,0,0,0,0,0,0,0,0,0,0,0,0,0,0,0,0,0,0,0,0,0,0,0,0,0,0,0,0,0,0,0,0,0,0,0,0,0,0,0,0,0,0,0,0,0,0,0,0,0,0,0,0,0,0,0,0,0,0,0,0,0,0,0,0,0,0,0,0,0,0,0,0,0,0],"id":4,"left_children":[1,3,5,7,9,11,13,-1,15,17,19,21,23,25,27,29,31,33,-1,-1,-1,35,37,39,41,43,45,47,-1,49,51,-1,53,-1,55,57,59,61,63,65,67,69,71,73,75,-1,-1,77,-1,-1,-1,-1,-1,-1,-1,-1,-1,-1,-1,-1,-1,-1,-1,-1,-1,-1,-1,-1,-1,-1,-1,-1,-1,-1,-1,-1,-1,-1,-1],"loss_changes":[6.707833E5,6.21336E5,5.67022E4,8.139293E3,6.680889E5,2.4696918E4,2.3072754E4,0E0,2.7837363E3,7.954631E4,1.0205414E6,3.2740336E4,1.7122445E4,5.4318395E4,4.4263696E3,6.3281807E3,7.1293945E3,4.0722026E3,0E0,0E0,0E0,1.7546355E4,1.3930316E5,4.5168047E3,1.399947E5,2.2070818E4,2.3985734E4,1.200195E4,0E0,6.736133E3,1.069281E3,0E0,7.543368E3,0E0,4.2503354E2,1.8104883E4,6.192092E3,1.8554436E5,3.7846176E4,1.2026166E4,1.5060547E2,1.8334602E5,6.8891875E3,9.709406E4,4.346668E3,0E0,0E0,3.2890754E3,0E0,0E0,0E0,0E0,0E0,0E0,0E0,0E0,0E0,0E0,0E0,0E0,0E0,0E0,0E0,0E0,0E0,0E0,0E0,0E0,0E0,0E0,0E0,0E0,0E0,0E0,0E0,0E0,0E0,0E0,0E0],"parents":[2147483647,0,0,1,1,2,2,3,3,4,4,5,5,6,6,8,8,9,9,10,10,11,11,12,12,13,13,14,14,15,15,16,16,17,17,21,21,22,22,23,23,24,24,25,25,26,26,27,27,29,29,30,30,32,32,34,34,35,35,36,36,37,37,38,38,39,39,40,40,41,41,42,42,43,43,44,44,47,47],"right_children":[2,4,6,8,10,12,14,-1,16,18,20,22,24,26,28,30,32,34,-1,-1,-1,36,38,40,42,44,46,48,-1,50,52,-1,54,-1,56,58,60,62,64,66,68,70,72,74,76,-1,-1,78,-1,-1,-1,-1,-1,-1,-1,-1,-1,-1,-1,-1,-1,-1,-1,-1,-1,-1,-1,-1,-1,-1,-1,-1,-1,-1,-1,-1,-1,-1,-1],"split_conditions":[2.5E1,2.2E1,1E0,7E0,1E0,4.5E1,1.7E1,3.6220013E1,1.7E1,2.4E1,1.5E1,1.3E1,5.5E1,1.5E1,1.01E2,1.5E1,1.9E1,3E0,8.3236176E1,3.5968457E2,-5.815012E0,3E1,1.4E1,1.3E1,5.6E1,4.8E1,1.6E1,8.3E1,-6.53958E0,1.4E1,1E0,2.8672358E1,2E1,1.4218944E1,2.3E1,1.2E1,4E1,4.2E1,4.2E1,1E1,5E1,1.3E1,2.1E1,4.4E1,8.6E1,6.1770645E1,1.1610019E1,1.9E1,2.5259378E1,2.709041E1,3.263821E0,-8.096825E0,1.2171692E0,-9.810462E0,1.3382742E1,7.5118333E-1,-6.183488E0,-1.5424851E0,3.306204E1,-3.0586255E0,-1.5355365E1,-1.7639008E1,1.25910995E2,7.689449E0,-2.923562E1,-6.60737E0,-3.0526072E1,-8.855427E0,-4.211093E0,1.16575935E2,-8.180654E0,-3.800662E0,-9.08938E0,-1.1410611E0,7.5001305E1,-7.8657527E0,8.399445E0,5.3279333E0,-5.0927496E0],"split_indices":[0,0,1,0,1,0,2,0,0,0,2,2,0,2,0,0,0,2,0,0,0,0,2,2,0,0,2,0,0,2,1,0,0,0,0,2,0,0,0,2,0,2,2,0,0,0,0,2,0,0,0,0,0,0,0,0,0,0,0,0,0,0,0,0,0,0,0,0,0,0,0,0,0,0,0,0,0,0,0],"split_type":[0,0,0,0,0,0,0,0,0,0,0,0,0,0,0,0,0,0,0,0,0,0,0,0,0,0,0,0,0,0,0,0,0,0,0,0,0,0,0,0,0,0,0,0,0,0,0,0,0,0,0,0,0,0,0,0,0,0,0,0,0,0,0,0,0,0,0,0,0,0,0,0,0,0,0,0,0,0,0],"sum_hessian":[2.9E2,2E1,2.7E2,1.4E1,6E0,2.38E2,3.2E1,1E0,1.3E1,4E0,2E0,3.8E1,2E2,1.8E1,1.4E1,7E0,6E0,3E0,1E0,1E0,1E0,2E1,1.8E1,2E1,1.8E2,1.4E1,4E0,1E1,4E0,4E0,3E0,2E0,4E0,1E0,2E0,5E0,1.5E1,2E0,1.6E1,8E0,1.2E1,3E0,1.77E2,7E0,7E0,2E0,2E0,9E0,1E0,1E0,3E0,1E0,2E0,1E0,3E0,1E0,1E0,4E0,1E0,8E0,7E0,1E0,1E0,1.4E1,2E0,5E0,3E0,8E0,4E0,1E0,2E0,1.51E2,2.6E1,6E0,1E0,6E0,1E0,4E0,5E0],"tree_param":{"num_deleted":"0","num_feature":"3","num_nodes":"79","size_leaf_vector":"1"}},{"base_weights":[8.948573E0,1.5214944E2,-2.181194E0,4.456101E1,3.6096045E2,-6.4687567E0,2.8937248E1,3.0787012E1,3.3083454E1,1.0429252E2,6.684202E2,5.755122E0,-1.2540266E1,4.7554287E1,3.4265168E0,2.0978254E1,5.810189E1,1.2447737E1,7.075075E1,3.0573187E2,-4.9427605E0,-2.4414653E-1,1.1980227E2,-2.0694994E1,-8.645435E0,2.1099077E1,1.1740906E2,1.2202948E1,-1.6566935E1,3.3821617E1,-9.953033E0,3.0078187E0,2.1235546E1,1.2086102E1,-1.026102E1,-1.9864233E1,1.1372724E1,1.51945E2,3.5061047E0,1.9064482E1,-2.27069E1,1.680197E1,-1.5198219E1,5.0653625E1,-1.1092857E1,6.254786E1,1.2754468E1,-8.904053E-1,2.1470472E1,-5.6194596E0,-1.186282E0,2.3026846E1,5.016885E0,-5.3037114E0,1.9837464E0,6.3850594E-1,-5.2559648E0,-2.0037212E0,-8.633556E0,2.8291939E1,-3.6931355E0,6.8849616E0,6.14903E1,-4.464699E0,1.30437155E1,-4.566339E0,-1.1158495E1,-2.7046072E0,1.3735772E1,-5.207173E0,-1.7513182E0,-8.476443E-1,6.375111E1,-5.84313E0,7.1395273E0,2.4390306E0,-7.3944874E0],"categories":[],"categories_nodes":[],"categories_segments":[],"categories_sizes":[],"default_left":[0,0,0,0,0,0,0,0,0,0,0,0,0,0,0,0,0,0,0,0,0,0,0,0,0,0,0,0,0,0,0,0,0,0,0,0,0,0,0,0,0,0,0,0,0,0,0,0,0,0,0,0,0,0,0,0,0,0,0,0,0,0,0,0,0,0,0,0,0,0,0,0,0,0,0,0,0],"id":5,"left_children":[1,3,5,7,9,11,13,-1,15,17,19,21,23,25,27,29,31,33,-1,-1,-1,35,37,39,41,43,45,47,49,51,53,-1,-1,-1,55,57,59,61,-1,63,65,67,69,71,73,-1,-1,75,-1,-1,-1,-1,-1,-1,-1,-1,-1,-1,-1,-1,-1,-1,-1,-1,-1,-1,-1,-1,-1,-1,-1,-1,-1,-1,-1,-1,-1],"loss_changes":[4.6412544E5,4.556939E5,3.634462E4,6.6010703E3,4.826942E5,1.7810129E4,1.5509887E4,0E0,3.0210674E3,5.74722E4,7.37341E5,5.476521E4,4.9028867E3,3.26352E4,2.8342324E3,4.706507E3,1.7293359E3,2.942166E3,0E0,0E0,0E0,1.7776059E4,1.2124703E4,4.512504E3,1.8598008E4,1.4833166E4,2.524418E4,8.613922E3,6.2437134E1,4.5893975E3,6.288435E2,0E0,0E0,0E0,3.070867E2,3.2163398E3,9.740354E4,1.5815E4,0E0,3.1334595E3,4.748121E3,1.7623395E4,1.6771113E3,6.98452E4,2.8038203E3,0E0,0E0,2.3434749E3,0E0,0E0,0E0,0E0,0E0,0E0,0E0,0E0,0E0,0E0,0E0,0E0,0E0,0E0,0E0,0E0,0E0,0E0,0E0,0E0,0E0,0E0,0E0,0E0,0E0,0E0,0E0,0E0,0E0],"parents":[2147483647,0,0,1,1,2,2,3,3,4,4,5,5,6,6,8,8,9,9,10,10,11,11,12,12,13,13,14,14,15,15,16,16,17,17,21,21,22,22,23,23,24,24,25,25,26,26,27,27,28,28,29,29,30,30,34,34,35,35,36,36,37,37,39,39,40,40,41,41,42,42,43,43,44,44,47,47],"right_children":[2,4,6,8,10,12,14,-1,16,18,20,22,24,26,28,30,32,34,-1,-1,-1,36,38,40,42,44,46,48,50,52,54,-1,-1,-1,56,58,60,62,-1,64,66,68,70,72,74,-1,-1,76,-1,-1,-1,-1,-1,-1,-1,-1,-1,-1,-1,-1,-1,-1,-1,-1,-1,-1,-1,-1,-1,-1,-1,-1,-1,-1,-1,-1,-1],"split_conditions":[2.5E1,2.2E1,1E0,7E0,1E0,6.4E1,1.7E1,3.0787012E1,1.9E1,2.4E1,1.5E1,6.3E1,8E1,1.5E1,1.01E2,1.5E1,1E0,3E0,7.075075E1,3.0573187E2,-4.9427605E0,1.2E1,1.7E1,1E0,8.6E1,4.8E1,6.6E1,8.3E1,1.12E2,1.4E1,1.7E1,3.0078187E0,2.1235546E1,1.2086102E1,2.3E1,4E1,1.4E1,2E0,3.5061047E0,7.3E1,7.3E1,1.6E1,1.37E2,4.4E1,8.6E1,6.254786E1,1.2754468E1,6.3E1,2.1470472E1,-5.6194596E0,-1.186282E0,2.3026846E1,5.016885E0,-5.3037114E0,1.9837464E0,6.3850594E-1,-5.2559648E0,-2.0037212E0,-8.633556E0,2.8291939E1,-3.6931355E0,6.8849616E0,6.14903E1,-4.464699E0,1.30437155E1,-4.566339E0,-1.1158495E1,-2.7046072E0,1.3735772E1,-5.207173E0,-1.7513182E0,-8.476443E-1,6.375111E1,-5.84313E0,7.1395273E0,2.4390306E0,-7.3944874E0],"split_indices":[0,0,1,0,1,0,2,0,2,0,2,0,0,2,0,2,1,2,0,0,0,2,2,2,0,0,0,0,0,0,0,0,0,0,0,0,2,2,0,0,0,2,0,0,0,0,0,0,0,0,0,0,0,0,0,0,0,0,0,0,0,0,0,0,0,0,0,0,0,0,0,0,0,0,0,0,0],"split_type":[0,0,0,0,0,0,0,0,0,0,0,0,0,0,0,0,0,0,0,0,0,0,0,0,0,0,0,0,0,0,0,0,0,0,0,0,0,0,0,0,0,0,0,0,0,0,0,0,0,0,0,0,0,0,0,0,0,0,0,0,0,0,0,0,0,0,0,0,0,0,0,0,0,0,0,0,0],"sum_hessian":[2.9E2,2E1,2.7E2,1.4E1,6E0,2.38E2,3.2E1,1E0,1.3E1,4E0,2E0,7.9E1,1.59E2,1.8E1,1.4E1,1E1,3E0,3E0,1E0,1E0,1E0,7.6E1,3E0,5E1,1.09E2,1.4E1,4E0,1E1,4E0,7E0,3E0,1E0,2E0,1E0,2E0,2.8E1,4.8E1,2E0,1E0,2E0,4.8E1,2.2E1,8.7E1,7E0,7E0,1E0,3E0,9E0,1E0,3E0,1E0,1E0,6E0,2E0,1E0,1E0,1E0,1.2E1,1.6E1,1E1,3.8E1,1E0,1E0,1E0,1E0,3.3E1,1.5E1,1.2E1,1E1,7E1,1.7E1,6E0,1E0,6E0,1E0,7E0,2E0],"tree_param":{"num_deleted":"0","num_feature":"3","num_nodes":"77","size_leaf_vector":"1"}},{"base_weights":[8.637692E0,1.2359579E2,-1.2235491E0,3.6509647E1,2.5500648E2,-4.0903134E0,2.0136246E1,2.6168959E1,2.6656073E1,6.9547455E1,4.694434E2,5.4947886E0,-8.797393E0,-2.0383167E1,3.687789E1,1.6932394E1,4.673217E1,1.0580576E1,1.2498748E2,6.3526086E2,-4.201346E0,3.5211322E-1,1.01831924E2,-1.47717905E1,-5.0650363E0,-9.399732E0,-3.1674073E0,5.4188446E1,2.2133419E1,2.7180595E1,-7.7971115E0,5.201169E0,2.0237549E1,1.0273186E1,-8.721866E0,6.0138138E1,-3.8937688E0,2.5987207E2,2.5995317E1,6.2288823E0,-2.2075075E1,1.2915326E2,2.9801893E0,1.620481E1,-1.6096502E1,5.096367E1,-9.830247E0,2.5905548E1,-9.355369E0,-7.602949E0,3.6517254E1,1.9572817E1,3.7268283E0,-5.5837784E0,6.0367435E-1,5.4273033E-1,-4.46757E0,-1.0049186E0,4.3068455E1,-8.690886E0,5.237344E0,5.8522167E0,5.2266754E1,-3.7949936E0,1.1087158E1,-3.236729E0,-6.725359E0,2.987514E1,-6.7657204E0,3.0208284E-2,-3.7144334E0,1.850375E1,-6.846252E0,-4.340611E0,6.0685983E0,4.1886288E1,2.9745224E0],"categories":[],"categories_nodes":[],"categories_segments":[],"categories_sizes":[],"default_left":[0,0,0,0,0,0,0,0,0,0,0,0,0,0,0,0,0,0,0,0,0,0,0,0,0,0,0,0,0,0,0,0,0,0,0,0,0,0,0,0,0,0,0,0,0,0,0,0,0,0,0,0,0,0,0,0,0,0,0,0,0,0,0,0,0,0,0,0,0,0,0,0,0,0,0,0,0],"id":6,"left_children":[1,3,5,7,9,11,13,-1,15,17,19,21,23,25,27,29,31,33,35,37,-1,39,41,43,45,-1,47,-1,49,51,53,-1,-1,-1,55,-1,-1,-1,-1,57,59,61,-1,63,65,67,69,71,-1,73,75,-1,-1,-1,-1,-1,-1,-1,-1,-1,-1,-1,-1,-1,-1,-1,-1,-1,-1,-1,-1,-1,-1,-1,-1,-1,-1],"loss_changes":[3.300374E5,2.5390294E5,1.6554174E4,5.171426E3,3.2527475E5,1.0786386E4,2.2459262E4,0E0,1.9417021E3,1.8292309E4,3.2955294E5,3.9103164E4,3.492954E3,1.7857573E3,4.475108E4,2.9996926E3,1.2674531E3,2.1257146E3,3.3840094E4,3.0509188E5,0E0,1.0154257E4,8.760094E3,2.7639805E3,2.7199846E4,0E0,4.8805605E3,0E0,9.687546E3,3.6832227E3,4.6182495E2,0E0,0E0,0E0,2.218702E2,0E0,0E0,0E0,0E0,8.0723695E4,4.866724E3,1.1426348E4,0E0,2.2639246E3,1.737581E3,3.0840732E4,2.3574756E3,6.6369263E3,0E0,1.821362E3,3.9757395E4,0E0,0E0,0E0,0E0,0E0,0E0,0E0,0E0,0E0,0E0,0E0,0E0,0E0,0E0,0E0,0E0,0E0,0E0,0E0,0E0,0E0,0E0,0E0,0E0,0E0,0E0],"parents":[2147483647,0,0,1,1,2,2,3,3,4,4,5,5,6,6,8,8,9,9,10,10,11,11,12,12,13,13,14,14,15,15,16,16,17,17,18,18,19,19,21,21,22,22,23,23,24,24,26,26,28,28,29,29,30,30,34,34,39,39,40,40,41,41,43,43,44,44,45,45,46,46,47,47,49,49,50,50],"right_children":[2,4,6,8,10,12,14,-1,16,18,20,22,24,26,28,30,32,34,36,38,-1,40,42,44,46,-1,48,-1,50,52,54,-1,-1,-1,56,-1,-1,-1,-1,58,60,62,-1,64,66,68,70,72,-1,74,76,-1,-1,-1,-1,-1,-1,-1,-1,-1,-1,-1,-1,-1,-1,-1,-1,-1,-1,-1,-1,-1,-1,-1,-1,-1,-1],"split_conditions":[2.7E1,2.2E1,1E0,7E0,1E0,6.4E1,4.4E1,2.6168959E1,1.9E1,2.4E1,1.5E1,6.3E1,8.2E1,1.3E1,4.8E1,1.5E1,1.5E1,3E0,2.5E1,2.3E1,-4.201346E0,5.6E1,1.7E1,1E0,8.4E1,-9.399732E0,1.9E1,5.4188446E1,1.5E1,1.4E1,1.4E1,5.201169E0,2.0237549E1,1.0273186E1,2.3E1,6.0138138E1,-3.8937688E0,2.5987207E2,2.5995317E1,5.5E1,6.1E1,2E0,2.9801893E0,7.3E1,7.3E1,1.8E1,9.1E1,3.8E1,-9.355369E0,8.6E1,1.6E1,1.9572817E1,3.7268283E0,-5.5837784E0,6.0367435E-1,5.4273033E-1,-4.46757E0,-1.0049186E0,4.3068455E1,-8.690886E0,5.237344E0,5.8522167E0,5.2266754E1,-3.7949936E0,1.1087158E1,-3.236729E0,-6.725359E0,2.987514E1,-6.7657204E0,3.0208284E-2,-3.7144334E0,1.850375E1,-6.846252E0,-4.340611E0,6.0685983E0,4.1886288E1,2.9745224E0],"split_indices":[0,0,1,0,1,0,0,0,2,0,2,0,0,2,0,2,0,2,0,0,0,0,2,2,0,0,2,0,2,0,0,0,0,0,0,0,0,0,0,0,0,2,0,0,0,2,0,0,0,0,2,0,0,0,0,0,0,0,0,0,0,0,0,0,0,0,0,0,0,0,0,0,0,0,0,0,0],"split_type":[0,0,0,0,0,0,0,0,0,0,0,0,0,0,0,0,0,0,0,0,0,0,0,0,0,0,0,0,0,0,0,0,0,0,0,0,0,0,0,0,0,0,0,0,0,0,0,0,0,0,0,0,0,0,0,0,0,0,0,0,0,0,0,0,0,0,0,0,0,0,0,0,0,0,0,0,0],"sum_hessian":[2.9E2,2.2E1,2.68E2,1.4E1,8E0,2.37E2,3.1E1,1E0,1.3E1,5E0,3E0,7.8E1,1.59E2,9E0,2.2E1,1E1,3E0,3E0,2E0,2E0,1E0,7.5E1,3E0,6E1,9.9E1,5E0,4E0,1E0,2.1E1,7E0,3E0,2E0,1E0,1E0,2E0,1E0,1E0,1E0,1E0,6E1,1.5E1,2E0,1E0,2E0,5.8E1,7E0,9.2E1,2E0,2E0,7E0,1.4E1,1E0,6E0,1E0,2E0,1E0,1E0,5.7E1,3E0,1.3E1,2E0,1E0,1E0,1E0,1E0,3.3E1,2.5E1,4E0,3E0,1.9E1,7.3E1,1E0,1E0,6E0,1E0,2E0,1.2E1],"tree_param":{"num_deleted":"0","num_feature":"3","num_nodes":"77","size_leaf_vector":"1"}},{"base_weights":[8.191848E0,1.0452513E2,-7.5279735E-2,3.0218569E1,2.1675551E2,-2.3738732E0,1.7022861E1,2.2243616E1,2.178484E1,5.9115334E1,3.990269E2,2.4596169E1,-3.9147434E0,-1.4977976E1,3.0196144E1,8.9935665E0,3.3291317E1,8.993491E0,1.0623934E2,5.3997174E2,-3.5711439E0,-1.2817893E1,5.849649E1,-3.839502E1,-2.473288E0,-7.0497985E0,-1.7567596E0,4.606018E1,1.7611067E1,-8.193858E0,1.8082035E1,3.310238E0,1.648487E1,8.732208E0,-7.4135857E0,5.111741E1,-3.3097036E0,2.2089127E2,2.209602E1,1.4207271E1,-1.0991575E1,5.097722E1,-2.0059351E1,-5.7395096E0,-1.6129858E1,2.7326344E1,-5.1296067E0,2.2019714E1,-7.4842944E0,4.0654266E1,4.147288E0,1.2275578E1,2.291089E-1,9.672391E0,-5.1241655E0,4.6132052E-1,-3.797434E0,4.926648E0,1.1343905E0,-1.3685443E1,1.2326372E1,8.3439046E-1,-2.8520644E0,-6.236101E0,2.0368717E1,-8.61533E0,-7.093558E-1,1.5728186E1,-5.819314E0,5.435385E-1,4.6882736E1,-2.096021E0,4.4288707E0],"categories":[],"categories_nodes":[],"categories_segments":[],"categories_sizes":[],"default_left":[0,0,0,0,0,0,0,0,0,0,0,0,0,0,0,0,0,0,0,0,0,0,0,0,0,0,0,0,0,0,0,0,0,0,0,0,0,0,0,0,0,0,0,0,0,0,0,0,0,0,0,0,0,0,0,0,0,0,0,0,0,0,0,0,0,0,0,0,0,0,0,0,0],"id":7,"left_children":[1,3,5,7,9,11,13,-1,15,17,19,21,23,25,27,29,31,33,35,37,-1,39,41,43,45,-1,47,-1,49,-1,51,53,-1,-1,55,-1,-1,-1,-1,57,-1,-1,59,61,-1,63,65,67,-1,69,71,-1,-1,-1,-1,-1,-1,-1,-1,-1,-1,-1,-1,-1,-1,-1,-1,-1,-1,-1,-1,-1,-1],"loss_changes":[2.3176017E5,1.852574E5,1.0612562E4,3.9417578E3,2.35011E5,9.986933E3,1.394207E4,0E0,1.761147E3,1.3216191E4,2.38102E5,1.7238334E4,1.1137641E4,1.0853433E3,3.299707E4,3.1336306E3,4.363469E3,1.5358292E3,2.444946E4,2.2042894E5,0E0,5.026841E3,6.468158E4,4.2089893E3,1.739647E4,0E0,3.306328E3,0E0,6.656863E3,0E0,2.7371885E3,2.910408E3,0E0,0E0,1.6030118E2,0E0,0E0,0E0,0E0,3.0272339E1,0E0,0E0,9.6886045E3,1.5484573E2,0E0,3.6546062E4,1.3041986E4,4.795179E3,0E0,3.5645062E4,1.8760618E3,0E0,0E0,0E0,0E0,0E0,0E0,0E0,0E0,0E0,0E0,0E0,0E0,0E0,0E0,0E0,0E0,0E0,0E0,0E0,0E0,0E0,0E0],"parents":[2147483647,0,0,1,1,2,2,3,3,4,4,5,5,6,6,8,8,9,9,10,10,11,11,12,12,13,13,14,14,15,15,16,16,17,17,18,18,19,19,21,21,22,22,23,23,24,24,26,26,28,28,30,30,31,31,34,34,39,39,42,42,43,43,45,45,46,46,47,47,49,49,50,50],"right_children":[2,4,6,8,10,12,14,-1,16,18,20,22,24,26,28,30,32,34,36,38,-1,40,42,44,46,-1,48,-1,50,-1,52,54,-1,-1,56,-1,-1,-1,-1,58,-1,-1,60,62,-1,64,66,68,-1,70,72,-1,-1,-1,-1,-1,-1,-1,-1,-1,-1,-1,-1,-1,-1,-1,-1,-1,-1,-1,-1,-1,-1],"split_conditions":[2.7E1,2.2E1,1E0,7E0,1E0,3.2E1,4.4E1,2.2243616E1,1.7E1,2.4E1,1.5E1,1.2E1,3.6E1,1.3E1,4.8E1,1.2E1,1E0,3E0,2.5E1,2.3E1,-3.5711439E0,3E0,1.6E1,1.1E1,4.5E1,-7.0497985E0,1.9E1,4.606018E1,6.6E1,-8.193858E0,1E0,1.9E1,1.648487E1,8.732208E0,2.3E1,5.111741E1,-3.3097036E0,2.2089127E2,2.209602E1,3E1,-1.0991575E1,5.097722E1,1.9E1,3.4E1,-1.6129858E1,1.3E1,5.5E1,3.8E1,-7.4842944E0,6.4E1,8.6E1,1.2275578E1,2.291089E-1,9.672391E0,-5.1241655E0,4.6132052E-1,-3.797434E0,4.926648E0,1.1343905E0,-1.3685443E1,1.2326372E1,8.3439046E-1,-2.8520644E0,-6.236101E0,2.0368717E1,-8.61533E0,-7.093558E-1,1.5728186E1,-5.819314E0,5.435385E-1,4.6882736E1,-2.096021E0,4.4288707E0],"split_indices":[0,0,1,0,1,0,0,0,0,0,2,2,0,2,0,2,1,2,0,0,0,2,2,2,0,0,2,0,0,0,1,0,0,0,0,0,0,0,0,0,0,0,2,0,0,2,0,0,0,0,0,0,0,0,0,0,0,0,0,0,0,0,0,0,0,0,0,0,0,0,0,0,0],"split_type":[0,0,0,0,0,0,0,0,0,0,0,0,0,0,0,0,0,0,0,0,0,0,0,0,0,0,0,0,0,0,0,0,0,0,0,0,0,0,0,0,0,0,0,0,0,0,0,0,0,0,0,0,0,0,0,0,0,0,0,0,0,0,0,0,0,0,0,0,0,0,0,0,0],"sum_hessian":[2.9E2,2.2E1,2.68E2,1.4E1,8E0,2.37E2,3.1E1,1E0,1.3E1,5E0,3E0,1.2E1,2.25E2,9E0,2.2E1,7E0,6E0,3E0,2E0,2E0,1E0,6E0,6E0,8E0,2.17E2,5E0,4E0,1E0,2.1E1,1E0,6E0,3E0,3E0,1E0,2E0,1E0,1E0,1E0,1E0,3E0,3E0,2E0,4E0,3E0,5E0,1.7E1,2E2,2E0,2E0,7E0,1.4E1,2E0,4E0,1E0,2E0,1E0,1E0,2E0,1E0,3E0,1E0,1E0,2E0,8E0,9E0,2E1,1.8E2,1E0,1E0,6E0,1E0,7E0,7E0],"tree_param":{"num_deleted":"0","num_feature":"3","num_nodes":"73","size_leaf_vector":"1"}},{"base_weights":[7.324498E0,8.795922E1,4.0285107E-1,2.4325502E1,1.8424217E2,7.6840024E0,-4.3057156E0,1.8907074E1,1.705967E1,5.0248028E1,3.3917282E2,3.0929277E0,2.8543507E1,-1.1352726E1,-1.8644133E0,6.834352E0,2.6308653E1,7.6444683E0,9.030344E1,4.5897595E2,-3.0354722E0,1.4078293E1,-8.2123995E0,-7.075444E0,5.5091423E1,-1.4226339E1,8.26001E0,2.2534323E1,-3.0892267E0,2.4075909E1,-8.325764E0,1.530048E1,6.2311554E0,7.422377E0,-6.3015466E0,4.3449795E1,-2.813248E0,1.8775757E2,1.8781616E1,3.9641228E0,1.1675751E2,1.469987E1,-2.464012E1,5.0807877E0,-1.2193865E1,2.915326E1,3.8234127E0,2.6492195E0,-1.5793278E1,8.010008E0,-7.679985E-1,-3.9932015E0,3.2365456E1,1.7898414E0,-8.523014E0,1.4795559E1,-2.3334198E-1,-6.964779E0,3.6022797E-1,-8.881826E0,6.7775965E0,3.9212266E-1,-3.2278187E0,-3.155579E0,2.0049152E1,-2.2141518E1,6.1464016E1,-4.7499582E-1,3.0621397E1,-2.6522629E1,-4.6927104E0,-6.005876E0,2.2566605E0,-1.7666794E0,4.64962E0,4.2740974E0,-4.8216147E0,-5.084834E0,-1.7092855E0,-3.51999E0,3.1359906E0,1.58141575E1,3.685711E-1,-6.850616E-1,2.5205585E1,-1.2705464E1,-1.5319098E0],"categories":[],"categories_nodes":[],"categories_segments":[],"categories_sizes":[],"default_left":[0,0,0,0,0,0,0,0,0,0,0,0,0,0,0,0,0,0,0,0,0,0,0,0,0,0,0,0,0,0,0,0,0,0,0,0,0,0,0,0,0,0,0,0,0,0,0,0,0,0,0,0,0,0,0,0,0,0,0,0,0,0,0,0,0,0,0,0,0,0,0,0,0,0,0,0,0,0,0,0,0,0,0,0,0,0,0],"id":8,"left_children":[1,3,5,7,9,11,13,-1,15,17,19,21,23,25,27,29,31,33,35,37,-1,39,41,43,45,47,49,51,53,55,57,-1,59,-1,61,-1,-1,-1,-1,63,65,67,69,-1,71,-1,73,75,77,-1,79,-1,81,83,85,-1,-1,-1,-1,-1,-1,-1,-1,-1,-1,-1,-1,-1,-1,-1,-1,-1,-1,-1,-1,-1,-1,-1,-1,-1,-1,-1,-1,-1,-1,-1,-1],"loss_changes":[1.6237897E5,1.3643558E5,9.255424E3,3.1424434E3,1.6979544E5,1.0063078E4,2.8002708E3,0E0,1.1442302E3,9.548696E3,1.7202866E5,1.1044613E4,1.835637E4,2.4846055E3,3.7453337E3,2.2915222E3,3.1526094E3,1.1096364E3,1.7664732E4,1.5925988E5,0E0,4.627034E4,1.6923645E4,1.3126189E3,2.3362824E4,1.020229E3,1.01936523E3,2.5451877E3,3.1436492E3,2.5478518E3,7.371344E2,0E0,3.6004958E3,0E0,1.15817604E2,0E0,0E0,0E0,0E0,3.894296E4,8.229261E4,2.7192645E4,1.3535213E4,0E0,1.384931E3,0E0,7.716394E2,1.0974783E3,3.0028613E2,0E0,7.378764E2,0E0,3.1031665E3,2.129365E4,6.2562285E3,0E0,0E0,0E0,0E0,0E0,0E0,0E0,0E0,0E0,0E0,0E0,0E0,0E0,0E0,0E0,0E0,0E0,0E0,0E0,0E0,0E0,0E0,0E0,0E0,0E0,0E0,0E0,0E0,0E0,0E0,0E0,0E0],"parents":[2147483647,0,0,1,1,2,2,3,3,4,4,5,5,6,6,8,8,9,9,10,10,11,11,12,12,13,13,14,14,15,15,16,16,17,17,18,18,19,19,21,21,22,22,23,23,24,24,25,25,26,26,27,27,28,28,29,29,30,30,32,32,34,34,39,39,40,40,41,41,42,42,44,44,46,46,47,47,48,48,50,50,52,52,53,53,54,54],"right_children":[2,4,6,8,10,12,14,-1,16,18,20,22,24,26,28,30,32,34,36,38,-1,40,42,44,46,48,50,52,54,56,58,-1,60,-1,62,-1,-1,-1,-1,64,66,68,70,-1,72,-1,74,76,78,-1,80,-1,82,84,86,-1,-1,-1,-1,-1,-1,-1,-1,-1,-1,-1,-1,-1,-1,-1,-1,-1,-1,-1,-1,-1,-1,-1,-1,-1,-1,-1,-1,-1,-1,-1,-1],"split_conditions":[2.7E1,2.2E1,6.6E1,7E0,1E0,6.1E1,1E1,1.8907074E1,1.7E1,2.4E1,1.5E1,1.4E1,1.4E1,1.49E2,1.1E1,1.4E1,1.9E1,3E0,2.5E1,2.3E1,-3.0354722E0,1.3E1,4.2E1,2E0,1.7E1,1E0,1.55E2,1.02E2,9.1E1,1E0,1.2E1,1.530048E1,2E1,7.422377E0,2.3E1,4.3449795E1,-2.813248E0,1.8775757E2,1.8781616E1,5.5E1,4.2E1,4.1E1,4.5E1,5.0807877E0,1.2E1,2.915326E1,2E1,7.8E1,1.1E2,8.010008E0,2.18E2,-3.9932015E0,1.05E2,9E1,9.3E1,1.4795559E1,-2.3334198E-1,-6.964779E0,3.6022797E-1,-8.881826E0,6.7775965E0,3.9212266E-1,-3.2278187E0,-3.155579E0,2.0049152E1,-2.2141518E1,6.1464016E1,-4.7499582E-1,3.0621397E1,-2.6522629E1,-4.6927104E0,-6.005876E0,2.2566605E0,-1.7666794E0,4.64962E0,4.2740974E0,-4.8216147E0,-5.084834E0,-1.7092855E0,-3.51999E0,3.1359906E0,1.58141575E1,3.685711E-1,-6.850616E-1,2.5205585E1,-1.2705464E1,-1.5319098E0],"split_indices":[0,0,0,0,1,0,2,0,0,0,2,2,2,0,2,0,0,2,0,0,0,2,0,2,2,2,0,0,0,1,2,0,0,0,0,0,0,0,0,0,0,0,0,0,2,0,2,0,0,0,0,0,0,0,0,0,0,0,0,0,0,0,0,0,0,0,0,0,0,0,0,0,0,0,0,0,0,0,0,0,0,0,0,0,0,0,0],"split_type":[0,0,0,0,0,0,0,0,0,0,0,0,0,0,0,0,0,0,0,0,0,0,0,0,0,0,0,0,0,0,0,0,0,0,0,0,0,0,0,0,0,0,0,0,0,0,0,0,0,0,0,0,0,0,0,0,0,0,0,0,0,0,0,0,0,0,0,0,0,0,0,0,0,0,0,0,0,0,0,0,0,0,0,0,0,0,0],"sum_hessian":[2.9E2,2.2E1,2.68E2,1.4E1,8E0,1.05E2,1.63E2,1E0,1.3E1,5E0,3E0,8.7E1,1.8E1,4.1E1,1.22E2,7E0,6E0,3E0,2E0,2E0,1E0,4.4E1,4.3E1,8E0,1E1,3.6E1,5E0,5E0,1.17E2,3E0,4E0,2E0,4E0,1E0,2E0,1E0,1E0,1E0,1E0,4.1E1,3E0,1.8E1,2.5E1,1E0,7E0,5E0,5E0,3E0,3.3E1,1E0,4E0,1E0,4E0,6.2E1,5.5E1,1E0,2E0,1E0,3E0,1E0,3E0,1E0,1E0,3.4E1,7E0,1E0,2E0,1.6E1,2E0,2E0,2.3E1,5E0,2E0,3E0,2E0,2E0,1E0,2.9E1,4E0,2E0,2E0,2E0,2E0,6E1,2E0,4E0,5.1E1],"tree_param":{"num_deleted":"0","num_feature":"3","num_nodes":"87","size_leaf_vector":"1"}},{"base_weights":[6.501925E0,7.412745E1,6.956462E-1,1.9698584E1,1.5660583E2,9.320725E0,-2.5643103E0,1.6071012E1,1.3452764E1,4.271082E1,2.882969E2,3.5666008E0,1.0912625E2,-2.9604141E1,-3.216633E-1,6.951527E0,2.7967972E1,6.497802E0,7.6757904E1,3.9012955E2,-2.5801513E0,8.119245E0,-3.921746E1,8.548451E1,-1.3339173E1,2.3909822E0,-3.2857285E1,4.0768482E1,-2.198232E0,1.5890797E1,-3.7994683E0,-1.1889954E-1,1.1266456E1,6.309023E0,-5.356314E0,3.693232E1,-2.3912609E0,1.5959393E2,1.5964374E1,-3.477465E1,1.0755637E1,-6.478656E1,-4.809753E0,-4.34572E1,-5.8425593E0,-1.504839E0,6.643344E1,-4.264601E0,1.8602852E1,1.2576224E1,1.8550664E0,3.333046E-1,-2.7436461E0,-2.650407E0,-1.2142923E1,-1.0322571E-2,6.261714E0,-2.7836222E1,-1.3177311E0,-5.362912E0,-1.745212E1,4.31867E0,-3.4810488E0,3.0861279E1,2.355443E0,-2.7523794E0,-3.6805716E-1,3.5477337E1,1.2226012E0],"categories":[],"categories_nodes":[],"categories_segments":[],"categories_sizes":[],"default_left":[0,0,0,0,0,0,0,0,0,0,0,0,0,0,0,0,0,0,0,0,0,0,0,0,0,0,0,0,0,0,0,0,0,0,0,0,0,0,0,0,0,0,0,0,0,0,0,0,0,0,0,0,0,0,0,0,0,0,0,0,0,0,0,0,0,0,0,0,0],"id":9,"left_children":[1,3,5,7,9,11,13,-1,15,17,19,21,23,25,27,29,31,33,35,37,-1,39,41,-1,-1,-1,43,45,47,49,-1,-1,-1,-1,51,-1,-1,-1,-1,53,55,57,-1,59,-1,61,63,65,67,-1,-1,-1,-1,-1,-1,-1,-1,-1,-1,-1,-1,-1,-1,-1,-1,-1,-1,-1,-1],"loss_changes":[1.1421034E5,1.0016681E5,7.587477E3,2.4526606E3,1.2267719E5,4.2108504E4,1.1876073E4,0E0,1.1267151E3,6.8989277E3,1.2429069E5,1.4147838E4,1.2068809E5,2.095379E3,1.412336E4,2.1301765E3,1.1025842E3,8.0171277E2,1.2762768E4,1.1506528E5,0E0,7.7245576E3,3.111037E3,0E0,0E0,0E0,1.1395479E3,8.779518E3,7.60131E3,1.7622126E3,0E0,0E0,0E0,0E0,8.367825E1,0E0,0E0,0E0,0E0,2.340166E2,6.7686455E3,4.6656973E3,0E0,1.595292E3,0E0,8.093298E2,9.865209E3,2.3751946E3,2.2681875E4,0E0,0E0,0E0,0E0,0E0,0E0,0E0,0E0,0E0,0E0,0E0,0E0,0E0,0E0,0E0,0E0,0E0,0E0,0E0,0E0],"parents":[2147483647,0,0,1,1,2,2,3,3,4,4,5,5,6,6,8,8,9,9,10,10,11,11,12,12,13,13,14,14,15,15,16,16,17,17,18,18,19,19,21,21,22,22,26,26,27,27,28,28,29,29,34,34,39,39,40,40,41,41,43,43,45,45,46,46,47,47,48,48],"right_children":[2,4,6,8,10,12,14,-1,16,18,20,22,24,26,28,30,32,34,36,38,-1,40,42,-1,-1,-1,44,46,48,50,-1,-1,-1,-1,52,-1,-1,-1,-1,54,56,58,-1,60,-1,62,64,66,68,-1,-1,-1,-1,-1,-1,-1,-1,-1,-1,-1,-1,-1,-1,-1,-1,-1,-1,-1,-1],"split_conditions":[2.7E1,2.2E1,5.6E1,7E0,1E0,5.5E1,6.1E1,1.6071012E1,1.9E1,2.4E1,1.5E1,5.2E1,1.3E1,2E0,6.4E1,1.5E1,1E0,3E0,2.5E1,2.3E1,-2.5801513E0,2.9E1,1.3E1,8.548451E1,-1.3339173E1,2.3909822E0,1.4E1,1.1E1,1E0,1.4E1,-3.7994683E0,-1.1889954E-1,1.1266456E1,6.309023E0,2.3E1,3.693232E1,-2.3912609E0,1.5959393E2,1.5964374E1,1.2E1,1.3E1,1E0,-4.809753E0,1E1,-5.8425593E0,2E0,1.7E1,8.2E1,6.6E1,1.2576224E1,1.8550664E0,3.333046E-1,-2.7436461E0,-2.650407E0,-1.2142923E1,-1.0322571E-2,6.261714E0,-2.7836222E1,-1.3177311E0,-5.362912E0,-1.745212E1,4.31867E0,-3.4810488E0,3.0861279E1,2.355443E0,-2.7523794E0,-3.6805716E-1,3.5477337E1,1.2226012E0],"split_indices":[0,0,0,0,1,0,0,0,2,0,2,0,2,2,0,2,1,2,0,0,0,0,2,0,0,0,2,2,1,0,0,0,0,0,0,0,0,0,0,2,2,1,0,2,0,2,2,0,0,0,0,0,0,0,0,0,0,0,0,0,0,0,0,0,0,0,0,0,0],"split_type":[0,0,0,0,0,0,0,0,0,0,0,0,0,0,0,0,0,0,0,0,0,0,0,0,0,0,0,0,0,0,0,0,0,0,0,0,0,0,0,0,0,0,0,0,0,0,0,0,0,0,0,0,0,0,0,0,0,0,0,0,0,0,0,0,0,0,0,0,0],"sum_hessian":[2.9E2,2.2E1,2.68E2,1.4E1,8E0,7.3E1,1.95E2,1E0,1.3E1,5E0,3E0,7E1,3E0,1.4E1,1.81E2,1E1,3E0,3E0,2E0,2E0,1E0,6.4E1,6E0,1E0,2E0,1E0,1.3E1,7E0,1.74E2,7E0,3E0,1E0,2E0,1E0,2E0,1E0,1E0,1E0,1E0,3E0,6.1E1,2E0,4E0,6E0,7E0,3E0,4E0,1.59E2,1.5E1,1E0,6E0,1E0,1E0,1E0,2E0,3E1,3.1E1,1E0,1E0,3E0,3E0,1E0,2E0,2E0,2E0,6E1,9.9E1,1E0,1.4E1],"tree_param":{"num_deleted":"0","num_feature":"3","num_nodes":"69","size_leaf_vector":"1"}},{"base_weights":[5.651949E0,6.272696E1,7.5091887E-1,1.6312366E1,1.3311494E2,-9.693348E-1,1.3521839E1,1.3660359E1,1.0972603E1,3.6304188E1,2.4505235E2,2.1752708E1,-2.2720659E0,-1.0465582E1,2.3363247E1,3.2993789E0,1.8174486E1,5.5231314E0,6.52442E1,3.3161008E2,-2.1931286E0,-4.576252E0,5.3232536E1,-3.0349901E1,-9.6768606E-1,-4.151005E0,-7.1447787E0,3.9626038E1,1.2417322E1,-6.1983223E0,9.6738825E0,-1.236145E0,9.912449E0,5.3626695E0,-4.552868E0,3.1392464E1,-2.0325716E0,1.3565483E2,1.3569718E1,1.3576394E1,-1.1806839E1,-5.619367E-1,8.0270256E1,-2.1476479E0,-1.2638932E1,2.5142252E1,-1.7481614E0,8.710437E0,-5.757017E0,2.864593E1,2.9342437E0,8.032271E0,-7.5633186E-1,5.6481996E0,-4.2599244E0,2.833088E-1,-2.3320994E0,-7.6539807E0,1.1849863E1,1.439117E0,-1.6919885E0,4.3941566E1,2.813727E0,1.3402085E0,-1.7525315E0,-2.0543994E-2,-3.6479714E0,-5.2705016E0,9.625721E0,1.2055385E0,3.0155733E1,-7.4979097E-1,5.5503974E0],"categories":[],"categories_nodes":[],"categories_segments":[],"categories_sizes":[],"default_left":[0,0,0,0,0,0,0,0,0,0,0,0,0,0,0,0,0,0,0,0,0,0,0,0,0,0,0,0,0,0,0,0,0,0,0,0,0,0,0,0,0,0,0,0,0,0,0,0,0,0,0,0,0,0,0,0,0,0,0,0,0,0,0,0,0,0,0,0,0,0,0,0,0],"id":10,"left_children":[1,3,5,7,9,11,13,-1,15,17,19,21,23,25,27,29,31,33,35,37,-1,39,41,43,45,47,-1,-1,49,-1,51,53,-1,-1,55,-1,-1,-1,-1,57,-1,59,61,63,-1,-1,65,67,-1,69,71,-1,-1,-1,-1,-1,-1,-1,-1,-1,-1,-1,-1,-1,-1,-1,-1,-1,-1,-1,-1,-1,-1],"loss_changes":[8.135326E4,7.297028E4,5.9228276E3,1.84096E3,8.863428E4,7.0943926E3,7.7987505E3,0E0,7.1369885E2,4.9844727E3,8.98E4,1.101841E4,8.247691E3,7.4415796E2,2.5731668E4,1.4217607E3,2.0608904E3,5.792375E2,9.221094E3,8.313466E4,0E0,5.5850884E3,8.771986E3,3.231709E3,1.4504304E4,1.7145449E3,0E0,0E0,3.3016833E3,0E0,1.5272709E3,1.3077231E3,0E0,0E0,6.045754E1,0E0,0E0,0E0,0E0,7.0877246E3,0E0,1.08694496E2,1.739867E4,1.2384395E2,0E0,0E0,3.776664E3,3.6350642E3,0E0,1.3756502E4,1.3150073E3,0E0,0E0,0E0,0E0,0E0,0E0,0E0,0E0,0E0,0E0,0E0,0E0,0E0,0E0,0E0,0E0,0E0,0E0,0E0,0E0,0E0,0E0],"parents":[2147483647,0,0,1,1,2,2,3,3,4,4,5,5,6,6,8,8,9,9,10,10,11,11,12,12,13,13,14,14,15,15,16,16,17,17,18,18,19,19,21,21,22,22,23,23,24,24,25,25,28,28,30,30,31,31,34,34,39,39,41,41,42,42,43,43,46,46,47,47,49,49,50,50],"right_children":[2,4,6,8,10,12,14,-1,16,18,20,22,24,26,28,30,32,34,36,38,-1,40,42,44,46,48,-1,-1,50,-1,52,54,-1,-1,56,-1,-1,-1,-1,58,-1,60,62,64,-1,-1,66,68,-1,70,72,-1,-1,-1,-1,-1,-1,-1,-1,-1,-1,-1,-1,-1,-1,-1,-1,-1,-1,-1,-1,-1,-1],"split_conditions":[2.7E1,2.2E1,1E0,7E0,1E0,3.2E1,4.4E1,1.3660359E1,1.7E1,2.4E1,1.5E1,3.1E1,3.7E1,1.9E1,4.8E1,1.2E1,1E0,3E0,2.5E1,2.3E1,-2.1931286E0,3E1,7E0,1.1E1,4E1,3.8E1,-7.1447787E0,3.9626038E1,6.6E1,-6.1983223E0,1.4E1,1.9E1,9.912449E0,5.3626695E0,2.3E1,3.1392464E1,-2.0325716E0,1.3565483E2,1.3569718E1,2.9E1,-1.1806839E1,3E0,1.6E1,1E0,-1.2638932E1,2.5142252E1,2.1E1,3.2E1,-5.757017E0,6.4E1,2.1E1,8.032271E0,-7.5633186E-1,5.6481996E0,-4.2599244E0,2.833088E-1,-2.3320994E0,-7.6539807E0,1.1849863E1,1.439117E0,-1.6919885E0,4.3941566E1,2.813727E0,1.3402085E0,-1.7525315E0,-2.0543994E-2,-3.6479714E0,-5.2705016E0,9.625721E0,1.2055385E0,3.0155733E1,-7.4979097E-1,5.5503974E0],"split_indices":[0,0,1,0,1,0,0,0,0,0,2,0,0,2,0,2,1,2,0,0,0,0,2,2,0,0,0,0,0,0,2,0,0,0,0,0,0,0,0,0,0,2,2,2,0,0,2,0,0,0,2,0,0,0,0,0,0,0,0,0,0,0,0,0,0,0,0,0,0,0,0,0,0],"split_type":[0,0,0,0,0,0,0,0,0,0,0,0,0,0,0,0,0,0,0,0,0,0,0,0,0,0,0,0,0,0,0,0,0,0,0,0,0,0,0,0,0,0,0,0,0,0,0,0,0,0,0,0,0,0,0,0,0,0,0,0,0,0,0,0,0,0,0,0,0,0,0,0,0],"sum_hessian":[2.9E2,2.2E1,2.68E2,1.4E1,8E0,2.37E2,3.1E1,1E0,1.3E1,5E0,3E0,1.2E1,2.25E2,9E0,2.2E1,7E0,6E0,3E0,2E0,2E0,1E0,7E0,5E0,9E0,2.16E2,7E0,2E0,1E0,2.1E1,1E0,6E0,3E0,3E0,1E0,2E0,1E0,1E0,1E0,1E0,5E0,2E0,2E0,3E0,3E0,6E0,1E0,2.15E2,4E0,3E0,7E0,1.4E1,2E0,4E0,1E0,2E0,1E0,1E0,2E0,3E0,1E0,1E0,1E0,2E0,1E0,2E0,1.86E2,2.9E1,2E0,2E0,6E0,1E0,1.1E1,3E0],"tree_param":{"num_deleted":"0","num_feature":"3","num_nodes":"73","size_leaf_vector":"1"}},{"base_weights":[5.057049E0,5.285426E1,9.5149887E-1,1.315457E1,1.1314771E2,-4.7973666E-1,1.1566579E1,1.1611304E1,8.56499E0,3.085856E1,2.0829451E2,1.8218546E1,-1.5531789E0,-8.180564E0,1.9649399E1,3.5319788E0,2.0264523E1,4.694661E0,5.5457573E1,2.818686E2,-1.8641591E0,-4.154745E0,4.501318E1,-2.2550056E1,-5.784234E-1,-3.080926E0,-5.715823E0,2.8747812E1,7.831336E0,1.081409E1,-3.5745714E0,1.23847965E-2,8.097553E0,4.558269E0,-3.869938E0,2.6683596E1,-1.727686E0,1.1530661E2,1.153426E1,1.020279E1,-9.445471E0,-4.776465E-1,6.7878006E1,-1.6064339E0,-9.388922E0,2.1370913E1,-1.2406973E0,-1.089259E1,1.3569377E1,1.8720371E1,-6.0186396E0,9.484951E0,9.977022E-1,2.4081232E-1,-1.9822844E0,-6.1231837E0,9.183643E0,1.2232493E0,-1.4381902E0,3.735033E1,2.2509813E0,1.4469973E0,-1.6072385E0,-1.6485898E0,1.1528931E0,-1.5118576E0,-6.0236874E0,1.1057092E1,-4.9508724E0,-1.1792114E0,1.5365406E1,2.1290588E0,-6.1660547E0],"categories":[],"categories_nodes":[],"categories_segments":[],"categories_sizes":[],"default_left":[0,0,0,0,0,0,0,0,0,0,0,0,0,0,0,0,0,0,0,0,0,0,0,0,0,0,0,0,0,0,0,0,0,0,0,0,0,0,0,0,0,0,0,0,0,0,0,0,0,0,0,0,0,0,0,0,0,0,0,0,0,0,0,0,0,0,0,0,0,0,0,0,0],"id":11,"left_children":[1,3,5,7,9,11,13,-1,15,17,19,21,23,25,27,29,31,33,35,37,-1,39,41,43,45,47,-1,-1,49,51,-1,-1,-1,-1,53,-1,-1,-1,-1,55,-1,57,59,61,-1,-1,63,65,67,69,71,-1,-1,-1,-1,-1,-1,-1,-1,-1,-1,-1,-1,-1,-1,-1,-1,-1,-1,-1,-1,-1,-1],"loss_changes":[5.705375E4,5.3565113E4,4.0923794E3,1.427439E3,6.4038266E4,4.8053203E3,5.2683467E3,0E0,7.528004E2,3.6012817E3,6.4880516E4,7.980312E3,4.6124585E3,4.9574182E2,1.9955537E4,1.3662241E3,5.4307837E2,4.1849908E2,6.662241E3,6.0064797E4,0E0,3.4603835E3,6.27326E3,1.7815269E3,1.0409135E4,1.1883381E3,0E0,0E0,3.2797412E3,1.1410707E3,0E0,0E0,0E0,0E0,4.3680557E1,0E0,0E0,0E0,0E0,4.3736113E3,0E0,7.853178E1,1.274025E4,1.22313576E2,0E0,0E0,4.6929844E3,2.21422E2,2.7091807E3,9.034604E3,2.0521875E3,0E0,0E0,0E0,0E0,0E0,0E0,0E0,0E0,0E0,0E0,0E0,0E0,0E0,0E0,0E0,0E0,0E0,0E0,0E0,0E0,0E0,0E0],"parents":[2147483647,0,0,1,1,2,2,3,3,4,4,5,5,6,6,8,8,9,9,10,10,11,11,12,12,13,13,14,14,15,15,16,16,17,17,18,18,19,19,21,21,22,22,23,23,24,24,25,25,28,28,29,29,34,34,39,39,41,41,42,42,43,43,46,46,47,47,48,48,49,49,50,50],"right_children":[2,4,6,8,10,12,14,-1,16,18,20,22,24,26,28,30,32,34,36,38,-1,40,42,44,46,48,-1,-1,50,52,-1,-1,-1,-1,54,-1,-1,-1,-1,56,-1,58,60,62,-1,-1,64,66,68,70,72,-1,-1,-1,-1,-1,-1,-1,-1,-1,-1,-1,-1,-1,-1,-1,-1,-1,-1,-1,-1,-1,-1],"split_conditions":[2.7E1,2.2E1,1E0,7E0,1E0,3.2E1,4.4E1,1.1611304E1,1.9E1,2.4E1,1.5E1,3.1E1,3.7E1,1.9E1,5E1,1.5E1,1E0,3E0,2.5E1,2.3E1,-1.8641591E0,3E1,7E0,1.1E1,4E1,1.3E1,-5.715823E0,2.8747812E1,1.7E1,1.4E1,-3.5745714E0,1.23847965E-2,8.097553E0,4.558269E0,2.3E1,2.6683596E1,-1.727686E0,1.1530661E2,1.153426E1,2.9E1,-9.445471E0,3E0,1.6E1,3.4E1,-9.388922E0,2.1370913E1,1.6E1,4.1E1,3.8E1,1.5E1,1.01E2,9.484951E0,9.977022E-1,2.4081232E-1,-1.9822844E0,-6.1231837E0,9.183643E0,1.2232493E0,-1.4381902E0,3.735033E1,2.2509813E0,1.4469973E0,-1.6072385E0,-1.6485898E0,1.1528931E0,-1.5118576E0,-6.0236874E0,1.1057092E1,-4.9508724E0,-1.1792114E0,1.5365406E1,2.1290588E0,-6.1660547E0],"split_indices":[0,0,1,0,1,0,0,0,2,0,2,0,0,2,0,2,1,2,0,0,0,0,2,2,0,2,0,0,2,0,0,0,0,0,0,0,0,0,0,0,0,2,2,0,0,0,2,0,0,2,0,0,0,0,0,0,0,0,0,0,0,0,0,0,0,0,0,0,0,0,0,0,0],"split_type":[0,0,0,0,0,0,0,0,0,0,0,0,0,0,0,0,0,0,0,0,0,0,0,0,0,0,0,0,0,0,0,0,0,0,0,0,0,0,0,0,0,0,0,0,0,0,0,0,0,0,0,0,0,0,0,0,0,0,0,0,0,0,0,0,0,0,0,0,0,0,0,0,0],"sum_hessian":[2.9E2,2.2E1,2.68E2,1.4E1,8E0,2.37E2,3.1E1,1E0,1.3E1,5E0,3E0,1.2E1,2.25E2,9E0,2.2E1,1E1,3E0,3E0,2E0,2E0,1E0,7E0,5E0,9E0,2.16E2,7E0,2E0,2E0,2E1,7E0,3E0,1E0,2E0,1E0,2E0,1E0,1E0,1E0,1E0,5E0,2E0,2E0,3E0,3E0,6E0,1E0,2.15E2,5E0,2E0,1.1E1,9E0,1E0,6E0,1E0,1E0,2E0,3E0,1E0,1E0,1E0,2E0,1E0,2E0,1.17E2,9.8E1,4E0,1E0,1E0,1E0,7E0,4E0,5E0,4E0],"tree_param":{"num_deleted":"0","num_feature":"3","num_nodes":"73","size_leaf_vector":"1"}},{"base_weights":[4.417796E0,4.4797054E1,9.488715E-1,1.0983485E1,9.617555E1,6.606623E0,-1.1920596E0,9.86961E0,7.0682063E0,2.6229778E1,1.7705032E2,1.5233719E0,9.518268E1,-2.147935E1,4.8651952E-1,8.8912106E-1,1.3120275E1,3.9904642E0,4.713894E1,2.3958829E2,-1.5845352E0,5.1780925E0,-3.2630943E1,7.291221E1,-1.0535065E1,2.282705E0,-2.4100592E1,3.2820698E1,-9.943945E-1,-5.4182296E0,6.176357E0,8.462641E0,1.4431031E0,3.87453E0,-3.2894478E0,2.2681055E1,-1.4685328E0,9.801061E1,9.804122E0,-3.6381903E0,1.3837463E1,-5.4520973E1,-3.891222E0,-3.2490856E1,-1.3746536E1,-4.391141E-1,5.2864407E1,-2.137774E0,1.0501552E1,5.3818226E0,-6.3502353E-1,-7.3384786E0,4.210403E0,2.0469017E-1,-1.6849418E0,3.080829E0,-5.717063E0,4.6972218E1,-1.2663715E-1,-2.3410418E1,-1.124021E0,-3.780702E0,-1.3276998E1,-2.4765143E0,-6.0442014E0,-2.3337276E0,1.3801728E0,1.5494202E0,2.4882784E1,-1.3538343E0,3.9395598E-1,2.3327555E1,2.5015587E-1],"categories":[],"categories_nodes":[],"categories_segments":[],"categories_sizes":[],"default_left":[0,0,0,0,0,0,0,0,0,0,0,0,0,0,0,0,0,0,0,0,0,0,0,0,0,0,0,0,0,0,0,0,0,0,0,0,0,0,0,0,0,0,0,0,0,0,0,0,0,0,0,0,0,0,0,0,0,0,0,0,0,0,0,0,0,0,0,0,0,0,0,0,0],"id":12,"left_children":[1,3,5,7,9,11,13,-1,15,17,19,21,23,25,27,29,31,33,35,37,-1,39,41,-1,-1,-1,43,45,47,-1,49,-1,51,-1,53,-1,-1,-1,-1,55,57,59,-1,61,63,65,67,69,71,-1,-1,-1,-1,-1,-1,-1,-1,-1,-1,-1,-1,-1,-1,-1,-1,-1,-1,-1,-1,-1,-1,-1,-1],"loss_changes":[4.0718617E4,3.890134E4,3.2662341E3,1.0545277E3,4.626764E4,3.317382E4,6.6849995E3,0E0,5.1188202E2,2.6019263E3,4.687617E4,9.031505E3,8.5598164E4,1.3270962E3,8.74755E3,9.130898E2,1.1926311E3,3.0236578E2,4.8134688E3,4.3396797E4,0E0,5.0126685E3,2.3053599E3,0E0,0E0,0E0,7.6958936E2,5.356414E3,2.3226904E3,0E0,7.2083844E2,0E0,1.974215E3,0E0,3.1559185E1,0E0,0E0,0E0,0E0,7.2721304E3,6.723313E4,3.2893027E3,0E0,1.080293E3,1.148822E2,1.8375314E2,6.7452266E3,1.3172946E3,1.0338682E4,0E0,0E0,0E0,0E0,0E0,0E0,0E0,0E0,0E0,0E0,0E0,0E0,0E0,0E0,0E0,0E0,0E0,0E0,0E0,0E0,0E0,0E0,0E0,0E0],"parents":[2147483647,0,0,1,1,2,2,3,3,4,4,5,5,6,6,8,8,9,9,10,10,11,11,12,12,13,13,14,14,15,15,16,16,17,17,18,18,19,19,21,21,22,22,26,26,27,27,28,28,30,30,32,32,34,34,39,39,40,40,41,41,43,43,44,44,45,45,46,46,47,47,48,48],"right_children":[2,4,6,8,10,12,14,-1,16,18,20,22,24,26,28,30,32,34,36,38,-1,40,42,-1,-1,-1,44,46,48,-1,50,-1,52,-1,54,-1,-1,-1,-1,56,58,60,-1,62,64,66,68,70,72,-1,-1,-1,-1,-1,-1,-1,-1,-1,-1,-1,-1,-1,-1,-1,-1,-1,-1,-1,-1,-1,-1,-1,-1],"split_conditions":[2.7E1,2.2E1,5.6E1,7E0,1E0,5.5E1,6.1E1,9.86961E0,1.7E1,2.4E1,1.5E1,5.2E1,1.3E1,2E0,6.4E1,1.2E1,1.9E1,3E0,2.5E1,2.3E1,-1.5845352E0,1.3E1,1.3E1,7.291221E1,-1.0535065E1,2.282705E0,1.4E1,6.3E1,1E0,-5.4182296E0,1E0,8.462641E0,2E1,3.87453E0,2.3E1,2.2681055E1,-1.4685328E0,9.801061E1,9.804122E0,1E1,1.4E1,1E0,-3.891222E0,1E1,2.1E1,6E0,1.1E1,1.7E1,6.6E1,5.3818226E0,-6.3502353E-1,-7.3384786E0,4.210403E0,2.0469017E-1,-1.6849418E0,3.080829E0,-5.717063E0,4.6972218E1,-1.2663715E-1,-2.3410418E1,-1.124021E0,-3.780702E0,-1.3276998E1,-2.4765143E0,-6.0442014E0,-2.3337276E0,1.3801728E0,1.5494202E0,2.4882784E1,-1.3538343E0,3.9395598E-1,2.3327555E1,2.5015587E-1],"split_indices":[0,0,0,0,1,0,0,0,0,0,2,0,2,2,0,2,0,2,0,0,0,2,2,0,0,0,2,0,1,0,1,0,0,0,0,0,0,0,0,2,2,1,0,2,2,2,2,2,0,0,0,0,0,0,0,0,0,0,0,0,0,0,0,0,0,0,0,0,0,0,0,0,0],"split_type":[0,0,0,0,0,0,0,0,0,0,0,0,0,0,0,0,0,0,0,0,0,0,0,0,0,0,0,0,0,0,0,0,0,0,0,0,0,0,0,0,0,0,0,0,0,0,0,0,0,0,0,0,0,0,0,0,0,0,0,0,0,0,0,0,0,0,0,0,0,0,0,0,0],"sum_hessian":[2.9E2,2.2E1,2.68E2,1.4E1,8E0,7.3E1,1.95E2,1E0,1.3E1,5E0,3E0,7E1,3E0,1.4E1,1.81E2,7E0,6E0,3E0,2E0,2E0,1E0,6.4E1,6E0,1E0,2E0,1E0,1.3E1,7E0,1.74E2,1E0,6E0,2E0,4E0,1E0,2E0,1E0,1E0,1E0,1E0,3.2E1,3.2E1,2E0,4E0,6E0,7E0,3E0,4E0,1.59E2,1.5E1,2E0,4E0,1E0,3E0,1E0,1E0,1.7E1,1.5E1,2E0,3E1,1E0,1E0,3E0,3E0,5E0,2E0,1E0,2E0,2E0,2E0,9.4E1,6.5E1,1E0,1.4E1],"tree_param":{"num_deleted":"0","num_feature":"3","num_nodes":"73","size_leaf_vector":"1"}},{"base_weights":[3.9423938E0,3.7634888E1,1.046967E0,8.6572895E0,8.174924E1,2.5549676E0,-7.401304E0,8.38917E0,5.280825E0,2.2295313E1,1.504928E2,4.8698587E0,-4.6833534E0,8.868699E0,-9.064453E0,2.0264032E0,1.2910278E1,3.3918915E0,4.0068104E1,2.0365009E2,-1.3468552E0,2.776047E0,2.4043528E1,-1.2368014E0,-9.959547E0,-1.3911109E1,3.4036703E0,7.771E0,-2.9908173E0,-7.9674685E-1,1.8984253E1,3.2933488E0,-2.7960308E0,1.92789E1,-1.2482529E0,8.330904E1,8.333506E0,4.792443E0,-2.2156141E1,9.210106E0,2.705884E1,-1.7806974E1,4.900547E0,-8.879231E0,-1.0962785E1,1.5996355E1,-5.9816656E0,-3.565903E-2,6.2881184E0,1.769664E0,6.77325E0,1.7398682E-1,-1.4322007E0,-2.7377522E-1,3.5423682E0,-8.835777E0,-6.002827E-2,2.2400087E1,-1.9811369E0,-1.1859913E0,-9.328767E0,6.286768E-1,1.1077958E1,2.706025E0,-4.1884274E0,1.730005E0,-6.3699064E0],"categories":[],"categories_nodes":[],"categories_segments":[],"categories_sizes":[],"default_left":[0,0,0,0,0,0,0,0,0,0,0,0,0,0,0,0,0,0,0,0,0,0,0,0,0,0,0,0,0,0,0,0,0,0,0,0,0,0,0,0,0,0,0,0,0,0,0,0,0,0,0,0,0,0,0,0,0,0,0,0,0,0,0,0,0,0,0],"id":13,"left_children":[1,3,5,7,9,11,13,-1,15,17,19,21,23,-1,25,27,29,31,33,35,-1,37,39,41,-1,43,45,47,-1,-1,49,-1,51,-1,-1,-1,-1,53,55,57,-1,59,61,-1,63,-1,65,-1,-1,-1,-1,-1,-1,-1,-1,-1,-1,-1,-1,-1,-1,-1,-1,-1,-1,-1,-1],"loss_changes":[2.8348855E4,2.8693814E4,3.4459695E3,8.301487E2,3.3428383E4,3.859914E3,2.7884834E3,0E0,3.2145102E2,1.8798923E3,3.3868047E4,6.918668E3,5.4625586E3,0E0,2.464497E3,8.354931E2,4.286112E2,2.184591E2,3.477733E3,3.135421E4,0E0,8.049342E3,1.5850864E4,5.273807E3,0E0,1.0167324E3,5.940861E3,8.3499146E2,0E0,0E0,7.875E0,0E0,2.2801529E1,0E0,0E0,0E0,0E0,5.894207E3,1.9165215E3,1.602E4,0E0,2.4544712E3,3.3362146E3,0E0,1.6838896E3,0E0,2.0934048E3,0E0,0E0,0E0,0E0,0E0,0E0,0E0,0E0,0E0,0E0,0E0,0E0,0E0,0E0,0E0,0E0,0E0,0E0,0E0,0E0],"parents":[2147483647,0,0,1,1,2,2,3,3,4,4,5,5,6,6,8,8,9,9,10,10,11,11,12,12,14,14,15,15,16,16,17,17,18,18,19,19,21,21,22,22,23,23,25,25,26,26,27,27,30,30,32,32,37,37,38,38,39,39,41,41,42,42,44,44,46,46],"right_children":[2,4,6,8,10,12,14,-1,16,18,20,22,24,-1,26,28,30,32,34,36,-1,38,40,42,-1,44,46,48,-1,-1,50,-1,52,-1,-1,-1,-1,54,56,58,-1,60,62,-1,64,-1,66,-1,-1,-1,-1,-1,-1,-1,-1,-1,-1,-1,-1,-1,-1,-1,-1,-1,-1,-1,-1],"split_conditions":[2.7E1,2.2E1,2.1E1,7E0,1E0,9.7E1,3.2E1,8.38917E0,1.9E1,2.4E1,1.5E1,2E1,2E1,8.868699E0,9.6E1,1.5E1,1E0,3E0,2.5E1,2.3E1,-1.3468552E0,1.9E1,9E1,1.02E2,-9.959547E0,3.6E1,1.01E2,2E1,-2.9908173E0,-7.9674685E-1,1.3E1,3.2933488E0,2.3E1,1.92789E1,-1.2482529E0,8.330904E1,8.333506E0,1.3E1,8.3E1,4.2E1,2.705884E1,1.6E1,1.9E1,-8.879231E0,4.1E1,1.5996355E1,1.14E2,-3.565903E-2,6.2881184E0,1.769664E0,6.77325E0,1.7398682E-1,-1.4322007E0,-2.7377522E-1,3.5423682E0,-8.835777E0,-6.002827E-2,2.2400087E1,-1.9811369E0,-1.1859913E0,-9.328767E0,6.286768E-1,1.1077958E1,2.706025E0,-4.1884274E0,1.730005E0,-6.3699064E0],"split_indices":[0,0,2,0,1,0,0,0,2,0,2,2,2,0,0,2,1,2,0,0,0,2,0,0,0,0,0,0,0,0,0,0,0,0,0,0,0,2,0,0,0,2,2,0,0,0,0,0,0,0,0,0,0,0,0,0,0,0,0,0,0,0,0,0,0,0,0],"split_type":[0,0,0,0,0,0,0,0,0,0,0,0,0,0,0,0,0,0,0,0,0,0,0,0,0,0,0,0,0,0,0,0,0,0,0,0,0,0,0,0,0,0,0,0,0,0,0,0,0,0,0,0,0,0,0,0,0,0,0,0,0,0,0,0,0,0,0],"sum_hessian":[2.9E2,2.2E1,2.68E2,1.4E1,8E0,2.28E2,4E1,1E0,1.3E1,5E0,3E0,1.73E2,5.5E1,1E0,3.9E1,1E1,3E0,3E0,2E0,2E0,1E0,1.57E2,1.6E1,5E1,5E0,2.8E1,1.1E1,7E0,3E0,1E0,2E0,1E0,2E0,1E0,1E0,1E0,1E0,1.46E2,1.1E1,1.4E1,2E0,1.3E1,3.7E1,3E0,2.5E1,1E0,1E1,5E0,2E0,1E0,1E0,1E0,1E0,8.1E1,6.5E1,8E0,3E0,2E0,1.2E1,7E0,6E0,3.5E1,2E0,3E0,2.2E1,6E0,4E0],"tree_param":{"num_deleted":"0","num_feature":"3","num_nodes":"67","size_leaf_vector":"1"}},{"base_weights":[3.3531635E0,3.1986092E1,8.9252955E-1,7.353234E0,6.948685E1,2.9479449E0,-2.7240415E0,1.7217524E1,2.2009902E0,1.8951015E1,1.2791888E2,8.57435E-1,2.8450531E1,-1.58554E1,-5.2918184E-1,9.594049E0,-3.2842915E0,-8.633327E0,1.2668475E1,2.883113E0,3.405788E1,1.7310255E2,-1.1448269E0,5.0727725E0,-2.7378802E0,-5.339148E0,5.817585E1,-9.90826E0,-2.8246185E1,3.4263355E1,-2.670336E0,1.5042161E0,-2.9821472E0,-1.0829966E1,3.5248032E-1,2.0189564E0,1.7488495E1,2.7993486E0,-2.3766239E0,1.6387062E1,-1.061015E0,7.0812675E1,7.0834813E0,5.641294E-1,8.383299E1,-8.526125E0,3.1125891E0,6.2294025E0,-1.1212568E1,1.15831406E2,-1.4023668E1,-1.56129265E1,3.1525486E0,-3.5286713E-1,-1.106323E1,-4.8632364E0,2.8615458E1,-9.997941E0,-6.4499843E-1,-9.450583E-1,-6.2323575E0,1.0472489E-1,8.038056E-1,7.193262E0,2.1998904E0,1.4788972E-1,-1.2173705E0,1.0557144E0,-8.086497E0,6.201644E1,-7.8110948E0,2.065951E0,-3.4884448E0,2.9654658E0,-3.631662E0,-3.7172043E0,8.693913E0,4.9242386E1,-4.364731E0,-7.9607997E0,3.5269983E0,-2.706626E0,-1.0250948E1,-2.547598E0,9.03455E-1,5.3798456E0,-4.9214658E-1],"categories":[],"categories_nodes":[],"categories_segments":[],"categories_sizes":[],"default_left":[0,0,0,0,0,0,0,0,0,0,0,0,0,0,0,0,0,0,0,0,0,0,0,0,0,0,0,0,0,0,0,0,0,0,0,0,0,0,0,0,0,0,0,0,0,0,0,0,0,0,0,0,0,0,0,0,0,0,0,0,0,0,0,0,0,0,0,0,0,0,0,0,0,0,0,0,0,0,0,0,0,0,0,0,0,0,0],"id":14,"left_children":[1,3,5,7,9,11,13,15,17,19,21,23,25,27,29,-1,31,33,35,37,39,41,-1,43,45,47,49,51,53,55,57,-1,-1,59,-1,61,63,-1,65,-1,-1,-1,-1,67,69,71,73,75,-1,77,79,81,-1,-1,-1,83,-1,-1,85,-1,-1,-1,-1,-1,-1,-1,-1,-1,-1,-1,-1,-1,-1,-1,-1,-1,-1,-1,-1,-1,-1,-1,-1,-1,-1,-1,-1],"loss_changes":[2.0473898E4,2.0735314E4,2.0076567E3,7.244528E2,2.4152004E4,9.145512E3,2.8161152E3,1.6183367E3,1.3568595E3,1.358221E3,2.4469664E4,2.4387634E3,1.3367925E4,7.517859E2,6.423671E3,0E0,2.1554846E2,1.4199573E2,2.7267682E2,1.578368E2,2.5126606E3,2.2653398E4,0E0,2.6230236E4,2.9727017E3,2.8271023E3,3.0763303E4,1.445247E3,8.912141E2,1.2421258E4,5.0077153E3,0E0,0E0,3.164159E2,0E0,2.3730135E0,8.777222E1,0E0,1.6474138E1,0E0,0E0,0E0,0E0,5.868345E3,5.938942E4,2.183733E3,4.654376E3,2.9007542E3,0E0,2.7582766E4,1.6022627E3,7.9246704E2,0E0,0E0,0E0,1.3987604E2,0E0,0E0,1.4534589E3,0E0,0E0,0E0,0E0,0E0,0E0,0E0,0E0,0E0,0E0,0E0,0E0,0E0,0E0,0E0,0E0,0E0,0E0,0E0,0E0,0E0,0E0,0E0,0E0,0E0,0E0,0E0,0E0],"parents":[2147483647,0,0,1,1,2,2,3,3,4,4,5,5,6,6,7,7,8,8,9,9,10,10,11,11,12,12,13,13,14,14,16,16,17,17,18,18,19,19,20,20,21,21,23,23,24,24,25,25,26,26,27,27,28,28,29,29,30,30,33,33,35,35,36,36,38,38,43,43,44,44,45,45,46,46,47,47,49,49,50,50,51,51,55,55,58,58],"right_children":[2,4,6,8,10,12,14,16,18,20,22,24,26,28,30,-1,32,34,36,38,40,42,-1,44,46,48,50,52,54,56,58,-1,-1,60,-1,62,64,-1,66,-1,-1,-1,-1,68,70,72,74,76,-1,78,80,82,-1,-1,-1,84,-1,-1,86,-1,-1,-1,-1,-1,-1,-1,-1,-1,-1,-1,-1,-1,-1,-1,-1,-1,-1,-1,-1,-1,-1,-1,-1,-1,-1,-1,-1],"split_conditions":[2.7E1,2.2E1,8.5E1,1.4E1,1E0,8.2E1,9E1,1E0,1E0,2.4E1,1.5E1,5.6E1,1.6E1,2E1,9.1E1,9.594049E0,1.3E1,2E1,1.7E1,3E0,2.5E1,2.3E1,-1.1448269E0,5.5E1,1.5E1,1.5E1,1.8E1,1.9E1,8.8E1,1.4E1,9.3E1,1.5042161E0,-2.9821472E0,1.9E1,3.5248032E-1,1.3E1,1.5E1,2.7993486E0,2.3E1,1.6387062E1,-1.061015E0,7.0812675E1,7.0834813E0,5.2E1,1.3E1,2E0,7.2E1,9E0,-1.1212568E1,1E0,8.3E1,1.8E1,3.1525486E0,-3.5286713E-1,-1.106323E1,1E1,2.8615458E1,-9.997941E0,9.4E1,-9.450583E-1,-6.2323575E0,1.0472489E-1,8.038056E-1,7.193262E0,2.1998904E0,1.4788972E-1,-1.2173705E0,1.0557144E0,-8.086497E0,6.201644E1,-7.8110948E0,2.065951E0,-3.4884448E0,2.9654658E0,-3.631662E0,-3.7172043E0,8.693913E0,4.9242386E1,-4.364731E0,-7.9607997E0,3.5269983E0,-2.706626E0,-1.0250948E1,-2.547598E0,9.03455E-1,5.3798456E0,-4.9214658E-1],"split_indices":[0,0,0,0,1,0,0,1,1,0,2,0,2,2,0,0,0,0,0,2,0,0,0,0,2,2,2,2,0,2,0,0,0,0,0,2,2,0,0,0,0,0,0,0,2,2,0,2,0,1,0,2,0,0,0,2,0,0,0,0,0,0,0,0,0,0,0,0,0,0,0,0,0,0,0,0,0,0,0,0,0,0,0,0,0,0,0],"split_type":[0,0,0,0,0,0,0,0,0,0,0,0,0,0,0,0,0,0,0,0,0,0,0,0,0,0,0,0,0,0,0,0,0,0,0,0,0,0,0,0,0,0,0,0,0,0,0,0,0,0,0,0,0,0,0,0,0,0,0,0,0,0,0,0,0,0,0,0,0,0,0,0,0,0,0,0,0,0,0,0,0,0,0,0,0,0,0],"sum_hessian":[2.9E2,2.2E1,2.68E2,1.4E1,8E0,1.71E2,9.7E1,4E0,1E1,5E0,3E0,1.59E2,1.2E1,1.3E1,8.4E1,2E0,2E0,5E0,5E0,3E0,2E0,2E0,1E0,7.3E1,8.6E1,6E0,6E0,1E1,3E0,4E0,8E1,1E0,1E0,4E0,1E0,2E0,3E0,1E0,2E0,1E0,1E0,1E0,1E0,7E1,3E0,4.3E1,4.3E1,5E0,1E0,3E0,3E0,8E0,2E0,1E0,2E0,3E0,1E0,4E0,7.6E1,3E0,1E0,1E0,1E0,1E0,2E0,1E0,1E0,6.4E1,6E0,1E0,2E0,7E0,3.6E1,3E1,1.3E1,3E0,2E0,2E0,1E0,2E0,1E0,7E0,1E0,2E0,1E0,3E0,7.3E1],"tree_param":{"num_deleted":"0","num_feature":"3","num_nodes":"87","size_leaf_vector":"1"}},{"base_weights":[2.984101E0,2.6972883E1,9.219223E-1,5.9201217E0,5.906383E1,-9.495893E-2,8.456166E0,1.3675488E1,1.8567619E0,1.6108358E1,1.0873108E2,1.3112375E1,-8.5425264E-1,-7.075502E0,1.4841407E1,7.6752386E0,-2.7916462E0,-7.180816E0,1.058488E1,2.4506464E0,2.8949188E1,1.4713722E2,-9.731026E-1,-8.321894E0,3.2673447E1,4.074703E-1,-8.245768E0,-1.6507547E0,-4.4399805E0,2.8790552E1,6.7916064E0,1.2785844E0,-2.5348253E0,-9.016458E0,2.9960862E-1,1.7161154E0,1.4590233E1,2.3794465E0,-2.0201302E0,1.3928998E1,-9.0186286E-1,6.01908E1,6.0209565E0,-8.85582E-2,-1.4474755E1,3.033352E1,-1.4924215E1,-2.7186527E0,5.7422714E0,-1.4496191E1,-6.986811E-1,-9.248456E0,1.1562332E1,1.9672894E1,-5.3118694E-1,-7.324199E-1,-5.2975035E0,8.901673E-2,6.8323517E-1,6.1142716E0,1.7599121E0,1.257065E-1,-1.0347651E0,5.5399704E-1,-4.0475467E-1,4.603472E-1,-6.096801E0,-9.286599E0,7.3800364E0,-3.8755673E-3,-8.323686E0,-1.2143418E1,2.5015469E0,-1.0695419E0,-5.8993864E0,1.1471423E1,-1.753101E0,-4.4240573E-1,-4.1818223E0,8.72781E0,-3.5247598E0,1.3586359E0,1.8852247E1,-3.775131E0,2.0260446E0],"categories":[],"categories_nodes":[],"categories_segments":[],"categories_sizes":[],"default_left":[0,0,0,0,0,0,0,0,0,0,0,0,0,0,0,0,0,0,0,0,0,0,0,0,0,0,0,0,0,0,0,0,0,0,0,0,0,0,0,0,0,0,0,0,0,0,0,0,0,0,0,0,0,0,0,0,0,0,0,0,0,0,0,0,0,0,0,0,0,0,0,0,0,0,0,0,0,0,0,0,0,0,0,0,0],"id":15,"left_children":[1,3,5,7,9,11,13,15,17,19,21,23,25,27,29,-1,31,33,35,37,39,41,-1,43,45,47,49,51,-1,-1,53,-1,-1,55,-1,57,59,-1,61,-1,-1,-1,-1,63,65,-1,67,69,71,73,75,77,79,81,83,-1,-1,-1,-1,-1,-1,-1,-1,-1,-1,-1,-1,-1,-1,-1,-1,-1,-1,-1,-1,-1,-1,-1,-1,-1,-1,-1,-1,-1,-1],"loss_changes":[1.4370658E4,1.5189205E4,2.061728E3,4.4730054E2,1.7449842E4,2.3979236E3,3.2785603E3,1.0519275E3,9.436995E2,9.813141E2,1.767934E4,5.72251E3,2.111046E3,3.9459988E2,1.4368529E4,0E0,1.5573383E2,9.909259E1,1.8809668E2,1.1403711E2,1.8153962E3,1.6367113E4,0E0,3.5332816E2,2.4311531E4,3.2509966E3,1.5465637E3,8.0965735E2,0E0,0E0,2.085644E3,0E0,0E0,2.4099344E2,0E0,1.7144947E0,8.250604E1,0E0,1.1902574E1,0E0,0E0,0E0,0E0,1.2249789E1,4.0566766E2,0E0,3.9296006E3,8.328749E3,8.977386E3,9.4682764E2,3.4287173E3,1.6177563E2,1.5677948E3,4.945325E3,1.4019702E3,0E0,0E0,0E0,0E0,0E0,0E0,0E0,0E0,0E0,0E0,0E0,0E0,0E0,0E0,0E0,0E0,0E0,0E0,0E0,0E0,0E0,0E0,0E0,0E0,0E0,0E0,0E0,0E0,0E0,0E0],"parents":[2147483647,0,0,1,1,2,2,3,3,4,4,5,5,6,6,7,7,8,8,9,9,10,10,11,11,12,12,13,13,14,14,16,16,17,17,18,18,19,19,20,20,21,21,23,23,24,24,25,25,26,26,27,27,30,30,33,33,35,35,36,36,38,38,43,43,44,44,46,46,47,47,48,48,49,49,50,50,51,51,52,52,53,53,54,54],"right_children":[2,4,6,8,10,12,14,16,18,20,22,24,26,28,30,-1,32,34,36,38,40,42,-1,44,46,48,50,52,-1,-1,54,-1,-1,56,-1,58,60,-1,62,-1,-1,-1,-1,64,66,-1,68,70,72,74,76,78,80,82,84,-1,-1,-1,-1,-1,-1,-1,-1,-1,-1,-1,-1,-1,-1,-1,-1,-1,-1,-1,-1,-1,-1,-1,-1,-1,-1,-1,-1,-1,-1],"split_conditions":[2.7E1,2.2E1,1E0,1.4E1,1E0,3.2E1,4.4E1,1E0,1E0,2.4E1,1.5E1,1.2E1,2.1E1,3.8E1,4.8E1,7.6752386E0,1.3E1,2E1,1.7E1,3E0,2.5E1,2.3E1,-9.731026E-1,3E1,1.6E1,1.6E1,7.9E1,3.6E1,-4.4399805E0,2.8790552E1,6.6E1,1.2785844E0,-2.5348253E0,1.9E1,2.9960862E-1,1.3E1,1.5E1,2.3794465E0,2.3E1,1.3928998E1,-9.0186286E-1,6.01908E1,6.0209565E0,2.8E1,3E0,3.033352E1,1.9E1,1.5E1,4.1E1,2.2E1,8.1E1,1.1E1,1.9E1,6.4E1,8.3E1,-7.324199E-1,-5.2975035E0,8.901673E-2,6.8323517E-1,6.1142716E0,1.7599121E0,1.257065E-1,-1.0347651E0,5.5399704E-1,-4.0475467E-1,4.603472E-1,-6.096801E0,-9.286599E0,7.3800364E0,-3.8755673E-3,-8.323686E0,-1.2143418E1,2.5015469E0,-1.0695419E0,-5.8993864E0,1.1471423E1,-1.753101E0,-4.4240573E-1,-4.1818223E0,8.72781E0,-3.5247598E0,1.3586359E0,1.8852247E1,-3.775131E0,2.0260446E0],"split_indices":[0,0,1,0,1,0,0,1,1,0,2,2,2,0,0,0,0,0,0,2,0,0,0,0,2,2,0,0,0,0,0,0,0,0,0,2,2,0,0,0,0,0,0,0,2,0,2,2,0,2,0,2,2,0,0,0,0,0,0,0,0,0,0,0,0,0,0,0,0,0,0,0,0,0,0,0,0,0,0,0,0,0,0,0,0],"split_type":[0,0,0,0,0,0,0,0,0,0,0,0,0,0,0,0,0,0,0,0,0,0,0,0,0,0,0,0,0,0,0,0,0,0,0,0,0,0,0,0,0,0,0,0,0,0,0,0,0,0,0,0,0,0,0,0,0,0,0,0,0,0,0,0,0,0,0,0,0,0,0,0,0,0,0,0,0,0,0,0,0,0,0,0,0],"sum_hessian":[2.9E2,2.2E1,2.68E2,1.4E1,8E0,2.37E2,3.1E1,4E0,1E1,5E0,3E0,1.2E1,2.25E2,9E0,2.2E1,2E0,2E0,5E0,5E0,3E0,2E0,2E0,1E0,6E0,6E0,1.93E2,3.2E1,6E0,3E0,1E0,2.1E1,1E0,1E0,4E0,1E0,2E0,3E0,1E0,2E0,1E0,1E0,1E0,1E0,3E0,3E0,2E0,4E0,1.22E2,7.1E1,1.7E1,1.5E1,4E0,2E0,7E0,1.4E1,3E0,1E0,1E0,1E0,1E0,2E0,1E0,1E0,1E0,2E0,1E0,2E0,3E0,1E0,1.11E2,1.1E1,3E0,6.8E1,6E0,1.1E1,1E0,1.4E1,2E0,2E0,1E0,1E0,6E0,1E0,5E0,9E0],"tree_param":{"num_deleted":"0","num_feature":"3","num_nodes":"85","size_leaf_vector":"1"}},{"base_weights":[2.570596E0,2.275368E1,8.353488E-1,4.7664266E0,5.0204247E1,2.6803772E0,-2.4113886E0,7.7739E0,-2.8033004E0,1.3692111E1,9.242139E1,1.0380118E0,2.2687925E1,-1.3883737E1,-4.9345604E-1,2.981302E0,5.8681183E0,-4.502878E0,4.0006714E0,2.0830479E0,2.4606825E1,1.250666E2,-8.2713723E-1,-2.7615392E-1,9.293967E0,-3.726362E0,4.586108E1,-2.1868258E0,-1.6875002E1,2.8880627E1,-2.3005788E0,-4.348525E0,6.9777355E0,1.2115112E1,-3.0513978E0,2.0225282E0,-1.7171097E0,1.1839655E1,-7.665834E-1,5.116216E1,5.1178117E0,1.0943257E1,-1.4224231E0,-5.3389654E0,1.9835148E1,-2.0043196E1,1.3522062E1,9.199441E1,-1.1737517E1,-2.0669782E0,1.7883717E0,-4.7602425E0,-2.0823006E1,-3.812395E0,2.3947906E1,-2.6478426E1,-7.0071125E-1,4.642976E0,-3.6506748E-1,2.5466767E-1,5.197133E0,1.068512E-1,-8.795506E-1,-1.3845998E0,8.95925E0,8.4894115E-1,-1.5113312E0,-6.610881E-1,-5.033552E0,2.4471973E1,2.3677611E0,-8.491064E0,7.106787E-1,-8.703034E-1,9.418693E0,3.88936E1,-3.1437516E0,-6.443485E0,2.622716E0,-3.8665147E0,2.9436264E0,-7.1287527E0,-3.6971856E-2,-2.0373032E0,7.6851773E-1,-8.816683E0,-2.2254548E0,9.969309E-2,-4.6928053E0],"categories":[],"categories_nodes":[],"categories_segments":[],"categories_sizes":[],"default_left":[0,0,0,0,0,0,0,0,0,0,0,0,0,0,0,0,0,0,0,0,0,0,0,0,0,0,0,0,0,0,0,0,0,0,0,0,0,0,0,0,0,0,0,0,0,0,0,0,0,0,0,0,0,0,0,0,0,0,0,0,0,0,0,0,0,0,0,0,0,0,0,0,0,0,0,0,0,0,0,0,0,0,0,0,0,0,0,0,0],"id":16,"left_children":[1,3,5,7,9,11,13,15,17,19,21,23,25,27,29,31,-1,-1,33,35,37,39,-1,41,43,45,47,49,51,53,55,-1,57,59,-1,-1,61,-1,-1,-1,-1,63,65,67,69,71,73,75,77,-1,-1,79,81,83,-1,85,87,-1,-1,-1,-1,-1,-1,-1,-1,-1,-1,-1,-1,-1,-1,-1,-1,-1,-1,-1,-1,-1,-1,-1,-1,-1,-1,-1,-1,-1,-1,-1,-1],"loss_changes":[1.017258E4,1.1117192E4,1.6178604E3,3.632789E2,1.2607498E4,5.62832E3,2.1494617E3,5.630517E2,4.753048E2,7.0900037E2,1.2773316E4,1.7385175E3,8.1282256E3,4.52937E2,4.578461E3,7.2973175E2,0E0,0E0,5.832181E2,8.239171E1,1.3116251E3,1.1825223E4,0E0,1.8031707E3,3.4993638E3,2.241103E3,1.968029E4,1.943572E2,4.269978E2,8.63218E3,3.114636E3,0E0,5.7599255E2,1.6133981E2,0E0,0E0,8.599633E0,0E0,0E0,0E0,0E0,3.9648076E3,1.9666621E3,3.2169482E2,8.941264E3,8.07577E2,1.2652354E3,1.6791473E4,9.8573096E2,0E0,0E0,6.0024567E2,4.838479E2,9.334093E1,0E0,5.9363037E1,1.1937223E3,0E0,0E0,0E0,0E0,0E0,0E0,0E0,0E0,0E0,0E0,0E0,0E0,0E0,0E0,0E0,0E0,0E0,0E0,0E0,0E0,0E0,0E0,0E0,0E0,0E0,0E0,0E0,0E0,0E0,0E0,0E0,0E0],"parents":[2147483647,0,0,1,1,2,2,3,3,4,4,5,5,6,6,7,7,8,8,9,9,10,10,11,11,12,12,13,13,14,14,15,15,18,18,19,19,20,20,21,21,23,23,24,24,25,25,26,26,27,27,28,28,29,29,30,30,32,32,33,33,36,36,41,41,42,42,43,43,44,44,45,45,46,46,47,47,48,48,51,51,52,52,53,53,55,55,56,56],"right_children":[2,4,6,8,10,12,14,16,18,20,22,24,26,28,30,32,-1,-1,34,36,38,40,-1,42,44,46,48,50,52,54,56,-1,58,60,-1,-1,62,-1,-1,-1,-1,64,66,68,70,72,74,76,78,-1,-1,80,82,84,-1,86,88,-1,-1,-1,-1,-1,-1,-1,-1,-1,-1,-1,-1,-1,-1,-1,-1,-1,-1,-1,-1,-1,-1,-1,-1,-1,-1,-1,-1,-1,-1,-1,-1],"split_conditions":[2.7E1,2.2E1,8.5E1,1.9E1,1E0,8.2E1,9E1,1.7E1,2E1,2.4E1,1.5E1,1E0,1.6E1,8.6E1,9.1E1,1.2E1,5.8681183E0,-4.502878E0,1.5E1,3E0,2.5E1,2.3E1,-8.2713723E-1,3.2E1,4.4E1,8.4E1,1.8E1,1.5E1,1.4E1,1.4E1,9.3E1,-4.348525E0,1.6E1,1E0,-3.0513978E0,2.0225282E0,2.3E1,1.1839655E1,-7.665834E-1,5.116216E1,5.1178117E0,3.1E1,1.4E1,4.1E1,4.8E1,1E0,4E0,1E0,8.3E1,-2.0669782E0,1.7883717E0,1.2E1,2.1E1,1E1,2.3947906E1,1.9E1,2.3E1,4.642976E0,-3.6506748E-1,2.5466767E-1,5.197133E0,1.068512E-1,-8.795506E-1,-1.3845998E0,8.95925E0,8.4894115E-1,-1.5113312E0,-6.610881E-1,-5.033552E0,2.4471973E1,2.3677611E0,-8.491064E0,7.106787E-1,-8.703034E-1,9.418693E0,3.88936E1,-3.1437516E0,-6.443485E0,2.622716E0,-3.8665147E0,2.9436264E0,-7.1287527E0,-3.6971856E-2,-2.0373032E0,7.6851773E-1,-8.816683E0,-2.2254548E0,9.969309E-2,-4.6928053E0],"split_indices":[0,0,0,0,1,0,0,0,0,0,2,1,2,0,0,2,0,0,2,2,0,0,0,0,0,0,2,2,2,2,0,0,2,1,0,0,0,0,0,0,0,0,2,0,0,1,2,1,0,0,0,2,2,2,0,2,2,0,0,0,0,0,0,0,0,0,0,0,0,0,0,0,0,0,0,0,0,0,0,0,0,0,0,0,0,0,0,0,0],"split_type":[0,0,0,0,0,0,0,0,0,0,0,0,0,0,0,0,0,0,0,0,0,0,0,0,0,0,0,0,0,0,0,0,0,0,0,0,0,0,0,0,0,0,0,0,0,0,0,0,0,0,0,0,0,0,0,0,0,0,0,0,0,0,0,0,0,0,0,0,0,0,0,0,0,0,0,0,0,0,0,0,0,0,0,0,0,0,0,0,0],"sum_hessian":[2.9E2,2.2E1,2.68E2,1.4E1,8E0,1.71E2,9.7E1,1E1,4E0,5E0,3E0,1.59E2,1.2E1,1.3E1,8.4E1,8E0,2E0,1E0,3E0,3E0,2E0,2E0,1E0,1.38E2,2.1E1,6E0,6E0,3E0,1E1,4E0,8E1,1E0,7E0,2E0,1E0,1E0,2E0,1E0,1E0,1E0,1E0,1.2E1,1.26E2,9E0,1.2E1,3E0,3E0,3E0,3E0,2E0,1E0,3E0,7E0,3E0,1E0,4E0,7.6E1,3E0,4E0,1E0,1E0,1E0,1E0,7E0,5E0,5.8E1,6.8E1,8E0,1E0,1E0,1.1E1,2E0,1E0,2E0,1E0,2E0,1E0,2E0,1E0,2E0,1E0,6E0,1E0,2E0,1E0,3E0,1E0,7.2E1,4E0],"tree_param":{"num_deleted":"0","num_feature":"3","num_nodes":"89","size_leaf_vector":"1"}},{"base_weights":[2.2492516E0,1.9035004E1,8.0567724E-1,3.5828314E0,4.2673622E1,4.506602E-2,6.437546E0,9.145474E0,7.286453E-1,1.1638304E1,7.85582E1,8.443049E-1,-5.74408E0,-4.3067408E0,1.0829082E1,5.2115936E0,-2.1295216E0,-5.4660125E0,6.8018622E0,1.7705908E0,2.091582E1,1.0630663E2,-7.0306665E-1,3.9774036E-1,9.457404E0,-1.8387543E1,3.0040112E0,-1.615994E0,-4.278519E0,5.7463398E1,3.6513653E0,1.1415573E0,-2.099842E0,-9.037997E0,-1.4205208E0,2.451468E0,4.2830753E0,1.7191498E0,-1.4595451E0,1.0063715E1,-6.51596E-1,4.3487843E1,4.350142E0,-3.8010776E0,1.7858983E0,-3.679019E0,-2.2881605E1,1.1585476E1,-3.8614094E0,2.5484052E0,-3.2382784E0,2.0801176E1,5.057355E0,6.4635453E0,-9.916286E0,-3.7085268E-1,-3.6962461E0,2.758667E0,-2.4073198E0,2.216145E0,-2.593689E0,9.082261E-2,-7.4761796E-1,1.1002718E0,-1.4564937E0,4.2950907E0,3.0510065E-1,-3.624571E0,9.4477314E-1,-7.6234884E0,-3.9621392E-1,2.147643E0,-4.732944E0,-2.3323655E0,2.4697495E0,4.8231882E-1,1.3351864E1,-4.0309298E-1,-3.697786E0],"categories":[],"categories_nodes":[],"categories_segments":[],"categories_sizes":[],"default_left":[0,0,0,0,0,0,0,0,0,0,0,0,0,0,0,0,0,0,0,0,0,0,0,0,0,0,0,0,0,0,0,0,0,0,0,0,0,0,0,0,0,0,0,0,0,0,0,0,0,0,0,0,0,0,0,0,0,0,0,0,0,0,0,0,0,0,0,0,0,0,0,0,0,0,0,0,0,0,0],"id":17,"left_children":[1,3,5,7,9,11,13,15,17,19,21,23,25,27,29,-1,31,33,35,37,39,41,-1,43,-1,45,47,49,-1,51,53,-1,-1,55,57,59,-1,-1,61,-1,-1,-1,-1,63,65,67,69,-1,71,73,-1,-1,-1,75,77,-1,-1,-1,-1,-1,-1,-1,-1,-1,-1,-1,-1,-1,-1,-1,-1,-1,-1,-1,-1,-1,-1,-1,-1],"loss_changes":[7.0360254E3,8.248271E3,1.1520151E3,2.3148842E2,9.10892E3,1.1060544E3,1.5565233E3,5.0076306E2,4.5101556E2,5.122537E2,9.228725E3,2.8646223E3,3.2628152E3,2.4481668E2,7.4889214E3,0E0,1.1333963E2,7.386394E1,1.6011719E2,5.9528095E1,9.4765076E2,8.543723E3,0E0,1.2191418E3,0E0,7.090305E2,4.550242E3,3.7150583E2,0E0,2.7755566E2,8.6534265E2,0E0,0E0,6.16053E1,3.5421796E2,3.3772528E2,0E0,0E0,6.213213E0,0E0,0E0,0E0,0E0,4.271095E2,1.4981489E3,2.6755728E2,4.5738428E2,0E0,2.213848E3,4.7474054E2,0E0,0E0,0E0,3.2535532E3,6.606714E1,0E0,0E0,0E0,0E0,0E0,0E0,0E0,0E0,0E0,0E0,0E0,0E0,0E0,0E0,0E0,0E0,0E0,0E0,0E0,0E0,0E0,0E0,0E0,0E0],"parents":[2147483647,0,0,1,1,2,2,3,3,4,4,5,5,6,6,7,7,8,8,9,9,10,10,11,11,12,12,13,13,14,14,16,16,17,17,18,18,19,19,20,20,21,21,23,23,25,25,26,26,27,27,29,29,30,30,33,33,34,34,35,35,38,38,43,43,44,44,45,45,46,46,48,48,49,49,53,53,54,54],"right_children":[2,4,6,8,10,12,14,16,18,20,22,24,26,28,30,-1,32,34,36,38,40,42,-1,44,-1,46,48,50,-1,52,54,-1,-1,56,58,60,-1,-1,62,-1,-1,-1,-1,64,66,68,70,-1,72,74,-1,-1,-1,76,78,-1,-1,-1,-1,-1,-1,-1,-1,-1,-1,-1,-1,-1,-1,-1,-1,-1,-1,-1,-1,-1,-1,-1,-1],"split_conditions":[2.7E1,2.2E1,1E0,1.4E1,1E0,1.14E2,4.4E1,1E0,1E0,2.4E1,1.5E1,1.12E2,1.37E2,4.1E1,5E1,5.2115936E0,1.3E1,1.7E1,1.9E1,3E0,2.5E1,2.3E1,-7.0306665E-1,1E1,9.457404E0,2E0,1.4E2,1.9E1,-4.278519E0,4.8E1,2.3E1,1.1415573E0,-2.099842E0,1.5E1,1.9E1,1.7E1,4.2830753E0,1.7191498E0,2.3E1,1.0063715E1,-6.51596E-1,4.3487843E1,4.350142E0,1E0,3.2E1,1.16E2,2.1E1,1.1585476E1,1.4E1,3.2E1,-3.2382784E0,2.0801176E1,5.057355E0,2.1E1,5.5E1,-3.7085268E-1,-3.6962461E0,2.758667E0,-2.4073198E0,2.216145E0,-2.593689E0,9.082261E-2,-7.4761796E-1,1.1002718E0,-1.4564937E0,4.2950907E0,3.0510065E-1,-3.624571E0,9.4477314E-1,-7.6234884E0,-3.9621392E-1,2.147643E0,-4.732944E0,-2.3323655E0,2.4697495E0,4.8231882E-1,1.3351864E1,-4.0309298E-1,-3.697786E0],"split_indices":[0,0,1,0,1,0,0,1,1,0,2,0,0,0,0,0,0,0,2,2,0,0,0,2,0,2,0,2,0,0,2,0,0,0,0,2,0,0,0,0,0,0,0,2,0,0,2,0,2,0,0,0,0,2,0,0,0,0,0,0,0,0,0,0,0,0,0,0,0,0,0,0,0,0,0,0,0,0,0],"split_type":[0,0,0,0,0,0,0,0,0,0,0,0,0,0,0,0,0,0,0,0,0,0,0,0,0,0,0,0,0,0,0,0,0,0,0,0,0,0,0,0,0,0,0,0,0,0,0,0,0,0,0,0,0,0,0,0,0,0,0,0,0,0,0,0,0,0,0,0,0,0,0,0,0,0,0,0,0,0,0],"sum_hessian":[2.9E2,2.2E1,2.68E2,1.4E1,8E0,2.37E2,3.1E1,4E0,1E1,5E0,3E0,2.09E2,2.8E1,9E0,2.2E1,2E0,2E0,5E0,5E0,3E0,2E0,2E0,1E0,2.07E2,2E0,1.1E1,1.7E1,8E0,1E0,2E0,2E1,1E0,1E0,2E0,3E0,4E0,1E0,1E0,2E0,1E0,1E0,1E0,1E0,5.1E1,1.56E2,3E0,8E0,2E0,1.5E1,6E0,2E0,1E0,1E0,1.7E1,3E0,1E0,1E0,1E0,2E0,3E0,1E0,1E0,1E0,6E0,4.5E1,8E0,1.48E2,1E0,2E0,7E0,1E0,8E0,7E0,2E0,4E0,1.6E1,1E0,1E0,2E0],"tree_param":{"num_deleted":"0","num_feature":"3","num_nodes":"79","size_leaf_vector":"1"}},{"base_weights":[1.9259094E0,1.6022438E1,7.1347046E-1,2.8041856E0,3.6272587E1,-1.5584996E1,9.5587796E-1,-2.9169092E0,4.4775352E0,9.892558E0,6.677448E1,3.4323122E-2,-6.2568808E0,9.765922E0,5.375391E-1,-2.7300086E0,2.344867E0,7.5565376E0,-1.3443756E0,1.5050039E0,1.7778444E1,9.036066E1,-5.976065E-1,-9.811465E0,3.0978554E1,-1.002163E1,1.0546396E0,4.1692753E0,3.126592E0,-3.4663491E0,4.096779E0,1.4612778E0,-1.240612E0,8.554157E0,-5.538566E-1,3.6964676E1,3.6976228E0,-3.8185132E0,-6.8653774E0,2.265033E1,-1.0157993E1,-5.7464743E0,-6.279483E0,3.9115364E1,4.1855022E-1,-3.30672E-1,3.6406128E0,3.1084688E0,-2.2046356E0,7.7199556E-2,-6.35475E-1,-2.6693726E-1,-1.518128E0,-6.919785E0,4.284881E0,3.578778E0,-3.4969695E0,1.7253572E1,-2.411141E0,-4.022617E0,3.6050308E-1],"categories":[],"categories_nodes":[],"categories_segments":[],"categories_sizes":[],"default_left":[0,0,0,0,0,0,0,0,0,0,0,0,0,0,0,0,0,0,0,0,0,0,0,0,0,0,0,0,0,0,0,0,0,0,0,0,0,0,0,0,0,0,0,0,0,0,0,0,0,0,0,0,0,0,0,0,0,0,0,0,0],"id":18,"left_children":[1,3,5,7,9,11,13,15,17,19,21,-1,-1,23,25,-1,-1,27,29,31,33,35,-1,37,39,41,43,-1,45,-1,47,-1,49,-1,-1,-1,-1,51,-1,-1,53,55,-1,57,59,-1,-1,-1,-1,-1,-1,-1,-1,-1,-1,-1,-1,-1,-1,-1,-1],"loss_changes":[4.9621016E3,6.054731E3,1.0776815E3,1.566614E2,6.5811973E3,3.334095E2,9.751157E2,3.3658478E2,2.2526698E2,3.7010315E2,6.667756E3,0E0,0E0,5.2874004E3,1.4029077E3,0E0,0E0,1.8127176E2,3.2511044E2,4.300905E1,6.8467737E2,6.172842E3,0E0,4.6104114E2,1.1755963E4,4.394193E2,5.890873E3,0E0,2.4195592E2,0E0,3.6296082E2,0E0,4.4890504E0,0E0,0E0,0E0,0E0,1.7320595E1,0E0,0E0,1.5913792E3,1.183706E3,0E0,3.9320034E3,2.625783E3,0E0,0E0,0E0,0E0,0E0,0E0,0E0,0E0,0E0,0E0,0E0,0E0,0E0,0E0,0E0,0E0],"parents":[2147483647,0,0,1,1,2,2,3,3,4,4,5,5,6,6,7,7,8,8,9,9,10,10,13,13,14,14,17,17,18,18,19,19,20,20,21,21,23,23,24,24,25,25,26,26,28,28,30,30,32,32,37,37,40,40,41,41,43,43,44,44],"right_children":[2,4,6,8,10,12,14,16,18,20,22,-1,-1,24,26,-1,-1,28,30,32,34,36,-1,38,40,42,44,-1,46,-1,48,-1,50,-1,-1,-1,-1,52,-1,-1,54,56,-1,58,60,-1,-1,-1,-1,-1,-1,-1,-1,-1,-1,-1,-1,-1,-1,-1,-1],"split_conditions":[2.7E1,2.2E1,2.9E1,1.3E1,1E0,1.2E1,3.2E1,1.7E1,1.8E1,2.4E1,1.5E1,3.4323122E-2,-6.2568808E0,1.2E1,3.7E1,-2.7300086E0,2.344867E0,1.6E1,2E1,3E0,2.5E1,2.3E1,-5.976065E-1,1.1E1,1.6E1,2.2E1,4E1,4.1692753E0,1.7E1,-3.4663491E0,1.5E1,1.4612778E0,2.3E1,8.554157E0,-5.538566E-1,3.6964676E1,3.6976228E0,3E1,-6.8653774E0,2.265033E1,1.9E1,3.4E1,-6.279483E0,1.9E1,4.4E1,-3.30672E-1,3.6406128E0,3.1084688E0,-2.2046356E0,7.7199556E-2,-6.35475E-1,-2.6693726E-1,-1.518128E0,-6.919785E0,4.284881E0,3.578778E0,-3.4969695E0,1.7253572E1,-2.411141E0,-4.022617E0,3.6050308E-1],"split_indices":[0,0,0,2,1,2,0,0,0,0,2,0,0,2,0,0,0,2,0,2,0,0,0,2,2,2,0,0,0,0,2,0,0,0,0,0,0,0,0,0,2,0,0,2,0,0,0,0,0,0,0,0,0,0,0,0,0,0,0,0,0],"split_type":[0,0,0,0,0,0,0,0,0,0,0,0,0,0,0,0,0,0,0,0,0,0,0,0,0,0,0,0,0,0,0,0,0,0,0,0,0,0,0,0,0,0,0,0,0,0,0,0,0,0,0,0,0,0,0,0,0,0,0,0,0],"sum_hessian":[2.9E2,2.2E1,2.68E2,1.4E1,8E0,3E0,2.65E2,3E0,1.1E1,5E0,3E0,1E0,2E0,1.1E1,2.54E2,2E0,1E0,7E0,4E0,3E0,2E0,2E0,1E0,6E0,5E0,1.1E1,2.43E2,2E0,5E0,1E0,3E0,1E0,2E0,1E0,1E0,1E0,1E0,5E0,1E0,2E0,3E0,9E0,2E0,3E0,2.4E2,4E0,1E0,2E0,1E0,1E0,1E0,2E0,3E0,2E0,1E0,2E0,7E0,2E0,1E0,1.2E1,2.28E2],"tree_param":{"num_deleted":"0","num_feature":"3","num_nodes":"61","size_leaf_vector":"1"}},{"base_weights":[1.5667769E0,1.0480626E-1,1.0231678E1,4.2444515E0,-9.254776E-1,2.1994429E1,-4.4165587E-1,-7.2615333E0,1.514465E1,-1.47060795E1,6.784898E-1,7.560185E0,4.7720856E1,-5.625902E0,8.247828E0,1.3052211E0,-4.1789597E1,3.254881E-1,1.2864973E2,-2.881867E1,-3.8045864E0,7.192163E1,-9.262914E-1,1.3864932E1,-3.1569664E0,8.430275E1,-7.912512E-1,1.3071088E0,-1.0393144E1,2.2483688E1,-2.6173847E0,-2.613025E0,1.4366213E1,1.5692803E0,-1.645574E1,-1.4130937E1,1.5959491E1,8.2005356E1,-2.4112972E1,-4.58396E0,-2.2728033E1,-1.1371875E1,1.057745E1,5.2487377E1,-2.0743103E1,-1.5228597E1,2.9285142E-1,9.089384E-1,1.7626932E1,-8.623366E0,3.6262553E0,3.618869E0,3.1308521E1,6.4724433E-1,-1.4456172E0,-3.5409324E0,4.5593033E0,6.6937256E0,-4.8694057E0,-2.04947E0,1.0359789E1,3.0945191E0,-7.2668867E0,-1.587785E0,6.039066E0,1.6144985E1,-2.685162E0,2.4504774E0,-2.73553E1,-2.0941966E0,2.6132044E1,1.8999757E0,-3.0652487E0,-3.5546798E-1,-7.142814E0,1.113696E1,-1.6019362E0,-1.3226337E0,-8.011763E0,-9.3802404E-1,-5.926999E0,1.0602365E1,-3.0698773E-1,1.1783073E0,-3.0333493E0,-4.51244E-1,-3.8604393E0,1.0199203E0,-1.6827039E0,6.907196E-2,2.9431047E0,-6.031136E-1,-3.0303302E0],"categories":[],"categories_nodes":[],"categories_segments":[],"categories_sizes":[],"default_left":[0,0,0,0,0,0,0,0,0,0,0,0,0,0,0,0,0,0,0,0,0,0,0,0,0,0,0,0,0,0,0,0,0,0,0,0,0,0,0,0,0,0,0,0,0,0,0,0,0,0,0,0,0,0,0,0,0,0,0,0,0,0,0,0,0,0,0,0,0,0,0,0,0,0,0,0,0,0,0,0,0,0,0,0,0,0,0,0,0,0,0,0,0],"id":19,"left_children":[1,3,5,7,9,11,13,15,17,19,21,23,25,27,29,31,33,35,37,39,41,43,45,47,49,51,53,55,57,59,61,63,65,-1,-1,67,69,-1,-1,71,-1,73,75,-1,77,79,81,83,-1,85,-1,-1,-1,-1,-1,87,-1,89,-1,-1,-1,-1,91,-1,-1,-1,-1,-1,-1,-1,-1,-1,-1,-1,-1,-1,-1,-1,-1,-1,-1,-1,-1,-1,-1,-1,-1,-1,-1,-1,-1,-1,-1],"loss_changes":[3.6852666E3,1.0701805E3,5.2827207E3,6.3808486E3,4.452809E3,7.066052E3,1.0825153E3,7.4493804E3,4.3691434E4,3.1211719E3,2.076029E4,9.89736E2,1.2489357E4,5.09355E2,1.4509292E3,1.112239E3,3.358044E3,5.649805E3,1.12710234E5,9.891227E3,1.5351146E3,4.1820492E4,3.108166E3,5.1811206E3,6.0422974E2,4.537326E3,5.7900055E1,5.252083E2,1.00645856E3,1.6487827E3,4.3573508E2,1.1425657E3,5.080964E3,0E0,0E0,2.308179E4,2.019362E4,0E0,0E0,4.9522748E2,0E0,1.1120941E3,2.3109048E3,0E0,1.7445325E2,7.053977E2,7.6473975E3,3.058492E2,0E0,1.3174152E2,0E0,0E0,0E0,0E0,0E0,1.051923E2,0E0,5.8173996E1,0E0,0E0,0E0,0E0,5.418329E1,0E0,0E0,0E0,0E0,0E0,0E0,0E0,0E0,0E0,0E0,0E0,0E0,0E0,0E0,0E0,0E0,0E0,0E0,0E0,0E0,0E0,0E0,0E0,0E0,0E0,0E0,0E0,0E0,0E0,0E0],"parents":[2147483647,0,0,1,1,2,2,3,3,4,4,5,5,6,6,7,7,8,8,9,9,10,10,11,11,12,12,13,13,14,14,15,15,16,16,17,17,18,18,19,19,20,20,21,21,22,22,23,23,24,24,25,25,26,26,27,27,28,28,29,29,30,30,31,31,32,32,35,35,36,36,39,39,41,41,42,42,44,44,45,45,46,46,47,47,49,49,55,55,57,57,62,62],"right_children":[2,4,6,8,10,12,14,16,18,20,22,24,26,28,30,32,34,36,38,40,42,44,46,48,50,52,54,56,58,60,62,64,66,-1,-1,68,70,-1,-1,72,-1,74,76,-1,78,80,82,84,-1,86,-1,-1,-1,-1,-1,88,-1,90,-1,-1,-1,-1,92,-1,-1,-1,-1,-1,-1,-1,-1,-1,-1,-1,-1,-1,-1,-1,-1,-1,-1,-1,-1,-1,-1,-1,-1,-1,-1,-1,-1,-1,-1],"split_conditions":[1E0,4.5E1,1.6E1,1.3E1,5.5E1,1.3E1,2.2E1,4.4E1,4.4E1,1.3E1,5.6E1,4.8E1,6.6E1,3.8E1,2.3E1,3.6E1,7E0,1.9E1,1.4E1,1.1E1,5E1,1.3E1,6.1E1,4.4E1,6.7E1,2.2E1,8.4E1,3.6E1,1.7E1,3.8E1,1.8E1,1.2E1,4E1,1.5692803E0,-1.645574E1,3.6E1,4.1E1,8.2005356E1,-2.4112972E1,4.8E1,-2.2728033E1,1.9E1,5.2E1,5.2487377E1,2.1E1,1E1,6.4E1,4.1E1,1.7626932E1,5.9E1,3.6262553E0,3.618869E0,3.1308521E1,6.4724433E-1,-1.4456172E0,1.3E1,4.5593033E0,7.1E1,-4.8694057E0,-2.04947E0,1.0359789E1,3.0945191E0,5.5E1,-1.587785E0,6.039066E0,1.6144985E1,-2.685162E0,2.4504774E0,-2.73553E1,-2.0941966E0,2.6132044E1,1.8999757E0,-3.0652487E0,-3.5546798E-1,-7.142814E0,1.113696E1,-1.6019362E0,-1.3226337E0,-8.011763E0,-9.3802404E-1,-5.926999E0,1.0602365E1,-3.0698773E-1,1.1783073E0,-3.0333493E0,-4.51244E-1,-3.8604393E0,1.0199203E0,-1.6827039E0,6.907196E-2,2.9431047E0,-6.031136E-1,-3.0303302E0],"split_indices":[1,0,2,2,0,2,2,0,0,2,0,0,0,0,2,0,2,2,2,2,0,2,0,0,0,0,0,0,2,0,0,2,0,0,0,0,0,0,0,0,0,2,0,0,2,2,0,0,0,0,0,0,0,0,0,0,0,0,0,0,0,0,0,0,0,0,0,0,0,0,0,0,0,0,0,0,0,0,0,0,0,0,0,0,0,0,0,0,0,0,0,0,0],"split_type":[0,0,0,0,0,0,0,0,0,0,0,0,0,0,0,0,0,0,0,0,0,0,0,0,0,0,0,0,0,0,0,0,0,0,0,0,0,0,0,0,0,0,0,0,0,0,0,0,0,0,0,0,0,0,0,0,0,0,0,0,0,0,0,0,0,0,0,0,0,0,0,0,0,0,0,0,0,0,0,0,0,0,0,0,0,0,0,0,0,0,0,0,0],"sum_hessian":[2.9E2,2.49E2,4.1E1,4.9E1,2E2,1.9E1,2.2E1,2.4E1,2.5E1,2E1,1.8E2,1.3E1,6E0,1.4E1,8E0,2E1,4E0,2.3E1,2E0,8E0,1.2E1,3E0,1.77E2,8E0,5E0,3E0,3E0,6E0,8E0,3E0,5E0,1.6E1,4E0,1E0,3E0,1.2E1,1.1E1,1E0,1E0,6E0,2E0,8E0,4E0,1E0,2E0,1.3E1,1.64E2,7E0,1E0,4E0,1E0,1E0,2E0,2E0,1E0,5E0,1E0,2E0,6E0,1E0,2E0,1E0,4E0,1.5E1,1E0,1E0,3E0,1E1,2E0,9E0,2E0,2E0,4E0,5E0,3E0,1E0,3E0,1E0,1E0,4E0,9E0,5E0,1.59E2,6E0,1E0,2E0,2E0,1E0,4E0,1E0,1E0,2E0,2E0],"tree_param":{"num_deleted":"0","num_feature":"3","num_nodes":"93","size_leaf_vector":"1"}},{"base_weights":[1.5909114E0,1.1982099E1,6.9653136E-1,1.7053248E0,2.7778711E1,-1.2975387E1,8.9950556E-1,3.6077082E0,-2.820984E0,9.143189E0,4.8787315E1,2.67342E-1,-5.368383E0,4.217022E0,-3.068372E-1,8.0820125E-1,3.2410982E0,-3.313969E0,1.9970512E0,2.5857239E0,1.4838748E1,6.597753E1,-4.1749823E-1,8.0698544E-1,6.113339E1,-1.0629669E1,7.3292714E-1,-2.1430597E0,4.1006293E0,6.2661386E0,-1.6215317E0,1.4802567E0,1.581726E-1,-2.2602426E-1,6.903461E0,2.6723658E1,2.9662309E0,-7.339483E0,8.252165E0,4.4614273E1,-1.7631638E1,-1.7411749E1,-3.4628315E0,3.6193428E1,-2.8441823E-1,2.845325E0,1.5069581E-2,-2.5627673E-1,3.0760393E0,3.03788E-1,-2.3261033E-1,3.8319692E-1,-1.1858171E1,3.132932E1,-1.4307594E-1,-1.124239E0,-6.809998E0,-1.5847654E0,-9.375782E0,-1.53676E-1,-2.3281908E0,3.305191E-1,1.7766197E1,-4.200201E0,3.5491508E-2],"categories":[],"categories_nodes":[],"categories_segments":[],"categories_sizes":[],"default_left":[0,0,0,0,0,0,0,0,0,0,0,0,0,0,0,0,0,0,0,0,0,0,0,0,0,0,0,0,0,0,0,0,0,0,0,0,0,0,0,0,0,0,0,0,0,0,0,0,0,0,0,0,0,0,0,0,0,0,0,0,0,0,0,0,0],"id":20,"left_children":[1,3,5,7,9,11,13,15,17,19,21,-1,-1,23,25,27,-1,-1,29,31,33,35,-1,37,39,41,43,-1,45,47,-1,-1,49,-1,-1,-1,-1,51,53,-1,55,57,59,61,63,-1,-1,-1,-1,-1,-1,-1,-1,-1,-1,-1,-1,-1,-1,-1,-1,-1,-1,-1,-1],"loss_changes":[2.696112E3,3.6864077E3,7.58159E2,1.3933891E2,3.0774849E3,2.887967E2,1.0658424E3,2.1286476E2,2.2021617E2,1.8572168E2,3.542167E3,0E0,0E0,1.3730836E4,2.1115203E3,2.6491757E2,0E0,0E0,1.6027097E2,2.2023623E1,3.9963147E2,3.0065059E3,0E0,4.184897E3,3.0215309E4,8.146151E2,6.4678223E3,0E0,1.5216888E2,9.393306E1,0E0,0E0,3.17816E0,0E0,0E0,0E0,0E0,9.203225E3,3.0273742E4,0E0,1.260423E2,1.345813E3,1.2283465E2,3.9750767E3,9.6833057E2,0E0,0E0,0E0,0E0,0E0,0E0,0E0,0E0,0E0,0E0,0E0,0E0,0E0,0E0,0E0,0E0,0E0,0E0,0E0,0E0],"parents":[2147483647,0,0,1,1,2,2,3,3,4,4,5,5,6,6,7,7,8,8,9,9,10,10,13,13,14,14,15,15,18,18,19,19,20,20,21,21,23,23,24,24,25,25,26,26,28,28,29,29,32,32,37,37,38,38,40,40,41,41,42,42,43,43,44,44],"right_children":[2,4,6,8,10,12,14,16,18,20,22,-1,-1,24,26,28,-1,-1,30,32,34,36,-1,38,40,42,44,-1,46,48,-1,-1,50,-1,-1,-1,-1,52,54,-1,56,58,60,62,64,-1,-1,-1,-1,-1,-1,-1,-1,-1,-1,-1,-1,-1,-1,-1,-1,-1,-1,-1,-1],"split_conditions":[2.7E1,2.2E1,2.9E1,1.9E1,1E0,1.2E1,5.6E1,1.7E1,2E1,1.1E1,1.5E1,2.67342E-1,-5.368383E0,5.5E1,6.3E1,1.3E1,3.2410982E0,-3.313969E0,1.5E1,3E0,2.4E1,2.3E1,-4.1749823E-1,1.3E1,1.3E1,1.4E1,6.4E1,-2.1430597E0,1.6E1,1E0,-1.6215317E0,1.4802567E0,2.3E1,-2.2602426E-1,6.903461E0,2.6723658E1,2.9662309E0,1.2E1,1.4E1,4.4614273E1,2.1E1,1E1,5.9E1,1.1E1,6.5E1,2.845325E0,1.5069581E-2,-2.5627673E-1,3.0760393E0,3.03788E-1,-2.3261033E-1,3.8319692E-1,-1.1858171E1,3.132932E1,-1.4307594E-1,-1.124239E0,-6.809998E0,-1.5847654E0,-9.375782E0,-1.53676E-1,-2.3281908E0,3.305191E-1,1.7766197E1,-4.200201E0,3.5491508E-2],"split_indices":[0,0,0,0,1,2,0,0,0,2,2,0,0,0,0,2,0,0,2,2,0,0,0,2,2,2,0,0,2,1,0,0,0,0,0,0,0,2,2,0,2,2,0,2,0,0,0,0,0,0,0,0,0,0,0,0,0,0,0,0,0,0,0,0,0],"split_type":[0,0,0,0,0,0,0,0,0,0,0,0,0,0,0,0,0,0,0,0,0,0,0,0,0,0,0,0,0,0,0,0,0,0,0,0,0,0,0,0,0,0,0,0,0,0,0,0,0,0,0,0,0,0,0,0,0,0,0,0,0,0,0,0,0],"sum_hessian":[2.9E2,2.2E1,2.68E2,1.4E1,8E0,3E0,2.65E2,1E1,4E0,5E0,3E0,1E0,2E0,7E1,1.95E2,8E0,2E0,1E0,3E0,3E0,2E0,2E0,1E0,6.7E1,3E0,1.7E1,1.78E2,2E0,6E0,2E0,1E0,1E0,2E0,1E0,1E0,1E0,1E0,3.2E1,3.5E1,1E0,2E0,8E0,9E0,4E0,1.74E2,2E0,4E0,1E0,1E0,1E0,1E0,2.6E1,6E0,2E0,3.3E1,1E0,1E0,5E0,3E0,6E0,3E0,2E0,2E0,4E0,1.7E2],"tree_param":{"num_deleted":"0","num_feature":"3","num_nodes":"65","size_leaf_vector":"1"}},{"base_weights":[1.426778E0,2.8982544E-1,8.160381E0,1.6563495E0,-2.2446432E0,1.6920805E1,1.8782341E-1,9.332429E-2,1.9684076E1,-1.2745965E1,-7.349102E-1,7.1711845E0,3.400279E1,-3.5274618E0,6.359096E0,3.6759987E0,-1.6638036E0,-3.7627728E0,4.0318916E1,-7.4452953E0,-2.0160812E1,2.5141615E1,-2.4733927E0,-6.6941743E0,1.0039926E1,6.0284966E1,-7.800884E-1,1.7376862E0,-7.2306366E0,1.7878824E1,-2.380572E0,5.71125E-1,2.2667204E1,-1.0233422E1,5.5114526E-1,-6.6955137E0,8.123145E0,8.002514E1,-9.467038E0,-1.5541489E1,3.3686569E0,-9.054223E-2,-8.003963E0,-2.4006572E0,2.0296606E1,-6.317584E0,-1.1105429E0,-2.635826E0,-3.765524E-1,2.29313E1,7.278266E-1,2.6146317E0,2.23709E1,5.106968E-1,-1.2340983E0,-2.302554E0,3.896869E0,5.6660056E0,-1.1724821E1,-1.7205883E0,8.298589E0,2.1441789E0,-5.7155914E0,8.556982E-1,-9.466826E0,-8.2920065E0,2.9687054E1,-6.134459E0,-7.1234065E-1,1.5589015E1,-6.176948E-1,-4.2274517E-1,4.4843183E0,3.1036058E1,1.4609997E0,-5.233609E0,2.1701913E0,-1.0254221E0,-7.957664E0,-1.3563452E0,5.941235E-1,2.4191792E0,-8.3220625E-1,1.1591885E1,-1.2623444E-1,6.5556455E-1,-1.4210839E0,8.6466986E-1,-1.1747874E0,5.338898E-2,2.4963136E0,-1.4691056E0,-4.6864257E0,-4.264336E-1,-2.4313624E0],"categories":[],"categories_nodes":[],"categories_segments":[],"categories_sizes":[],"default_left":[0,0,0,0,0,0,0,0,0,0,0,0,0,0,0,0,0,0,0,0,0,0,0,0,0,0,0,0,0,0,0,0,0,0,0,0,0,0,0,0,0,0,0,0,0,0,0,0,0,0,0,0,0,0,0,0,0,0,0,0,0,0,0,0,0,0,0,0,0,0,0,0,0,0,0,0,0,0,0,0,0,0,0,0,0,0,0,0,0,0,0,0,0,0,0],"id":21,"left_children":[1,3,5,7,9,11,13,15,17,19,21,23,25,27,29,31,33,35,37,39,41,43,45,47,49,51,53,55,57,59,61,63,65,67,69,-1,71,73,75,77,-1,-1,-1,79,-1,-1,81,-1,-1,83,85,-1,-1,-1,-1,87,-1,89,91,-1,-1,-1,93,-1,-1,-1,-1,-1,-1,-1,-1,-1,-1,-1,-1,-1,-1,-1,-1,-1,-1,-1,-1,-1,-1,-1,-1,-1,-1,-1,-1,-1,-1,-1,-1],"loss_changes":[2.2254692E3,8.69571E2,2.9302273E3,4.591143E3,1.3858018E3,3.0870166E3,5.497763E2,9.5669385E2,6.4413965E3,2.8223694E2,3.5710845E3,6.240747E2,6.4462163E3,3.05031E2,9.486691E2,2.935319E3,1.9417294E3,1.7251483E3,1.4595287E4,1.3840294E3,5.097965E2,6.017042E3,1.8509492E3,2.3105667E1,1.4238588E3,2.2967139E3,4.0103966E1,3.4813113E2,5.880719E2,1.0827302E3,2.315039E2,3.3147097E3,2.9600607E4,1.6372727E3,1.1110777E4,0E0,3.463332E2,6.5392344E3,6.591836E2,7.0831946E2,0E0,0E0,0E0,4.6113846E1,0E0,0E0,1.0906768E3,0E0,0E0,1.8503682E3,7.406561E1,0E0,0E0,0E0,0E0,6.147763E1,0E0,4.223207E1,1.0973804E2,0E0,0E0,0E0,3.9772324E1,0E0,0E0,0E0,0E0,0E0,0E0,0E0,0E0,0E0,0E0,0E0,0E0,0E0,0E0,0E0,0E0,0E0,0E0,0E0,0E0,0E0,0E0,0E0,0E0,0E0,0E0,0E0,0E0,0E0,0E0,0E0,0E0],"parents":[2147483647,0,0,1,1,2,2,3,3,4,4,5,5,6,6,7,7,8,8,9,9,10,10,11,11,12,12,13,13,14,14,15,15,16,16,17,17,18,18,19,19,20,20,21,21,22,22,23,23,24,24,25,25,26,26,27,27,28,28,29,29,30,30,31,31,32,32,33,33,34,34,36,36,37,37,38,38,39,39,43,43,46,46,49,49,50,50,55,55,57,57,58,58,62,62],"right_children":[2,4,6,8,10,12,14,16,18,20,22,24,26,28,30,32,34,36,38,40,42,44,46,48,50,52,54,56,58,60,62,64,66,68,70,-1,72,74,76,78,-1,-1,-1,80,-1,-1,82,-1,-1,84,86,-1,-1,-1,-1,88,-1,90,92,-1,-1,-1,94,-1,-1,-1,-1,-1,-1,-1,-1,-1,-1,-1,-1,-1,-1,-1,-1,-1,-1,-1,-1,-1,-1,-1,-1,-1,-1,-1,-1,-1,-1,-1,-1],"split_conditions":[1E0,8.6E1,1.6E1,8.2E1,9E1,1.3E1,2.2E1,4.5E1,1.6E1,2E1,9.1E1,2E0,6.6E1,3.8E1,2.3E1,4.4E1,5.5E1,8.4E1,1.8E1,1.9E1,8.8E1,1.4E1,9.3E1,4.4E1,9E0,2.2E1,8.4E1,3.6E1,1.7E1,3.8E1,1.8E1,4.2E1,1.3E1,1.3E1,5.6E1,-6.6955137E0,4E0,8.4E1,8.3E1,1.4E1,3.3686569E0,-9.054223E-2,-8.003963E0,1E1,2.0296606E1,-6.317584E0,9.7E1,-2.635826E0,-3.765524E-1,4.8E1,5.9E1,2.6146317E0,2.23709E1,5.106968E-1,-1.2340983E0,1.3E1,3.896869E0,7.1E1,1.8E1,-1.7205883E0,8.298589E0,2.1441789E0,5.5E1,8.556982E-1,-9.466826E0,-8.2920065E0,2.9687054E1,-6.134459E0,-7.1234065E-1,1.5589015E1,-6.176948E-1,-4.2274517E-1,4.4843183E0,3.1036058E1,1.4609997E0,-5.233609E0,2.1701913E0,-1.0254221E0,-7.957664E0,-1.3563452E0,5.941235E-1,2.4191792E0,-8.3220625E-1,1.1591885E1,-1.2623444E-1,6.5556455E-1,-1.4210839E0,8.6466986E-1,-1.1747874E0,5.338898E-2,2.4963136E0,-1.4691056E0,-4.6864257E0,-4.264336E-1,-2.4313624E0],"split_indices":[1,0,2,0,0,2,2,0,2,2,0,2,0,0,2,0,0,0,2,2,0,2,0,0,2,0,0,0,2,0,0,0,2,2,0,0,2,0,0,2,0,0,0,2,0,0,0,0,0,0,0,0,0,0,0,0,0,0,2,0,0,0,0,0,0,0,0,0,0,0,0,0,0,0,0,0,0,0,0,0,0,0,0,0,0,0,0,0,0,0,0,0,0,0,0],"split_type":[0,0,0,0,0,0,0,0,0,0,0,0,0,0,0,0,0,0,0,0,0,0,0,0,0,0,0,0,0,0,0,0,0,0,0,0,0,0,0,0,0,0,0,0,0,0,0,0,0,0,0,0,0,0,0,0,0,0,0,0,0,0,0,0,0,0,0,0,0,0,0,0,0,0,0,0,0,0,0,0,0,0,0,0,0,0,0,0,0,0,0,0,0,0,0],"sum_hessian":[2.9E2,2.49E2,4.1E1,1.62E2,8.7E1,1.9E1,2.2E1,1.5E2,1.2E1,1E1,7.7E1,1.3E1,6E0,1.4E1,8E0,4.9E1,1.01E2,6E0,6E0,7E0,3E0,4E0,7.3E1,2E0,1.1E1,3E0,3E0,6E0,8E0,3E0,5E0,4.3E1,6E0,2E1,8.1E1,2E0,4E0,3E0,3E0,5E0,2E0,1E0,2E0,3E0,1E0,4E0,6.9E1,1E0,1E0,4E0,7E0,1E0,2E0,2E0,1E0,5E0,1E0,2E0,6E0,1E0,2E0,1E0,4E0,4.1E1,2E0,4E0,2E0,8E0,1.2E1,3E0,7.8E1,2E0,2E0,2E0,1E0,2E0,1E0,3E0,2E0,2E0,1E0,1E1,5.9E1,2E0,2E0,6E0,1E0,1E0,4E0,1E0,1E0,3E0,3E0,2E0,2E0],"tree_param":{"num_deleted":"0","num_feature":"3","num_nodes":"95","size_leaf_vector":"1"}},{"base_weights":[1.2963315E0,3.9808908E-1,6.612148E0,1.4971308E0,-1.5723976E0,1.3442047E1,3.8562062E-1,2.0379224E-1,1.9115038E1,-5.1254234E0,1.9375709E0,3.5140938E1,7.5457172E0,-2.4704962E0,5.102968E0,2.8399482E0,-2.234729E0,-1.4086508E0,3.645289E1,-7.798305E-1,-1.3764621E1,1.5678929E1,-2.3149989E0,3.8335876E0,1.935945E1,-3.815662E-1,1.1904378E1,1.728768E0,-5.462091E0,1.4159679E1,-1.7853336E0,4.089613E-1,1.811427E1,8.414939E0,-5.747373E0,-5.356411E0,1.127805E1,2.4828846E1,-7.3927803E0,-3.7558467E0,2.824827E1,-4.848647E-1,-7.59714E0,-2.4672623E0,1.9985558E1,1.2186958E0,-1.1624475E1,-4.9732363E-1,2.222438E0,2.4229615E0,-3.1373398E0,1.3186634E1,4.303726E0,-1.6634783E0,3.312337E0,4.816111E0,-9.086736E0,1.0848999E-2,8.490926E0,1.8225541E0,-4.5724726E0,-1.7589327E0,2.059276E0,-1.0077574E1,1.35218725E1,-8.8271403E-1,2.2126163E1,-2.3764349E1,-5.544771E-1,-3.3819622E-1,7.2741246E0,-4.1868877E0,1.8446629E0,-2.6521902E0,9.547203E-1,-5.5602245E0,1.8271946E1,-1.6692876E0,5.2606683E0,-2.505134E0,1.394866E0,7.7206745E0,1.9092396E0,-5.5361456E-1,7.903933E0,1.5656221E0,-4.9462867E0,-2.332615E-1,-2.2404523E0,-3.360511E-1,5.199863E0,7.3496705E-1,-8.92839E-1,4.5382693E-2,2.1218674E0,-1.138557E0,-3.6319795E0,-1.4625001E0,1.4673821E0,-3.411465E-1,-1.9450898E0],"categories":[],"categories_nodes":[],"categories_segments":[],"categories_sizes":[],"default_left":[0,0,0,0,0,0,0,0,0,0,0,0,0,0,0,0,0,0,0,0,0,0,0,0,0,0,0,0,0,0,0,0,0,0,0,0,0,0,0,0,0,0,0,0,0,0,0,0,0,0,0,0,0,0,0,0,0,0,0,0,0,0,0,0,0,0,0,0,0,0,0,0,0,0,0,0,0,0,0,0,0,0,0,0,0,0,0,0,0,0,0,0,0,0,0,0,0,0,0,0,0],"id":22,"left_children":[1,3,5,7,9,11,13,15,17,19,21,23,25,27,29,31,33,35,37,39,41,43,45,47,-1,49,51,53,55,57,59,61,63,65,67,-1,69,-1,71,73,75,77,-1,79,81,83,85,-1,-1,-1,87,-1,89,91,-1,93,95,97,-1,-1,99,-1,-1,-1,-1,-1,-1,-1,-1,-1,-1,-1,-1,-1,-1,-1,-1,-1,-1,-1,-1,-1,-1,-1,-1,-1,-1,-1,-1,-1,-1,-1,-1,-1,-1,-1,-1,-1,-1,-1,-1],"loss_changes":[1.3868613E3,5.4376587E2,1.7809319E3,3.6646377E3,1.1323218E3,2.2937126E3,3.2249268E2,9.770232E2,3.9655522E3,1.6786755E3,2.7243567E3,3.4331748E3,5.91932E2,1.9788013E2,5.8674805E2,2.703204E3,3.0036345E3,1.453243E3,1.2794787E4,2.7841272E3,2.2902676E3,9.0894727E2,1.1984531E3,7.116774E1,0E0,1.8849919E2,2.4905266E3,2.3949527E2,3.7905624E2,8.0014355E2,1.5922865E2,2.6314807E3,1.5453365E4,1.5058515E4,1.7041E4,0E0,6.708767E2,0E0,4.4133875E2,1.0512401E3,5.71233E3,8.298404E2,0E0,1.6443446E2,5.4112695E2,2.1274402E3,9.0515466E2,0E0,0E0,0E0,5.551267E1,0E0,7.261034E2,3.9687714E1,0E0,3.0512566E1,6.591138E1,9.538001E1,0E0,0E0,2.54543E1,0E0,0E0,0E0,0E0,0E0,0E0,0E0,0E0,0E0,0E0,0E0,0E0,0E0,0E0,0E0,0E0,0E0,0E0,0E0,0E0,0E0,0E0,0E0,0E0,0E0,0E0,0E0,0E0,0E0,0E0,0E0,0E0,0E0,0E0,0E0,0E0,0E0,0E0,0E0,0E0],"parents":[2147483647,0,0,1,1,2,2,3,3,4,4,5,5,6,6,7,7,8,8,9,9,10,10,11,11,12,12,13,13,14,14,15,15,16,16,17,17,18,18,19,19,20,20,21,21,22,22,23,23,25,25,26,26,27,27,28,28,29,29,30,30,31,31,32,32,33,33,34,34,36,36,38,38,39,39,40,40,41,41,43,43,44,44,45,45,46,46,50,50,52,52,53,53,55,55,56,56,57,57,60,60],"right_children":[2,4,6,8,10,12,14,16,18,20,22,24,26,28,30,32,34,36,38,40,42,44,46,48,-1,50,52,54,56,58,60,62,64,66,68,-1,70,-1,72,74,76,78,-1,80,82,84,86,-1,-1,-1,88,-1,90,92,-1,94,96,98,-1,-1,100,-1,-1,-1,-1,-1,-1,-1,-1,-1,-1,-1,-1,-1,-1,-1,-1,-1,-1,-1,-1,-1,-1,-1,-1,-1,-1,-1,-1,-1,-1,-1,-1,-1,-1,-1,-1,-1,-1,-1,-1],"split_conditions":[1E0,8.5E1,1.6E1,8.2E1,1.02E2,2.3E1,2.2E1,1.4E1,1.6E1,9.7E1,1.07E2,2.2E1,4.4E1,3.8E1,2.3E1,1.3E1,4.2E1,8.4E1,1.8E1,9.6E1,1.6E1,7E0,2E1,1.7E1,1.935945E1,2.7E1,4.8E1,3.6E1,1.7E1,5E1,1.8E1,5.5E1,4.2E1,4.1E1,4.5E1,-5.356411E0,4E0,2.4828846E1,8.3E1,1.8E1,2E1,1.4E1,-7.59714E0,1.03E2,1.05E2,1.9E1,1.14E2,-4.9732363E-1,2.222438E0,2.4229615E0,4.1E1,1.3186634E1,1.5E1,1.3E1,3.312337E0,7.1E1,1.8E1,3.8E1,8.490926E0,1.8225541E0,5.5E1,-1.7589327E0,2.059276E0,-1.0077574E1,1.35218725E1,-8.8271403E-1,2.2126163E1,-2.3764349E1,-5.544771E-1,-3.3819622E-1,7.2741246E0,-4.1868877E0,1.8446629E0,-2.6521902E0,9.547203E-1,-5.5602245E0,1.8271946E1,-1.6692876E0,5.2606683E0,-2.505134E0,1.394866E0,7.7206745E0,1.9092396E0,-5.5361456E-1,7.903933E0,1.5656221E0,-4.9462867E0,-2.332615E-1,-2.2404523E0,-3.360511E-1,5.199863E0,7.3496705E-1,-8.92839E-1,4.5382693E-2,2.1218674E0,-1.138557E0,-3.6319795E0,-1.4625001E0,1.4673821E0,-3.411465E-1,-1.9450898E0],"split_indices":[1,0,2,0,0,0,2,2,2,0,0,0,0,0,2,2,0,0,2,0,2,2,2,0,0,0,0,0,2,0,0,0,0,0,0,0,2,0,0,2,2,2,0,0,0,2,0,0,0,0,0,0,2,0,0,0,2,0,0,0,0,0,0,0,0,0,0,0,0,0,0,0,0,0,0,0,0,0,0,0,0,0,0,0,0,0,0,0,0,0,0,0,0,0,0,0,0,0,0,0,0],"split_type":[0,0,0,0,0,0,0,0,0,0,0,0,0,0,0,0,0,0,0,0,0,0,0,0,0,0,0,0,0,0,0,0,0,0,0,0,0,0,0,0,0,0,0,0,0,0,0,0,0,0,0,0,0,0,0,0,0,0,0,0,0,0,0,0,0,0,0,0,0,0,0,0,0,0,0,0,0,0,0,0,0,0,0,0,0,0,0,0,0,0,0,0,0,0,0,0,0,0,0,0,0],"sum_hessian":[2.9E2,2.49E2,4.1E1,1.6E2,8.9E1,1.9E1,2.2E1,1.5E2,1E1,4.4E1,4.5E1,3E0,1.6E1,1.4E1,8E0,7.2E1,7.8E1,5E0,5E0,3E1,1.4E1,1E1,3.5E1,2E0,1E0,6E0,1E1,6E0,8E0,3E0,5E0,6.3E1,9E0,1.9E1,5.9E1,2E0,3E0,2E0,3E0,2.8E1,2E0,7E0,7E0,2E0,8E0,2.6E1,9E0,1E0,1E0,1E0,5E0,1E0,9E0,5E0,1E0,2E0,6E0,2E0,1E0,1E0,4E0,3.2E1,3.1E1,3E0,6E0,1.7E1,2E0,2E0,5.7E1,2E0,1E0,2E0,1E0,1.6E1,1.2E1,1E0,1E0,6E0,1E0,1E0,1E0,5E0,3E0,2.4E1,2E0,2E0,7E0,4E0,1E0,7E0,2E0,1E0,4E0,1E0,1E0,3E0,3E0,1E0,1E0,2E0,2E0],"tree_param":{"num_deleted":"0","num_feature":"3","num_nodes":"101","size_leaf_vector":"1"}},{"base_weights":[1.2232424E0,4.5773983E0,-4.2585048E-1,3.0031617E0,4.003405E1,-3.2978992E0,2.1465187E0,4.3434043E0,-1.4083164E1,3.5274895E1,-7.502976E0,-1.1221151E1,1.13448665E-1,1.4013146E1,8.748051E-1,8.600183E0,-1.116225E0,-2.8375854E1,-2.6909173E0,-7.4544234E0,-1.8344866E1,-1.5470549E0,1.2345481E1,5.591229E1,-3.450675E0,1.7954193E0,-9.361302E0,4.02968E-1,4.0529022E1,5.6698537E0,-1.6857391E1,-1.2499474E1,-2.6966172E-1,-2.143052E0,2.08107E-1,-2.1100616E-1,-9.2520895E0,-1.1914728E1,-1.0709034E1,7.938284E-1,-7.3771095E0,2.4119995E1,4.5677263E-1,-1.1641549E0,2.6324686E1,4.2660737E0,-1.2233942E1,8.276398E-1,8.681988E0,-5.4911613E0,-5.4689536E0,1.001443E0,-3.5265005E0,-7.555905E-2,4.073052E1,-2.1061614E-1,1.7700932E1,-1.9011478E1,-3.6521703E-1,1.9633561E-1,-1.6963921E-1,2.3151748E0,-2.4206781E0,-3.288749E0,-9.890087E-1,-5.5108935E-1,-5.7365584E0,-3.7141505E-1,1.29199095E1,-2.5312362E0,1.1509362E-1,-1.0158172E0,1.0325211E1,-1.4018781E0,3.1463358E0,-7.2412413E-1,2.857161E0,-5.183825E-1,-4.547989E0,4.1626167E0,-2.632865E-1,4.4567034E-1,-2.564363E0],"categories":[],"categories_nodes":[],"categories_segments":[],"categories_sizes":[],"default_left":[0,0,0,0,0,0,0,0,0,0,0,0,0,0,0,0,0,0,0,0,0,0,0,0,0,0,0,0,0,0,0,0,0,0,0,0,0,0,0,0,0,0,0,0,0,0,0,0,0,0,0,0,0,0,0,0,0,0,0,0,0,0,0,0,0,0,0,0,0,0,0,0,0,0,0,0,0,0,0,0,0,0,0],"id":23,"left_children":[1,3,5,7,9,11,13,15,17,-1,-1,19,21,23,25,27,29,31,33,35,37,39,41,43,45,47,49,51,53,55,57,-1,-1,-1,59,61,63,-1,65,67,69,71,73,-1,-1,75,77,79,-1,-1,81,-1,-1,-1,-1,-1,-1,-1,-1,-1,-1,-1,-1,-1,-1,-1,-1,-1,-1,-1,-1,-1,-1,-1,-1,-1,-1,-1,-1,-1,-1,-1,-1],"loss_changes":[1.6115619E3,5.2382183E3,1.4551211E3,2.1908525E3,2.3117102E4,2.5149675E3,1.5572002E3,2.0315173E3,1.0634238E3,0E0,0E0,6.145762E2,1.3596471E3,7.510126E3,9.120406E2,1.2808319E4,4.26159E3,1.057978E3,6.602744E1,2.5847278E2,1.0433438E3,8.110573E2,1.1088529E3,6.0513213E3,5.9441705E2,2.287802E3,1.7835779E2,1.4666705E3,3.887365E4,9.55679E3,8.652639E3,0E0,0E0,0E0,1.7511872E0,3.7376794E2,1.2683826E2,0E0,5.619874E2,3.746703E3,1.4313104E2,1.249499E3,3.0628906E2,0E0,0E0,1.9859387E2,9.676752E1,1.925662E3,0E0,0E0,1.6258543E2,0E0,0E0,0E0,0E0,0E0,0E0,0E0,0E0,0E0,0E0,0E0,0E0,0E0,0E0,0E0,0E0,0E0,0E0,0E0,0E0,0E0,0E0,0E0,0E0,0E0,0E0,0E0,0E0,0E0,0E0,0E0,0E0],"parents":[2147483647,0,0,1,1,2,2,3,3,4,4,5,5,6,6,7,7,8,8,11,11,12,12,13,13,14,14,15,15,16,16,17,17,18,18,19,19,20,20,21,21,22,22,23,23,24,24,25,25,26,26,27,27,28,28,29,29,30,30,34,34,35,35,36,36,38,38,39,39,40,40,41,41,42,42,45,45,46,46,47,47,50,50],"right_children":[2,4,6,8,10,12,14,16,18,-1,-1,20,22,24,26,28,30,32,34,36,38,40,42,44,46,48,50,52,54,56,58,-1,-1,-1,60,62,64,-1,66,68,70,72,74,-1,-1,76,78,80,-1,-1,82,-1,-1,-1,-1,-1,-1,-1,-1,-1,-1,-1,-1,-1,-1,-1,-1,-1,-1,-1,-1,-1,-1,-1,-1,-1,-1,-1,-1,-1,-1,-1,-1],"split_conditions":[5.6E1,5.5E1,1.5E1,5.2E1,1.3E1,7.2E1,6.4E1,1.5E1,1.3E1,3.5274895E1,-7.502976E0,1.3E1,1.49E2,1.7E1,1.4E2,1.3E1,4.2E1,1E0,5.3E1,2E0,5.7E1,1.05E2,1.98E2,6.3E1,2.1E1,1.28E2,1.6E1,1.2E1,4.2E1,4.1E1,4.5E1,-1.2499474E1,-2.6966172E-1,-2.143052E0,1E0,6.4E1,6.7E1,-1.1914728E1,6.6E1,1.03E2,1.3E1,5E0,2.99E2,-1.1641549E0,2.6324686E1,5.8E1,5.7E1,1.6E1,8.681988E0,-5.4911613E0,2E1,1.001443E0,-3.5265005E0,-7.555905E-2,4.073052E1,-2.1061614E-1,1.7700932E1,-1.9011478E1,-3.6521703E-1,1.9633561E-1,-1.6963921E-1,2.3151748E0,-2.4206781E0,-3.288749E0,-9.890087E-1,-5.5108935E-1,-5.7365584E0,-3.7141505E-1,1.29199095E1,-2.5312362E0,1.1509362E-1,-1.0158172E0,1.0325211E1,-1.4018781E0,3.1463358E0,-7.2412413E-1,2.857161E0,-5.183825E-1,-4.547989E0,4.1626167E0,-2.632865E-1,4.4567034E-1,-2.564363E0],"split_indices":[0,0,2,0,2,0,0,2,2,0,0,2,0,2,0,2,0,1,0,2,0,0,0,0,2,0,2,2,0,0,0,0,0,0,1,0,0,0,0,0,2,2,0,0,0,0,0,2,0,0,2,0,0,0,0,0,0,0,0,0,0,0,0,0,0,0,0,0,0,0,0,0,0,0,0,0,0,0,0,0,0,0,0],"split_type":[0,0,0,0,0,0,0,0,0,0,0,0,0,0,0,0,0,0,0,0,0,0,0,0,0,0,0,0,0,0,0,0,0,0,0,0,0,0,0,0,0,0,0,0,0,0,0,0,0,0,0,0,0,0,0,0,0,0,0,0,0,0,0,0,0,0,0,0,0,0,0,0,0,0,0,0,0,0,0,0,0,0,0],"sum_hessian":[2.9E2,9.5E1,1.95E2,9.2E1,3E0,9.2E1,1.03E2,8.6E1,6E0,1E0,2E0,2.7E1,6.5E1,9E0,9.4E1,4.8E1,3.8E1,2E0,4E0,1.9E1,8E0,5.8E1,7E0,2E0,7E0,8.7E1,7E0,3.9E1,9E0,2.7E1,1.1E1,1E0,1E0,1E0,3E0,4E0,1.5E1,1E0,7E0,4.2E1,1.6E1,3E0,4E0,1E0,1E0,4E0,3E0,8.5E1,2E0,1E0,6E0,3.2E1,7E0,7E0,2E0,2.5E1,2E0,2E0,9E0,2E0,1E0,2E0,2E0,1.1E1,4E0,4E0,3E0,4.1E1,1E0,1.4E1,2E0,1E0,2E0,3E0,1E0,2E0,2E0,1E0,2E0,9E0,7.6E1,2E0,4E0],"tree_param":{"num_deleted":"0","num_feature":"3","num_nodes":"83","size_leaf_vector":"1"}},{"base_weights":[1.113758E0,7.3267193E0,2.0790175E-1,1.3418559E1,-4.9519525E0,-7.595981E-1,3.2973208E0,7.9144365E-1,3.5778828E1,-1.4880038E1,5.6835556E0,-1.21470585E1,3.9621025E-1,-1.3359171E1,5.703888E0,5.208598E0,-1.0851446E1,4.1567917E0,2.2280153E1,-2.0589676E0,-7.19433E0,2.1714973E0,4.013386E0,5.7130065E0,-5.972583E1,1.2819553E1,-7.42487E-1,-1.748909E1,1.3886517E0,3.7437878E1,1.1023415E0,